{"learner":{"attributes":{"scikit_learn":"{\"_estimator_type\": \"regressor\"}"},"feature_names":[],"feature_types":[],"gradient_booster":{"model":{"gbtree_model_param":{"num_parallel_tree":"1","num_trees":"100"},"iteration_indptr":[0,1,2,3,4,5,6,7,8,9,10,11,12,13,14,15,16,17,18,19,20,21,22,23,24,25,26,27,28,29,30,31,32,33,34,35,36,37,38,39,40,41,42,43,44,45,46,47,48,49,50,51,52,53,54,55,56,57,58,59,60,61,62,63,64,65,66,67,68,69,70,71,72,73,74,75,76,77,78,79,80,81,82,83,84,85,86,87,88,89,90,91,92,93,94,95,96,97,98,99,100],"tree_info":[0,0,0,0,0,0,0,0,0,0,0,0,0,0,0,0,0,0,0,0,0,0,0,0,0,0,0,0,0,0,0,0,0,0,0,0,0,0,0,0,0,0,0,0,0,0,0,0,0,0,0,0,0,0,0,0,0,0,0,0,0,0,0,0,0,0,0,0,0,0,0,0,0,0,0,0,0,0,0,0,0,0,0,0,0,0,0,0,0,0,0,0,0,0,0,0,0,0,0,0],"trees":[{"base_weights":[-7.12931E-11,-2.2667546E-3,1.00115E-2,-1.1681704E-3,-1.5578392E-2,2.925797E-2,1.9705666E-3,3.60043E-4,-2.6586733E-4,-2.1430894E-3,-7.780711E-4,3.554695E-3,1.5654498E-3,-1.110976E-3,6.501357E-4],"categories":[],"categories_nodes":[],"categories_segments":[],"categories_sizes":[],"default_left":[0,0,0,0,0,0,0,0,0,0,0,0,0,0,0],"id":0,"left_children":[1,3,5,7,9,11,13,-1,-1,-1,-1,-1,-1,-1,-1],"loss_changes":[2.9501698E-3,1.5319414E-3,3.6565748E-3,7.1322604E-4,1.9834004E-4,4.239427E-5,1.1389843E-3,0E0,0E0,0E0,0E0,0E0,0E0,0E0,0E0],"parents":[2147483647,0,0,1,1,2,2,3,3,4,4,5,5,6,6],"right_children":[2,4,6,8,10,12,14,-1,-1,-1,-1,-1,-1,-1,-1],"split_conditions":[1.835904E0,1.3166993E0,-5.194789E-1,-1.4051087E0,-6.2353224E-1,-7.7292097E-1,-9.618088E-1,3.60043E-4,-2.6586733E-4,-2.1430894E-3,-7.780711E-4,3.554695E-3,1.5654498E-3,-1.110976E-3,6.501357E-4],"split_indices":[3,3,4,1,0,4,6,0,0,0,0,0,0,0,0],"split_type":[0,0,0,0,0,0,0,0,0,0,0,0,0,0,0],"sum_hessian":[1.28E2,1.05E2,2.3E1,9.8E1,7E0,6E0,1.7E1,2.3E1,7.5E1,3E0,4E0,3E0,3E0,4E0,1.3E1],"tree_param":{"num_deleted":"0","num_feature":"12","num_nodes":"15","size_leaf_vector":"1"}},{"base_weights":[1.4203992E-5,-2.066749E-3,9.204488E-3,-1.0504021E-3,-1.4385698E-2,2.7063623E-2,1.7479081E-3,3.2553886E-4,-2.3963045E-4,-2.0027764E-3,-6.9949066E-4,3.2880933E-3,1.4480411E-3,-2.1945313E-4,1.6095078E-3],"categories":[],"categories_nodes":[],"categories_segments":[],"categories_sizes":[],"default_left":[0,0,0,0,0,0,0,0,0,0,0,0,0,0,0],"id":1,"left_children":[1,3,5,7,9,11,13,-1,-1,-1,-1,-1,-1,-1,-1],"loss_changes":[2.4860902E-3,1.3120438E-3,3.1487292E-3,5.8152305E-4,1.9350229E-4,3.627315E-5,1.0534524E-3,0E0,0E0,0E0,0E0,0E0,0E0,0E0,0E0],"parents":[2147483647,0,0,1,1,2,2,3,3,4,4,5,5,6,6],"right_children":[2,4,6,8,10,12,14,-1,-1,-1,-1,-1,-1,-1,-1],"split_conditions":[1.835904E0,1.3166993E0,-5.194789E-1,-1.4051087E0,-6.507167E-1,-7.7292097E-1,3.1174104E0,3.2553886E-4,-2.3963045E-4,-2.0027764E-3,-6.9949066E-4,3.2880933E-3,1.4480411E-3,-2.1945313E-4,1.6095078E-3],"split_indices":[3,3,4,1,7,4,2,0,0,0,0,0,0,0,0],"split_type":[0,0,0,0,0,0,0,0,0,0,0,0,0,0,0],"sum_hessian":[1.28E2,1.05E2,2.3E1,9.8E1,7E0,6E0,1.7E1,2.3E1,7.5E1,3E0,4E0,3E0,3E0,1.4E1,3E0],"tree_param":{"num_deleted":"0","num_feature":"12","num_nodes":"15","size_leaf_vector":"1"}},{"base_weights":[3.9991584E-5,-1.8847567E-3,8.539297E-3,-9.444941E-4,-1.3284911E-2,2.5033852E-2,1.6503425E-3,-3.293211E-4,1.2417155E-4,-1.8647317E-3,-6.338005E-4,3.041486E-3,1.3394379E-3,-1.0045416E-3,5.709517E-4],"categories":[],"categories_nodes":[],"categories_segments":[],"categories_sizes":[],"default_left":[0,0,0,0,0,0,0,0,0,0,0,0,0,0,0],"id":2,"left_children":[1,3,5,7,9,11,13,-1,-1,-1,-1,-1,-1,-1,-1],"loss_changes":[2.1264085E-3,1.1236812E-3,2.6858114E-3,5.124331E-4,1.7983012E-4,3.1036325E-5,9.119068E-4,0E0,0E0,0E0,0E0,0E0,0E0,0E0,0E0],"parents":[2147483647,0,0,1,1,2,2,3,3,4,4,5,5,6,6],"right_children":[2,4,6,8,10,12,14,-1,-1,-1,-1,-1,-1,-1,-1],"split_conditions":[1.835904E0,1.3166993E0,-5.194789E-1,-5.881447E-2,-6.2353224E-1,-7.7292097E-1,-9.618088E-1,-3.293211E-4,1.2417155E-4,-1.8647317E-3,-6.338005E-4,3.041486E-3,1.3394379E-3,-1.0045416E-3,5.709517E-4],"split_indices":[3,3,4,5,0,4,6,0,0,0,0,0,0,0,0],"split_type":[0,0,0,0,0,0,0,0,0,0,0,0,0,0,0],"sum_hessian":[1.28E2,1.05E2,2.3E1,9.8E1,7E0,6E0,1.7E1,4.7E1,5.1E1,3E0,4E0,3E0,3E0,4E0,1.3E1],"tree_param":{"num_deleted":"0","num_feature":"12","num_nodes":"15","size_leaf_vector":"1"}},{"base_weights":[4.5633147E-5,-1.7217875E-3,7.8498395E-3,-8.5211697E-4,-1.2268737E-2,2.3156313E-2,1.4612197E-3,3.0133713E-4,-2.0615854E-4,-1.9184469E-3,-6.766082E-4,2.8133749E-3,1.2389802E-3,-5.1513576E-4,8.64617E-4],"categories":[],"categories_nodes":[],"categories_segments":[],"categories_sizes":[],"default_left":[0,0,0,0,0,0,0,0,0,0,0,0,0,0,0],"id":3,"left_children":[1,3,5,7,9,11,13,-1,-1,-1,-1,-1,-1,-1,-1],"loss_changes":[1.7928536E-3,9.6181687E-4,2.3130574E-3,4.6905567E-4,1.7463544E-4,2.6555732E-5,8.997382E-4,0E0,0E0,0E0,0E0,0E0,0E0,0E0,0E0],"parents":[2147483647,0,0,1,1,2,2,3,3,4,4,5,5,6,6],"right_children":[2,4,6,8,10,12,14,-1,-1,-1,-1,-1,-1,-1,-1],"split_conditions":[1.835904E0,1.3166993E0,-5.194789E-1,-1.4051087E0,-1.3694515E0,-7.7292097E-1,-5.308562E-1,3.0133713E-4,-2.0615854E-4,-1.9184469E-3,-6.766082E-4,2.8133749E-3,1.2389802E-3,-5.1513576E-4,8.64617E-4],"split_indices":[3,3,4,1,7,4,0,0,0,0,0,0,0,0,0],"split_type":[0,0,0,0,0,0,0,0,0,0,0,0,0,0,0],"sum_hessian":[1.28E2,1.05E2,2.3E1,9.8E1,7E0,6E0,1.7E1,2.3E1,7.5E1,2E0,5E0,3E0,3E0,9E0,8E0],"tree_param":{"num_deleted":"0","num_feature":"12","num_nodes":"15","size_leaf_vector":"1"}},{"base_weights":[5.581366E-5,-1.5731925E-3,7.248265E-3,-7.659439E-4,-1.1366244E-2,2.1419588E-2,1.3345134E-3,1.8502925E-4,-2.4260631E-4,-1.630649E-3,-5.1408005E-4,2.6023716E-3,1.1460566E-3,-2.1735729E-4,1.4156209E-3],"categories":[],"categories_nodes":[],"categories_segments":[],"categories_sizes":[],"default_left":[0,0,0,0,0,0,0,0,0,0,0,0,0,0,0],"id":4,"left_children":[1,3,5,7,9,11,13,-1,-1,-1,-1,-1,-1,-1,-1],"loss_changes":[1.5228376E-3,8.292694E-4,1.9827518E-3,4.3447208E-4,1.6221334E-4,2.272171E-5,8.4040256E-4,0E0,0E0,0E0,0E0,0E0,0E0,0E0,0E0],"parents":[2147483647,0,0,1,1,2,2,3,3,4,4,5,5,6,6],"right_children":[2,4,6,8,10,12,14,-1,-1,-1,-1,-1,-1,-1,-1],"split_conditions":[1.835904E0,1.3166993E0,-5.194789E-1,-6.277136E-1,-6.507167E-1,-7.7292097E-1,3.1174104E0,1.8502925E-4,-2.4260631E-4,-1.630649E-3,-5.1408005E-4,2.6023716E-3,1.1460566E-3,-2.1735729E-4,1.4156209E-3],"split_indices":[3,3,4,0,7,4,2,0,0,0,0,0,0,0,0],"split_type":[0,0,0,0,0,0,0,0,0,0,0,0,0,0,0],"sum_hessian":[1.28E2,1.05E2,2.3E1,9.8E1,7E0,6E0,1.7E1,3.8E1,6E1,3E0,4E0,3E0,3E0,1.4E1,3E0],"tree_param":{"num_deleted":"0","num_feature":"12","num_nodes":"15","size_leaf_vector":"1"}},{"base_weights":[7.150652E-5,-1.4366498E-3,6.7295507E-3,-6.8993116E-4,-1.0497712E-2,1.981312E-2,1.2676321E-3,-2.7796088E-4,1.2522699E-4,-1.6818404E-3,-5.587746E-4,2.4071936E-3,1.0601024E-3,-4.938163E-4,8.022111E-4],"categories":[],"categories_nodes":[],"categories_segments":[],"categories_sizes":[],"default_left":[0,0,0,0,0,0,0,0,0,0,0,0,0,0,0],"id":5,"left_children":[1,3,5,7,9,11,13,-1,-1,-1,-1,-1,-1,-1,-1],"loss_changes":[1.3050049E-3,7.099601E-4,1.6899576E-3,4.0527966E-4,1.5429809E-4,1.9441359E-5,7.941188E-4,0E0,0E0,0E0,0E0,0E0,0E0,0E0,0E0],"parents":[2147483647,0,0,1,1,2,2,3,3,4,4,5,5,6,6],"right_children":[2,4,6,8,10,12,14,-1,-1,-1,-1,-1,-1,-1,-1],"split_conditions":[1.835904E0,1.3166993E0,-5.194789E-1,-5.881447E-2,-1.3694515E0,-7.7292097E-1,4.4403666E-1,-2.7796088E-4,1.2522699E-4,-1.6818404E-3,-5.587746E-4,2.4071936E-3,1.0601024E-3,-4.938163E-4,8.022111E-4],"split_indices":[3,3,4,5,7,4,4,0,0,0,0,0,0,0,0],"split_type":[0,0,0,0,0,0,0,0,0,0,0,0,0,0,0],"sum_hessian":[1.28E2,1.05E2,2.3E1,9.8E1,7E0,6E0,1.7E1,4.7E1,5.1E1,2E0,5E0,3E0,3E0,9E0,8E0],"tree_param":{"num_deleted":"0","num_feature":"12","num_nodes":"15","size_leaf_vector":"1"}},{"base_weights":[7.507165E-5,-1.3155637E-3,6.2139165E-3,-6.224809E-4,-9.728018E-3,1.8327136E-2,1.1580021E-3,2.862528E-4,-1.7148194E-4,-1.5697178E-3,-5.122101E-4,2.2266542E-3,9.805947E-4,-1.1350058E-3,4.4162848E-4],"categories":[],"categories_nodes":[],"categories_segments":[],"categories_sizes":[],"default_left":[0,0,0,0,0,0,0,0,0,0,0,0,0,0,0],"id":6,"left_children":[1,3,5,7,9,11,13,-1,-1,-1,-1,-1,-1,-1,-1],"loss_changes":[1.1094342E-3,6.119804E-4,1.4486187E-3,3.8178283E-4,1.3954513E-4,1.6634585E-5,7.837113E-4,0E0,0E0,0E0,0E0,0E0,0E0,0E0,0E0],"parents":[2147483647,0,0,1,1,2,2,3,3,4,4,5,5,6,6],"right_children":[2,4,6,8,10,12,14,-1,-1,-1,-1,-1,-1,-1,-1],"split_conditions":[1.835904E0,1.3166993E0,-5.194789E-1,-1.4051087E0,-1.3694515E0,-7.7292097E-1,-1.0494412E0,2.862528E-4,-1.7148194E-4,-1.5697178E-3,-5.122101E-4,2.2266542E-3,9.805947E-4,-1.1350058E-3,4.4162848E-4],"split_indices":[3,3,4,1,7,4,6,0,0,0,0,0,0,0,0],"split_type":[0,0,0,0,0,0,0,0,0,0,0,0,0,0,0],"sum_hessian":[1.28E2,1.05E2,2.3E1,9.8E1,7E0,6E0,1.7E1,2.3E1,7.5E1,2E0,5E0,3E0,3E0,3E0,1.4E1],"tree_param":{"num_deleted":"0","num_feature":"12","num_nodes":"15","size_leaf_vector":"1"}},{"base_weights":[7.180265E-5,-1.2025653E-3,5.697269E-3,-1.0541331E-2,-6.358805E-4,1.69526E-2,1.0036808E-3,-1.9229252E-3,-1.3900573E-4,3.0258938E-4,-1.81651E-4,2.059655E-3,9.070501E-4,-3.3187578E-4,1.0201684E-3],"categories":[],"categories_nodes":[],"categories_segments":[],"categories_sizes":[],"default_left":[0,0,0,0,0,0,0,0,0,0,0,0,0,0,0],"id":7,"left_children":[1,3,5,7,9,11,13,-1,-1,-1,-1,-1,-1,-1,-1],"loss_changes":[9.316412E-4,5.542634E-4,1.2508547E-3,4.5030343E-4,4.4213963E-4,1.4232704E-5,7.494974E-4,0E0,0E0,0E0,0E0,0E0,0E0,0E0,0E0],"parents":[2147483647,0,0,1,1,2,2,3,3,4,4,5,5,6,6],"right_children":[2,4,6,8,10,12,14,-1,-1,-1,-1,-1,-1,-1,-1],"split_conditions":[1.835904E0,-1.4616224E0,-5.194789E-1,-4.5203558E-1,-8.332139E-1,-7.7292097E-1,-3.9701694E-1,-1.9229252E-3,-1.3900573E-4,3.0258938E-4,-1.81651E-4,2.059655E-3,9.070501E-4,-3.3187578E-4,1.0201684E-3],"split_indices":[3,7,4,0,7,4,0,0,0,0,0,0,0,0,0],"split_type":[0,0,0,0,0,0,0,0,0,0,0,0,0,0,0],"sum_hessian":[1.28E2,1.05E2,2.3E1,5E0,1E2,6E0,1.7E1,2E0,3E0,2.4E1,7.6E1,3E0,3E0,1.2E1,5E0],"tree_param":{"num_deleted":"0","num_feature":"12","num_nodes":"15","size_leaf_vector":"1"}},{"base_weights":[7.790919E-5,-1.10062E-3,5.279834E-3,-4.7546122E-4,-8.699383E-3,1.5681155E-2,9.4155135E-4,1.827005E-4,-1.9397354E-4,-1.2832526E-3,-3.6529914E-4,1.9051809E-3,8.3902123E-4,-2.1758757E-4,1.2396516E-3],"categories":[],"categories_nodes":[],"categories_segments":[],"categories_sizes":[],"default_left":[0,0,0,0,0,0,0,0,0,0,0,0,0,0,0],"id":8,"left_children":[1,3,5,7,9,11,13,-1,-1,-1,-1,-1,-1,-1,-1],"loss_changes":[7.9666113E-4,4.9940974E-4,1.0682084E-3,3.3731665E-4,1.1998258E-4,1.2177858E-5,6.697536E-4,0E0,0E0,0E0,0E0,0E0,0E0,0E0,0E0],"parents":[2147483647,0,0,1,1,2,2,3,3,4,4,5,5,6,6],"right_children":[2,4,6,8,10,12,14,-1,-1,-1,-1,-1,-1,-1,-1],"split_conditions":[1.835904E0,1.3166993E0,-5.194789E-1,-6.277136E-1,-6.2353224E-1,-7.7292097E-1,3.1174104E0,1.827005E-4,-1.9397354E-4,-1.2832526E-3,-3.6529914E-4,1.9051809E-3,8.3902123E-4,-2.1758757E-4,1.2396516E-3],"split_indices":[3,3,4,0,0,4,2,0,0,0,0,0,0,0,0],"split_type":[0,0,0,0,0,0,0,0,0,0,0,0,0,0,0],"sum_hessian":[1.28E2,1.05E2,2.3E1,9.8E1,7E0,6E0,1.7E1,3.8E1,6E1,3E0,4E0,3E0,3E0,1.4E1,3E0],"tree_param":{"num_deleted":"0","num_feature":"12","num_nodes":"15","size_leaf_vector":"1"}},{"base_weights":[8.6447326E-5,-1.0062167E-3,4.9087782E-3,-9.487662E-3,-4.924059E-4,1.4505069E-2,9.0417743E-4,-1.7454894E-3,-1.1403229E-4,2.7276913E-4,-1.5875393E-4,1.7622923E-3,7.760947E-4,-6.011663E-4,5.8516813E-4],"categories":[],"categories_nodes":[],"categories_segments":[],"categories_sizes":[],"default_left":[0,0,0,0,0,0,0,0,0,0,0,0,0,0,0],"id":9,"left_children":[1,3,5,7,9,11,13,-1,-1,-1,-1,-1,-1,-1,-1],"loss_changes":[6.8466447E-4,4.572612E-4,9.091885E-4,3.7912687E-4,3.605003E-4,1.0419753E-5,6.510689E-4,0E0,0E0,0E0,0E0,0E0,0E0,0E0,0E0],"parents":[2147483647,0,0,1,1,2,2,3,3,4,4,5,5,6,6],"right_children":[2,4,6,8,10,12,14,-1,-1,-1,-1,-1,-1,-1,-1],"split_conditions":[1.835904E0,-1.4616224E0,-5.194789E-1,-4.5203558E-1,-7.749958E-1,-7.7292097E-1,-2.8388306E-1,-1.7454894E-3,-1.1403229E-4,2.7276913E-4,-1.5875393E-4,1.7622923E-3,7.760947E-4,-6.011663E-4,5.8516813E-4],"split_indices":[3,7,4,0,7,4,6,0,0,0,0,0,0,0,0],"split_type":[0,0,0,0,0,0,0,0,0,0,0,0,0,0,0],"sum_hessian":[1.28E2,1.05E2,2.3E1,5E0,1E2,6E0,1.7E1,2E0,3E0,2.5E1,7.5E1,3E0,3E0,7E0,1E1],"tree_param":{"num_deleted":"0","num_feature":"12","num_nodes":"15","size_leaf_vector":"1"}},{"base_weights":[8.382493E-5,-8.839106E-3,5.909525E-4,-1.6291235E-3,-2.6000089E-3,-4.4203654E-4,5.1014284E-3,6.230066E-5,-4.9563544E-4,1.8596473E-4,-1.8017546E-4,-5.9274514E-4,8.494309E-4],"categories":[],"categories_nodes":[],"categories_segments":[],"categories_sizes":[],"default_left":[0,0,0,0,0,0,0,0,0,0,0,0,0],"id":10,"left_children":[1,3,5,-1,7,9,11,-1,-1,-1,-1,-1,-1],"loss_changes":[5.889569E-4,2.8310443E-4,5.753455E-4,0E0,4.1060535E-5,3.194444E-4,9.110021E-4,0E0,0E0,0E0,0E0,0E0,0E0],"parents":[2147483647,0,0,1,1,2,2,4,4,5,5,6,6],"right_children":[2,4,6,-1,8,10,12,-1,-1,-1,-1,-1,-1],"split_conditions":[-1.4616224E0,-4.5203558E-1,1.835904E0,-1.6291235E-3,3.1756407E-1,-1.2005454E0,-1.4161736E0,6.230066E-5,-4.9563544E-4,1.8596473E-4,-1.8017546E-4,-5.9274514E-4,8.494309E-4],"split_indices":[7,0,3,0,5,1,1,0,0,0,0,0,0],"split_type":[0,0,0,0,0,0,0,0,0,0,0,0,0],"sum_hessian":[1.28E2,6E0,1.22E2,2E0,4E0,1E2,2.2E1,2E0,2E0,3.7E1,6.3E1,5E0,1.7E1],"tree_param":{"num_deleted":"0","num_feature":"12","num_nodes":"13","size_leaf_vector":"1"}},{"base_weights":[6.1489096E-5,-8.249832E-3,5.339912E-4,-1.5205152E-3,-2.4266748E-3,6.3138804E-3,-2.6630535E-4,5.814729E-5,-4.625931E-4,1.43491E-5,1.041153E-3,-3.1835015E-4,1.0986036E-4],"categories":[],"categories_nodes":[],"categories_segments":[],"categories_sizes":[],"default_left":[0,0,0,0,0,0,0,0,0,0,0,0,0],"id":11,"left_children":[1,3,5,-1,7,9,11,-1,-1,-1,-1,-1,-1],"loss_changes":[5.110035E-4,2.4661547E-4,5.7063333E-4,0E0,3.5768295E-5,3.7776737E-4,4.3750348E-4,0E0,0E0,0E0,0E0,0E0,0E0],"parents":[2147483647,0,0,1,1,2,2,4,4,5,5,6,6],"right_children":[2,4,6,-1,8,10,12,-1,-1,-1,-1,-1,-1],"split_conditions":[-1.4616224E0,-4.5203558E-1,7.248503E-2,-1.5205152E-3,3.1756407E-1,-1.4110273E-1,1.728386E0,5.814729E-5,-4.625931E-4,1.43491E-5,1.041153E-3,-3.1835015E-4,1.0986036E-4],"split_indices":[7,0,2,0,5,3,2,0,0,0,0,0,0],"split_type":[0,0,0,0,0,0,0,0,0,0,0,0,0],"sum_hessian":[1.28E2,6E0,1.22E2,2E0,4E0,1.4E1,1.08E2,2E0,2E0,6E0,8E0,3.4E1,7.4E1],"tree_param":{"num_deleted":"0","num_feature":"12","num_nodes":"13","size_leaf_vector":"1"}},{"base_weights":[4.698393E-5,3.7854465E-3,-9.334576E-4,-5.797784E-4,1.25803165E-2,-2.755247E-3,2.3906871E-3,-2.3184824E-4,6.5199815E-4,1.8983524E-3,3.6610448E-4,1.2233279E-3,-3.1676987E-4,1.4296861E-3,-8.63982E-5],"categories":[],"categories_nodes":[],"categories_segments":[],"categories_sizes":[],"default_left":[0,0,0,0,0,0,0,0,0,0,0,0,0,0,0],"id":12,"left_children":[1,3,5,7,9,11,13,-1,-1,-1,-1,-1,-1,-1,-1],"loss_changes":[4.7636294E-4,1.0438665E-3,6.303438E-4,2.496597E-4,4.4450816E-4,4.529481E-4,1.4461265E-3,0E0,0E0,0E0,0E0,0E0,0E0,0E0,0E0],"parents":[2147483647,0,0,1,1,2,2,3,3,4,4,5,5,6,6],"right_children":[2,4,6,8,10,12,14,-1,-1,-1,-1,-1,-1,-1,-1],"split_conditions":[-6.3234025E-1,7.0280874E-1,5.267695E-1,-7.5763804E-1,-5.2543384E-1,-2.9995048E0,6.2738144E-1,-2.3184824E-4,6.5199815E-4,1.8983524E-3,3.6610448E-4,1.2233279E-3,-3.1676987E-4,1.4296861E-3,-8.63982E-5],"split_indices":[4,3,4,4,6,3,4,0,0,0,0,0,0,0,0],"split_type":[0,0,0,0,0,0,0,0,0,0,0,0,0,0,0],"sum_hessian":[1.28E2,2.6E1,1.02E2,1.8E1,8E0,6.6E1,3.6E1,1.5E1,3E0,4E0,4E0,1E0,6.5E1,7E0,2.9E1],"tree_param":{"num_deleted":"0","num_feature":"12","num_nodes":"15","size_leaf_vector":"1"}},{"base_weights":[8.0537226E-5,-7.5062793E-3,5.116525E-4,-1.4057086E-3,-2.0745394E-3,5.6988015E-3,-2.0686942E-4,6.487901E-5,-4.1063558E-4,-1.5775324E-4,8.488153E-4,3.502016E-4,-1.1317399E-4],"categories":[],"categories_nodes":[],"categories_segments":[],"categories_sizes":[],"default_left":[0,0,0,0,0,0,0,0,0,0,0,0,0],"id":13,"left_children":[1,3,5,-1,7,9,11,-1,-1,-1,-1,-1,-1],"loss_changes":[4.257728E-4,2.1991396E-4,4.596098E-4,0E0,3.0330688E-5,3.1783417E-4,3.7785934E-4,0E0,0E0,0E0,0E0,0E0,0E0],"parents":[2147483647,0,0,1,1,2,2,4,4,5,5,6,6],"right_children":[2,4,6,-1,8,10,12,-1,-1,-1,-1,-1,-1],"split_conditions":[-1.4616224E0,-4.5203558E-1,7.248503E-2,-1.4057086E-3,3.1756407E-1,-9.5554906E-1,-6.8698967E-1,6.487901E-5,-4.1063558E-4,-1.5775324E-4,8.488153E-4,3.502016E-4,-1.1317399E-4],"split_indices":[7,0,2,0,5,6,4,0,0,0,0,0,0],"split_type":[0,0,0,0,0,0,0,0,0,0,0,0,0],"sum_hessian":[1.28E2,6E0,1.22E2,2E0,4E0,1.4E1,1.08E2,2E0,2E0,4E0,1E1,2.1E1,8.7E1],"tree_param":{"num_deleted":"0","num_feature":"12","num_nodes":"13","size_leaf_vector":"1"}},{"base_weights":[6.610066E-5,-7.4929756E-4,3.6646887E-3,-2.6141503E-3,9.6243084E-4,-7.408558E-4,9.906536E-3,1.0388786E-5,-5.9275836E-4,4.1132193E-5,1.563671E-3,1.2902027E-3,-3.8322245E-4,-4.6630652E-4,1.413182E-3],"categories":[],"categories_nodes":[],"categories_segments":[],"categories_sizes":[],"default_left":[0,0,0,0,0,0,0,0,0,0,0,0,0,0,0],"id":14,"left_children":[1,3,5,7,9,11,13,-1,-1,-1,-1,-1,-1,-1,-1],"loss_changes":[3.812683E-4,3.4088083E-4,6.6730904E-4,4.5992373E-4,4.4644735E-4,6.8207114E-4,6.815045E-4,0E0,0E0,0E0,0E0,0E0,0E0,0E0,0E0],"parents":[2147483647,0,0,1,1,2,2,3,3,4,4,5,5,6,6],"right_children":[2,4,6,8,10,12,14,-1,-1,-1,-1,-1,-1,-1,-1],"split_conditions":[1.835904E0,-5.881447E-2,2.390135E0,-1.0204457E0,4.546116E0,-1.2071341E-1,-1.4161736E0,1.0388786E-5,-5.9275836E-4,4.1132193E-5,1.563671E-3,1.2902027E-3,-3.8322245E-4,-4.6630652E-4,1.413182E-3],"split_indices":[3,5,2,1,2,2,1,0,0,0,0,0,0,0,0],"split_type":[0,0,0,0,0,0,0,0,0,0,0,0,0,0,0],"sum_hessian":[1.28E2,1.05E2,2.3E1,5E1,5.5E1,1.4E1,9E0,2.8E1,2.2E1,5.4E1,1E0,2E0,1.2E1,2E0,7E0],"tree_param":{"num_deleted":"0","num_feature":"12","num_nodes":"15","size_leaf_vector":"1"}},{"base_weights":[8.178744E-5,-6.8811546E-3,4.773875E-4,-1.2925824E-3,-1.8781229E-3,3.8119354E-3,-4.5570717E-4,5.8836387E-5,-3.7185688E-4,7.460276E-4,-4.3136656E-4,-6.438434E-4,1.18186384E-4],"categories":[],"categories_nodes":[],"categories_segments":[],"categories_sizes":[],"default_left":[0,0,0,0,0,0,0,0,0,0,0,0,0],"id":15,"left_children":[1,3,5,-1,7,9,11,-1,-1,-1,-1,-1,-1],"loss_changes":[3.586207E-4,1.8741543E-4,3.8444536E-4,0E0,2.4885045E-5,8.3259505E-4,9.5793186E-4,0E0,0E0,0E0,0E0,0E0,0E0],"parents":[2147483647,0,0,1,1,2,2,4,4,5,5,6,6],"right_children":[2,4,6,-1,8,10,12,-1,-1,-1,-1,-1,-1],"split_conditions":[-1.4616224E0,-4.5203558E-1,-8.332139E-1,-1.2925824E-3,3.1756407E-1,-8.668606E-1,-1.6578839E0,5.8836387E-5,-3.7185688E-4,7.460276E-4,-4.3136656E-4,-6.438434E-4,1.18186384E-4],"split_indices":[7,0,7,0,5,1,3,0,0,0,0,0,0],"split_type":[0,0,0,0,0,0,0,0,0,0,0,0,0],"sum_hessian":[1.28E2,6E0,1.22E2,2E0,4E0,2.6E1,9.6E1,2E0,2E0,1.8E1,8E0,2E1,7.6E1],"tree_param":{"num_deleted":"0","num_feature":"12","num_nodes":"13","size_leaf_vector":"1"}},{"base_weights":[5.952657E-5,-9.3429984E-4,2.7553546E-3,-5.726165E-3,1.8349344E-4,1.1782204E-3,1.8512363E-3,4.431891E-5,-9.6924085E-4,4.3341075E-4,-1.7414852E-4,6.2546454E-4,-6.347705E-5],"categories":[],"categories_nodes":[],"categories_segments":[],"categories_sizes":[],"default_left":[0,0,0,0,0,0,0,0,0,0,0,0,0],"id":16,"left_children":[1,3,5,7,9,-1,11,-1,-1,-1,-1,-1,-1],"loss_changes":[3.481892E-4,5.099006E-4,2.6383525E-4,4.4474046E-4,6.307555E-4,0E0,3.6521815E-4,0E0,0E0,0E0,0E0,0E0,0E0],"parents":[2147483647,0,0,1,1,2,2,3,3,4,4,6,6],"right_children":[2,4,6,8,10,-1,12,-1,-1,-1,-1,-1,-1],"split_conditions":[8.651037E-1,-1.1505867E0,-7.7292097E-1,1.3837364E0,-8.332139E-1,1.1782204E-3,1.2050147E0,4.431891E-5,-9.6924085E-4,4.3341075E-4,-1.7414852E-4,6.2546454E-4,-6.347705E-5],"split_indices":[7,5,4,2,7,0,7,0,0,0,0,0,0],"split_type":[0,0,0,0,0,0,0,0,0,0,0,0,0],"sum_hessian":[1.28E2,9.4E1,3.4E1,1.7E1,7.7E1,2E0,3.2E1,7E0,1E1,2.4E1,5.3E1,1.1E1,2.1E1],"tree_param":{"num_deleted":"0","num_feature":"12","num_nodes":"13","size_leaf_vector":"1"}},{"base_weights":[6.190373E-5,-3.2203438E-4,6.7994017E-3,-1.4302052E-3,2.6208304E-3,1.2102803E-2,-4.306068E-3,-6.6421396E-4,-4.6400666E-5,1.0996725E-3,1.7536896E-4,2.0636144E-4,1.4096698E-3,-6.171924E-4,-2.871781E-5],"categories":[],"categories_nodes":[],"categories_segments":[],"categories_sizes":[],"default_left":[0,0,0,0,0,0,0,0,0,0,0,0,0,0,0],"id":17,"left_children":[1,3,5,7,9,11,13,-1,-1,-1,-1,-1,-1,-1,-1],"loss_changes":[3.3588454E-4,4.0487552E-4,4.6439283E-4,4.5013663E-4,2.2765988E-4,7.0995244E-5,2.0723575E-5,0E0,0E0,0E0,0E0,0E0,0E0,0E0,0E0],"parents":[2147483647,0,0,1,1,2,2,3,3,4,4,5,5,6,6],"right_children":[2,4,6,8,10,12,14,-1,-1,-1,-1,-1,-1,-1,-1],"split_conditions":[4.546116E0,8.651037E-1,1.9435402E-2,-1.0424651E0,-7.7292097E-1,-8.5712653E-1,-6.600468E-1,-6.6421396E-4,-4.6400666E-5,1.0996725E-3,1.7536896E-4,2.0636144E-4,1.4096698E-3,-6.171924E-4,-2.871781E-5],"split_indices":[2,7,7,6,4,0,0,0,0,0,0,0,0,0,0],"split_type":[0,0,0,0,0,0,0,0,0,0,0,0,0,0,0],"sum_hessian":[1.28E2,1.22E2,6E0,8.9E1,3.3E1,4E0,2E0,1.3E1,7.6E1,2E0,3.1E1,1E0,3E0,1E0,1E0],"tree_param":{"num_deleted":"0","num_feature":"12","num_nodes":"15","size_leaf_vector":"1"}},{"base_weights":[6.7609144E-5,-6.409912E-3,4.356989E-4,-1.1854558E-3,-1.8611418E-3,4.968506E-3,-1.9207915E-4,4.2083007E-5,-3.5227332E-4,9.444443E-6,8.2073867E-4,-1.3173425E-4,2.439356E-4],"categories":[],"categories_nodes":[],"categories_segments":[],"categories_sizes":[],"default_left":[0,0,0,0,0,0,0,0,0,0,0,0,0],"id":18,"left_children":[1,3,5,-1,7,9,11,-1,-1,-1,-1,-1,-1],"loss_changes":[3.1036863E-4,1.5130214E-4,3.5096274E-4,0E0,2.0440997E-5,2.360224E-4,3.2596875E-4,0E0,0E0,0E0,0E0,0E0,0E0],"parents":[2147483647,0,0,1,1,2,2,4,4,5,5,6,6],"right_children":[2,4,6,-1,8,10,12,-1,-1,-1,-1,-1,-1],"split_conditions":[-1.4616224E0,-4.5203558E-1,7.248503E-2,-1.1854558E-3,3.1756407E-1,-1.4110273E-1,5.267695E-1,4.2083007E-5,-3.5227332E-4,9.444443E-6,8.2073867E-4,-1.3173425E-4,2.439356E-4],"split_indices":[7,0,2,0,5,3,4,0,0,0,0,0,0],"split_type":[0,0,0,0,0,0,0,0,0,0,0,0,0],"sum_hessian":[1.28E2,6E0,1.22E2,2E0,4E0,1.4E1,1.08E2,2E0,2E0,6E0,8E0,7.6E1,3.2E1],"tree_param":{"num_deleted":"0","num_feature":"12","num_nodes":"13","size_leaf_vector":"1"}},{"base_weights":[5.6559344E-5,-3.002027E-4,6.317298E-3,-1.2971185E-3,2.3475215E-3,1.1245983E-2,-4.002942E-3,-4.498781E-5,-6.766691E-4,7.3570345E-4,1.0113032E-4,4.1311132E-4,1.461219E-3,-5.797461E-4,-2.0695205E-5],"categories":[],"categories_nodes":[],"categories_segments":[],"categories_sizes":[],"default_left":[0,0,0,0,0,0,0,0,0,0,0,0,0,0,0],"id":19,"left_children":[1,3,5,7,9,11,13,-1,-1,-1,-1,-1,-1,-1,-1],"loss_changes":[2.900301E-4,3.2771064E-4,4.0107346E-4,4.1401963E-4,2.2014907E-4,5.9386017E-5,1.923613E-5,0E0,0E0,0E0,0E0,0E0,0E0,0E0,0E0],"parents":[2147483647,0,0,1,1,2,2,3,3,4,4,5,5,6,6],"right_children":[2,4,6,8,10,12,14,-1,-1,-1,-1,-1,-1,-1,-1],"split_conditions":[4.546116E0,8.651037E-1,1.9435402E-2,4.0209703E0,1.1329446E0,-2.4536812E0,-6.600468E-1,-4.498781E-5,-6.766691E-4,7.3570345E-4,1.0113032E-4,4.1311132E-4,1.461219E-3,-5.797461E-4,-2.0695205E-5],"split_indices":[2,7,7,2,7,3,0,0,0,0,0,0,0,0,0],"split_type":[0,0,0,0,0,0,0,0,0,0,0,0,0,0,0],"sum_hessian":[1.28E2,1.22E2,6E0,8.9E1,3.3E1,4E0,2E0,7.8E1,1.1E1,6E0,2.7E1,2E0,2E0,1E0,1E0],"tree_param":{"num_deleted":"0","num_feature":"12","num_nodes":"15","size_leaf_vector":"1"}},{"base_weights":[6.1671366E-5,-5.9440234E-3,4.0295746E-4,-1.1034262E-3,-1.7010755E-3,3.3591704E-3,-4.6346875E-4,4.2276657E-5,-3.2578924E-4,1.2018834E-4,1.6002421E-3,-5.48219E-4,9.293816E-5],"categories":[],"categories_nodes":[],"categories_segments":[],"categories_sizes":[],"default_left":[0,0,0,0,0,0,0,0,0,0,0,0,0],"id":20,"left_children":[1,3,5,-1,7,9,11,-1,-1,-1,-1,-1,-1],"loss_changes":[2.6680136E-4,1.324132E-4,3.1660174E-4,0E0,1.7909493E-5,7.444703E-4,6.761665E-4,0E0,0E0,0E0,0E0,0E0,0E0],"parents":[2147483647,0,0,1,1,2,2,4,4,5,5,6,6],"right_children":[2,4,6,-1,8,10,12,-1,-1,-1,-1,-1,-1],"split_conditions":[-1.4616224E0,-4.5203558E-1,-7.749958E-1,-1.1034262E-3,3.1756407E-1,4.0460157E-1,-1.6578839E0,4.2276657E-5,-3.2578924E-4,1.2018834E-4,1.6002421E-3,-5.48219E-4,9.293816E-5],"split_indices":[7,0,7,0,5,4,3,0,0,0,0,0,0],"split_type":[0,0,0,0,0,0,0,0,0,0,0,0,0],"sum_hessian":[1.28E2,6E0,1.22E2,2E0,4E0,2.7E1,9.5E1,2E0,2E0,2.4E1,3E0,2E1,7.5E1],"tree_param":{"num_deleted":"0","num_feature":"12","num_nodes":"13","size_leaf_vector":"1"}},{"base_weights":[5.4560067E-5,-2.8758709E-4,6.05878E-3,-1.1949097E-3,2.1226075E-3,1.0544681E-2,-3.4373156E-3,-5.156097E-4,-6.2252666E-6,1.0222052E-3,1.2969531E-4,3.9983826E-4,1.3576086E-3,-5.233478E-4,7.750502E-6],"categories":[],"categories_nodes":[],"categories_segments":[],"categories_sizes":[],"default_left":[0,0,0,0,0,0,0,0,0,0,0,0,0,0,0],"id":21,"left_children":[1,3,5,7,9,11,13,-1,-1,-1,-1,-1,-1,-1,-1],"loss_changes":[2.6675058E-4,2.7151566E-4,3.3443523E-4,4.0347895E-4,2.1411212E-4,4.494004E-5,1.9345189E-5,0E0,0E0,0E0,0E0,0E0,0E0,0E0,0E0],"parents":[2147483647,0,0,1,1,2,2,3,3,4,4,5,5,6,6],"right_children":[2,4,6,8,10,12,14,-1,-1,-1,-1,-1,-1,-1,-1],"split_conditions":[4.546116E0,8.651037E-1,1.9435402E-2,-1.0914135E0,-7.7292097E-1,-2.4536812E0,-6.600468E-1,-5.156097E-4,-6.2252666E-6,1.0222052E-3,1.2969531E-4,3.9983826E-4,1.3576086E-3,-5.233478E-4,7.750502E-6],"split_indices":[2,7,7,5,4,3,0,0,0,0,0,0,0,0,0],"split_type":[0,0,0,0,0,0,0,0,0,0,0,0,0,0,0],"sum_hessian":[1.28E2,1.22E2,6E0,8.9E1,3.3E1,4E0,2E0,1.9E1,7E1,2E0,3.1E1,2E0,2E0,1E0,1E0],"tree_param":{"num_deleted":"0","num_feature":"12","num_nodes":"15","size_leaf_vector":"1"}},{"base_weights":[6.3615036E-5,1.1122496E-3,-1.0967697E-4,2.7230477E-3,-8.584406E-4,-3.2333966E-5,8.851749E-4,-2.445023E-4,1.9948801E-4],"categories":[],"categories_nodes":[],"categories_segments":[],"categories_sizes":[],"default_left":[0,0,0,0,0,0,0,0,0],"id":22,"left_children":[1,-1,3,5,7,-1,-1,-1,-1],"loss_changes":[2.484375E-4,0E0,2.7383084E-4,5.069629E-4,4.6663434E-4,0E0,0E0,0E0,0E0],"parents":[2147483647,0,0,2,2,3,3,4,4],"right_children":[2,-1,4,6,8,-1,-1,-1,-1],"split_conditions":[-2.9995048E0,1.1122496E-3,-6.3234025E-1,7.0280874E-1,5.267695E-1,-3.2333966E-5,8.851749E-4,-2.445023E-4,1.9948801E-4],"split_indices":[3,0,4,3,4,0,0,0,0],"split_type":[0,0,0,0,0,0,0,0,0],"sum_hessian":[1.28E2,1E0,1.27E2,2.6E1,1.01E2,1.8E1,8E0,6.5E1,3.6E1],"tree_param":{"num_deleted":"0","num_feature":"12","num_nodes":"9","size_leaf_vector":"1"}},{"base_weights":[7.2137846E-5,-2.4390023E-4,5.615073E-3,3.4102863E-3,-7.830029E-4,9.722571E-3,-3.102448E-3,-1.3472633E-4,7.2602986E-4,1.192019E-4,-2.0093897E-4,2.0161865E-4,1.1145121E-3,-4.8495532E-4,1.958809E-5],"categories":[],"categories_nodes":[],"categories_segments":[],"categories_sizes":[],"default_left":[0,0,0,0,0,0,0,0,0,0,0,0,0,0,0],"id":23,"left_children":[1,3,5,7,9,11,13,-1,-1,-1,-1,-1,-1,-1,-1],"loss_changes":[2.2734894E-4,2.44978E-4,2.808142E-4,3.028475E-4,2.639864E-4,3.234294E-5,1.8237515E-5,0E0,0E0,0E0,0E0,0E0,0E0,0E0,0E0],"parents":[2147483647,0,0,1,1,2,2,3,3,4,4,5,5,6,6],"right_children":[2,4,6,8,10,12,14,-1,-1,-1,-1,-1,-1,-1,-1],"split_conditions":[4.546116E0,7.248503E-2,1.9435402E-2,-1.4110273E-1,-1.2005454E0,-8.5712653E-1,-6.600468E-1,-1.3472633E-4,7.2602986E-4,1.192019E-4,-2.0093897E-4,2.0161865E-4,1.1145121E-3,-4.8495532E-4,1.958809E-5],"split_indices":[2,2,7,3,1,0,0,0,0,0,0,0,0,0,0],"split_type":[0,0,0,0,0,0,0,0,0,0,0,0,0,0,0],"sum_hessian":[1.28E2,1.22E2,6E0,1.5E1,1.07E2,4E0,2E0,7E0,8E0,4.1E1,6.6E1,1E0,3E0,1E0,1E0],"tree_param":{"num_deleted":"0","num_feature":"12","num_nodes":"15","size_leaf_vector":"1"}},{"base_weights":[7.546927E-5,1.0666841E-3,-9.061051E-5,2.6424313E-3,-7.4672047E-4,-5.6115427E-5,9.520195E-4,-2.1251566E-4,1.8068032E-4],"categories":[],"categories_nodes":[],"categories_segments":[],"categories_sizes":[],"default_left":[0,0,0,0,0,0,0,0,0],"id":24,"left_children":[1,-1,3,5,7,-1,-1,-1,-1],"loss_changes":[2.2787915E-4,0E0,2.3149967E-4,5.561799E-4,3.6990613E-4,0E0,0E0,0E0,0E0],"parents":[2147483647,0,0,2,2,3,3,4,4],"right_children":[2,-1,4,6,8,-1,-1,-1,-1],"split_conditions":[-2.9995048E0,1.0666841E-3,-6.8698967E-1,7.0280874E-1,5.267695E-1,-5.6115427E-5,9.520195E-4,-2.1251566E-4,1.8068032E-4],"split_indices":[3,0,4,3,4,0,0,0,0],"split_type":[0,0,0,0,0,0,0,0,0],"sum_hessian":[1.28E2,1E0,1.27E2,2.4E1,1.03E2,1.7E1,7E0,6.7E1,3.6E1],"tree_param":{"num_deleted":"0","num_feature":"12","num_nodes":"9","size_leaf_vector":"1"}},{"base_weights":[8.288945E-5,-5.2256943E-3,3.8433005E-4,-9.987195E-4,-1.3236549E-3,3.2349234E-3,-4.510964E-4,4.9853326E-5,-2.7046248E-4,1.280752E-4,1.4639763E-3,-4.6809428E-4,7.236124E-5],"categories":[],"categories_nodes":[],"categories_segments":[],"categories_sizes":[],"default_left":[0,0,0,0,0,0,0,0,0,0,0,0,0],"id":25,"left_children":[1,3,5,-1,7,9,11,-1,-1,-1,-1,-1,-1],"loss_changes":[2.0843712E-4,1.1683733E-4,2.94379E-4,0E0,1.3930281E-5,6.052864E-4,4.8039557E-4,0E0,0E0,0E0,0E0,0E0,0E0],"parents":[2147483647,0,0,1,1,2,2,4,4,5,5,6,6],"right_children":[2,4,6,-1,8,10,12,-1,-1,-1,-1,-1,-1],"split_conditions":[-1.4616224E0,-4.5203558E-1,-7.749958E-1,-9.987195E-4,3.1756407E-1,4.0460157E-1,-1.6578839E0,4.9853326E-5,-2.7046248E-4,1.280752E-4,1.4639763E-3,-4.6809428E-4,7.236124E-5],"split_indices":[7,0,7,0,5,4,3,0,0,0,0,0,0],"split_type":[0,0,0,0,0,0,0,0,0,0,0,0,0],"sum_hessian":[1.28E2,6E0,1.22E2,2E0,4E0,2.7E1,9.5E1,2E0,2E0,2.4E1,3E0,2E1,7.5E1],"tree_param":{"num_deleted":"0","num_feature":"12","num_nodes":"13","size_leaf_vector":"1"}},{"base_weights":[7.442213E-5,1.0069462E-3,-8.233178E-5,-3.902708E-4,5.296367E-3,-1.2485548E-4,1.8678923E-4,8.911066E-4,-2.4935856E-4],"categories":[],"categories_nodes":[],"categories_segments":[],"categories_sizes":[],"default_left":[0,0,0,0,0,0,0,0,0],"id":26,"left_children":[1,-1,3,5,7,-1,-1,-1,-1],"loss_changes":[2.0294129E-4,0E0,2.1407485E-4,2.3878587E-4,2.1932881E-4,0E0,0E0,0E0,0E0],"parents":[2147483647,0,0,2,2,3,3,4,4],"right_children":[2,-1,4,6,8,-1,-1,-1,-1],"split_conditions":[-2.9995048E0,1.0069462E-3,4.546116E0,8.651037E-1,1.9435402E-2,-1.2485548E-4,1.8678923E-4,8.911066E-4,-2.4935856E-4],"split_indices":[3,0,2,7,7,0,0,0,0],"split_type":[0,0,0,0,0,0,0,0,0],"sum_hessian":[1.28E2,1E0,1.27E2,1.21E2,6E0,8.8E1,3.3E1,4E0,2E0],"tree_param":{"num_deleted":"0","num_feature":"12","num_nodes":"9","size_leaf_vector":"1"}},{"base_weights":[8.024057E-5,2.2969277E-4,-9.5248205E-4,5.055091E-3,-1.7773308E-4,-2.1409782E-4,1.2679355E-3,-1.1071533E-4,2.0845083E-4],"categories":[],"categories_nodes":[],"categories_segments":[],"categories_sizes":[],"default_left":[0,0,0,0,0,0,0,0,0],"id":27,"left_children":[1,3,-1,5,7,-1,-1,-1,-1],"loss_changes":[1.8736695E-4,2.525454E-4,0E0,5.7579356E-4,2.5251403E-4,0E0,0E0,0E0,0E0],"parents":[2147483647,0,0,1,1,3,3,4,4],"right_children":[2,4,-1,6,8,-1,-1,-1,-1],"split_conditions":[-4.0450683E-1,-1.2676686E0,-9.5248205E-4,1.4503129E0,-3.9344168E-1,-2.1409782E-4,1.2679355E-3,-1.1071533E-4,2.0845083E-4],"split_indices":[1,6,0,2,0,0,0,0,0],"split_type":[0,0,0,0,0,0,0,0,0],"sum_hessian":[1.28E2,1.27E2,1E0,9E0,1.18E2,5E0,4E0,8.4E1,3.4E1],"tree_param":{"num_deleted":"0","num_feature":"12","num_nodes":"9","size_leaf_vector":"1"}},{"base_weights":[7.375991E-5,3.2887093E-3,-3.7810806E-4,-7.517231E-4,6.514793E-3,9.6213457E-4,-5.5174343E-4,-5.4192235E-4,1.7073142E-4,-2.1429766E-4,9.2945807E-4,-2.8644162E-4,5.2271756E-5],"categories":[],"categories_nodes":[],"categories_segments":[],"categories_sizes":[],"default_left":[0,0,0,0,0,0,0,0,0,0,0,0,0],"id":28,"left_children":[1,3,5,7,9,-1,11,-1,-1,-1,-1,-1,-1],"loss_changes":[1.88646E-4,2.1345368E-4,2.0324206E-4,1.0107277E-4,2.3651891E-4,0E0,2.8228833E-4,0E0,0E0,0E0,0E0,0E0,0E0],"parents":[2147483647,0,0,1,1,2,2,3,3,4,4,6,6],"right_children":[2,4,6,8,10,-1,12,-1,-1,-1,-1,-1,-1],"split_conditions":[7.248503E-2,-1.4110273E-1,-2.9995048E0,-1.1529516E0,-1.0239395E0,9.6213457E-4,1.728386E0,-5.4192235E-4,1.7073142E-4,-2.1429766E-4,9.2945807E-4,-2.8644162E-4,5.2271756E-5],"split_indices":[2,3,3,7,6,0,2,0,0,0,0,0,0],"split_type":[0,0,0,0,0,0,0,0,0,0,0,0,0],"sum_hessian":[1.28E2,1.5E1,1.13E2,7E0,8E0,1E0,1.12E2,2E0,5E0,2E0,6E0,3.5E1,7.7E1],"tree_param":{"num_deleted":"0","num_feature":"12","num_nodes":"13","size_leaf_vector":"1"}},{"base_weights":[7.4693504E-5,9.1402786E-4,-6.75398E-5,2.2132886E-3,-6.7062635E-4,-6.294279E-5,5.819137E-4,-4.0432982E-4,2.0128511E-5],"categories":[],"categories_nodes":[],"categories_segments":[],"categories_sizes":[],"default_left":[0,0,0,0,0,0,0,0,0],"id":29,"left_children":[1,-1,3,5,7,-1,-1,-1,-1],"loss_changes":[1.6695354E-4,0E0,1.7755303E-4,2.8042364E-4,3.0076233E-4,0E0,0E0,0E0,0E0],"parents":[2147483647,0,0,2,2,3,3,4,4],"right_children":[2,-1,4,6,8,-1,-1,-1,-1],"split_conditions":[-2.9995048E0,9.1402786E-4,-6.3234025E-1,9.52475E-2,-2.8840497E-1,-6.294279E-5,5.819137E-4,-4.0432982E-4,2.0128511E-5],"split_indices":[3,0,4,3,4,0,0,0,0],"split_type":[0,0,0,0,0,0,0,0,0],"sum_hessian":[1.28E2,1E0,1.27E2,2.6E1,1.01E2,1.5E1,1.1E1,2E1,8.1E1],"tree_param":{"num_deleted":"0","num_feature":"12","num_nodes":"9","size_leaf_vector":"1"}},{"base_weights":[7.5354415E-5,-4.680712E-3,3.454122E-4,-9.0145366E-4,-1.144275E-3,2.9313709E-3,-3.7795166E-4,5.0189545E-5,-2.4090205E-4,1.0196179E-4,1.3669046E-3,-4.0036003E-4,6.157701E-5],"categories":[],"categories_nodes":[],"categories_segments":[],"categories_sizes":[],"default_left":[0,0,0,0,0,0,0,0,0,0,0,0,0],"id":30,"left_children":[1,3,5,-1,7,9,11,-1,-1,-1,-1,-1,-1],"loss_changes":[1.6730603E-4,9.6968986E-5,2.3119035E-4,0E0,1.1619009E-5,5.403129E-4,3.519453E-4,0E0,0E0,0E0,0E0,0E0,0E0],"parents":[2147483647,0,0,1,1,2,2,4,4,5,5,6,6],"right_children":[2,4,6,-1,8,10,12,-1,-1,-1,-1,-1,-1],"split_conditions":[-1.4616224E0,-4.5203558E-1,-8.332139E-1,-9.0145366E-4,3.1756407E-1,4.0460157E-1,-1.6578839E0,5.0189545E-5,-2.4090205E-4,1.0196179E-4,1.3669046E-3,-4.0036003E-4,6.157701E-5],"split_indices":[7,0,7,0,5,4,3,0,0,0,0,0,0],"split_type":[0,0,0,0,0,0,0,0,0,0,0,0,0],"sum_hessian":[1.28E2,6E0,1.22E2,2E0,4E0,2.6E1,9.6E1,2E0,2E0,2.3E1,3E0,2E1,7.6E1],"tree_param":{"num_deleted":"0","num_feature":"12","num_nodes":"13","size_leaf_vector":"1"}},{"base_weights":[6.811292E-5,-1.9994317E-4,4.768511E-3,2.9529168E-3,-6.989962E-4,7.875795E-3,-1.999799E-3,5.036515E-4,-1.7064318E-4,-3.2297178E-4,7.1690943E-6,3.2420704E-4,9.884255E-4,-3.9227537E-4,9.23055E-5],"categories":[],"categories_nodes":[],"categories_segments":[],"categories_sizes":[],"default_left":[0,0,0,0,0,0,0,0,0,0,0,0,0,0,0],"id":31,"left_children":[1,3,5,7,9,11,13,-1,-1,-1,-1,-1,-1,-1,-1],"loss_changes":[1.6348959E-4,1.9559774E-4,1.6296742E-4,1.7363402E-4,2.0892377E-4,1.44877995E-5,2.0482465E-5,0E0,0E0,0E0,0E0,0E0,0E0,0E0,0E0],"parents":[2147483647,0,0,1,1,2,2,3,3,4,4,5,5,6,6],"right_children":[2,4,6,8,10,12,14,-1,-1,-1,-1,-1,-1,-1,-1],"split_conditions":[4.546116E0,1.4136384E-1,1.9435402E-2,4.9328893E-2,-1.0391732E0,-2.4536812E0,-6.600468E-1,5.036515E-4,-1.7064318E-4,-3.2297178E-4,7.1690943E-6,3.2420704E-4,9.884255E-4,-3.9227537E-4,9.23055E-5],"split_indices":[2,2,7,6,5,3,0,0,0,0,0,0,0,0,0],"split_type":[0,0,0,0,0,0,0,0,0,0,0,0,0,0,0],"sum_hessian":[1.28E2,1.22E2,6E0,1.6E1,1.06E2,4E0,2E0,1.1E1,5E0,2.4E1,8.2E1,2E0,2E0,1E0,1E0],"tree_param":{"num_deleted":"0","num_feature":"12","num_nodes":"15","size_leaf_vector":"1"}},{"base_weights":[6.9285E-5,2.0274188E-4,-8.506598E-4,3.8095026E-3,-3.0974406E-4,1.0688234E-3,1.3999314E-4,-6.0547877E-4,3.691801E-5],"categories":[],"categories_nodes":[],"categories_segments":[],"categories_sizes":[],"default_left":[0,0,0,0,0,0,0,0,0],"id":32,"left_children":[1,3,-1,5,7,-1,-1,-1,-1],"loss_changes":[1.493665E-4,2.3777699E-4,0E0,2.5023386E-4,4.4298597E-4,0E0,0E0,0E0,0E0],"parents":[2147483647,0,0,1,1,3,3,4,4],"right_children":[2,4,-1,6,8,-1,-1,-1,-1],"split_conditions":[-4.0450683E-1,-2.3984141E0,-8.506598E-4,-1.1155401E0,-1.6578839E0,1.0688234E-3,1.3999314E-4,-6.0547877E-4,3.691801E-5],"split_indices":[1,3,0,7,3,0,0,0,0],"split_type":[0,0,0,0,0,0,0,0,0],"sum_hessian":[1.28E2,1.27E2,1E0,1.5E1,1.12E2,3E0,1.2E1,1.1E1,1.01E2],"tree_param":{"num_deleted":"0","num_feature":"12","num_nodes":"9","size_leaf_vector":"1"}},{"base_weights":[6.0725528E-5,8.558702E-4,-7.2529765E-5,2.125606E-3,-6.0023036E-4,-3.645656E-5,7.4627914E-4,-1.7371721E-4,1.5055067E-4],"categories":[],"categories_nodes":[],"categories_segments":[],"categories_sizes":[],"default_left":[0,0,0,0,0,0,0,0,0],"id":33,"left_children":[1,-1,3,5,7,-1,-1,-1,-1],"loss_changes":[1.4670039E-4,0E0,1.4975044E-4,3.3498334E-4,2.5160177E-4,0E0,0E0,0E0,0E0],"parents":[2147483647,0,0,2,2,3,3,4,4],"right_children":[2,-1,4,6,8,-1,-1,-1,-1],"split_conditions":[-2.9995048E0,8.558702E-4,-6.8698967E-1,7.0280874E-1,5.267695E-1,-3.645656E-5,7.4627914E-4,-1.7371721E-4,1.5055067E-4],"split_indices":[3,0,4,3,4,0,0,0,0],"split_type":[0,0,0,0,0,0,0,0,0],"sum_hessian":[1.28E2,1E0,1.27E2,2.4E1,1.03E2,1.7E1,7E0,6.7E1,3.6E1],"tree_param":{"num_deleted":"0","num_feature":"12","num_nodes":"9","size_leaf_vector":"1"}},{"base_weights":[6.661048E-5,4.7905236E-3,-1.6250314E-4,-1.0041995E-3,7.9389353E-4,-4.3161877E-4,4.397232E-3,4.2339503E-5,-1.9296944E-4,1.11401896E-4,-1.3996697E-4,-3.337018E-4,6.2424433E-4],"categories":[],"categories_nodes":[],"categories_segments":[],"categories_sizes":[],"default_left":[0,0,0,0,0,0,0,0,0,0,0,0,0],"id":34,"left_children":[1,3,5,7,-1,9,11,-1,-1,-1,-1,-1,-1],"loss_changes":[1.4039683E-4,1.1743733E-4,1.5405782E-4,4.780717E-6,0E0,1.7811748E-4,1.2073043E-4,0E0,0E0,0E0,0E0,0E0,0E0],"parents":[2147483647,0,0,1,1,2,2,3,3,5,5,6,6],"right_children":[2,4,6,8,-1,10,12,-1,-1,-1,-1,-1,-1],"split_conditions":[-3.5247678E-1,-4.5779195E-1,4.546116E0,-4.7511977E-1,7.9389353E-4,-1.2005454E0,-1.5633194E0,4.2339503E-5,-1.9296944E-4,1.11401896E-4,-1.3996697E-4,-3.337018E-4,6.2424433E-4],"split_indices":[2,2,2,0,0,1,1,0,0,0,0,0,0],"split_type":[0,0,0,0,0,0,0,0,0,0,0,0,0],"sum_hessian":[1.28E2,5E0,1.23E2,2E0,3E0,1.17E2,6E0,1E0,1E0,4.5E1,7.2E1,1E0,5E0],"tree_param":{"num_deleted":"0","num_feature":"12","num_nodes":"13","size_leaf_vector":"1"}},{"base_weights":[6.696679E-5,-4.23784E-3,3.1141134E-4,-8.2563976E-4,-9.791375E-4,2.5852749E-3,-3.2473015E-4,5.205815E-5,-2.1524774E-4,8.5814434E-5,1.230174E-3,-1.2990794E-4,2.693044E-4],"categories":[],"categories_nodes":[],"categories_segments":[],"categories_sizes":[],"default_left":[0,0,0,0,0,0,0,0,0,0,0,0,0],"id":35,"left_children":[1,3,5,-1,7,9,11,-1,-1,-1,-1,-1,-1],"loss_changes":[1.3706468E-4,8.3582825E-5,1.7875888E-4,0E0,9.91894E-6,4.425466E-4,2.8871399E-4,0E0,0E0,0E0,0E0,0E0,0E0],"parents":[2147483647,0,0,1,1,2,2,4,4,5,5,6,6],"right_children":[2,4,6,-1,8,10,12,-1,-1,-1,-1,-1,-1],"split_conditions":[-1.4616224E0,-4.5203558E-1,-8.332139E-1,-8.2563976E-4,3.1756407E-1,4.0460157E-1,-7.5016755E-1,5.205815E-5,-2.1524774E-4,8.5814434E-5,1.230174E-3,-1.2990794E-4,2.693044E-4],"split_indices":[7,0,7,0,5,4,1,0,0,0,0,0,0],"split_type":[0,0,0,0,0,0,0,0,0,0,0,0,0],"sum_hessian":[1.28E2,6E0,1.22E2,2E0,4E0,2.6E1,9.6E1,2E0,2E0,2.3E1,3E0,7.3E1,2.3E1],"tree_param":{"num_deleted":"0","num_feature":"12","num_nodes":"13","size_leaf_vector":"1"}},{"base_weights":[6.388681E-5,2.6839257E-3,-3.308437E-4,4.5099063E-3,-1.4153565E-3,-4.574458E-3,3.6045574E-5,-1.1502645E-4,7.4837747E-4,1.7634524E-5,-4.6869327E-4,-8.858341E-4,-2.0850143E-4,7.496777E-4,-4.9184495E-5],"categories":[],"categories_nodes":[],"categories_segments":[],"categories_sizes":[],"default_left":[0,0,0,0,0,0,0,0,0,0,0,0,0,0,0],"id":36,"left_children":[1,3,5,7,9,11,13,-1,-1,-1,-1,-1,-1,-1,-1],"loss_changes":[1.3430096E-4,1.3363168E-4,1.7609872E-4,2.1059955E-4,3.2070755E-5,7.75106E-5,4.1722445E-4,0E0,0E0,0E0,0E0,0E0,0E0,0E0,0E0],"parents":[2147483647,0,0,1,1,2,2,3,3,4,4,5,5,6,6],"right_children":[2,4,6,8,10,12,14,-1,-1,-1,-1,-1,-1,-1,-1],"split_conditions":[1.4136384E-1,4.9328893E-2,4.7127935E-1,-9.5554906E-1,-4.7511977E-1,-1.3494332E0,-1.2878412E0,-1.1502645E-4,7.4837747E-4,1.7634524E-5,-4.6869327E-4,-8.858341E-4,-2.0850143E-4,7.496777E-4,-4.9184495E-5],"split_indices":[2,6,2,6,0,6,6,0,0,0,0,0,0,0,0],"split_type":[0,0,0,0,0,0,0,0,0,0,0,0,0,0,0],"sum_hessian":[1.28E2,1.6E1,1.12E2,1.1E1,5E0,8E0,1.04E2,4E0,7E0,4E0,1E0,2E0,6E0,6E0,9.8E1],"tree_param":{"num_deleted":"0","num_feature":"12","num_nodes":"15","size_leaf_vector":"1"}},{"base_weights":[5.5858218E-5,8.182434E-4,-7.155593E-5,-7.2430476E-4,1.6835853E-3,-2.726395E-5,-5.5456266E-4,4.2374997E-4,-2.208098E-5],"categories":[],"categories_nodes":[],"categories_segments":[],"categories_sizes":[],"default_left":[0,0,0,0,0,0,0,0,0],"id":37,"left_children":[1,-1,3,5,7,-1,-1,-1,-1],"loss_changes":[1.3415737E-4,0E0,1.4786473E-4,2.0318462E-4,1.7116385E-4,0E0,0E0,0E0,0E0],"parents":[2147483647,0,0,2,2,3,3,4,4],"right_children":[2,-1,4,6,8,-1,-1,-1,-1],"split_conditions":[-2.9995048E0,8.182434E-4,8.651037E-1,7.652623E-1,-5.092371E-1,-2.726395E-5,-5.5456266E-4,4.2374997E-4,-2.208098E-5],"split_indices":[3,0,7,7,3,0,0,0,0],"split_type":[0,0,0,0,0,0,0,0,0],"sum_hessian":[1.28E2,1E0,1.27E2,9.3E1,3.4E1,8.6E1,7E0,1.4E1,2E1],"tree_param":{"num_deleted":"0","num_feature":"12","num_nodes":"9","size_leaf_vector":"1"}},{"base_weights":[5.5218836E-5,7.7733136E-4,-6.5807784E-5,-9.720479E-4,1.0446898E-3,3.9719478E-5,-4.0397793E-4,-1.10654626E-4,3.389105E-4],"categories":[],"categories_nodes":[],"categories_segments":[],"categories_sizes":[],"default_left":[0,0,0,0,0,0,0,0,0],"id":38,"left_children":[1,-1,3,5,7,-1,-1,-1,-1],"loss_changes":[1.2100978E-4,0E0,1.298318E-4,2.9983785E-4,2.9626687E-4,0E0,0E0,0E0,0E0],"parents":[2147483647,0,0,2,2,3,3,4,4],"right_children":[2,-1,4,6,8,-1,-1,-1,-1],"split_conditions":[-2.9995048E0,7.7733136E-4,-4.9682873E-1,-6.3239753E-1,2.4699109E-2,3.9719478E-5,-4.0397793E-4,-1.10654626E-4,3.389105E-4],"split_indices":[3,0,0,0,4,0,0,0,0],"split_type":[0,0,0,0,0,0,0,0,0],"sum_hessian":[1.28E2,1E0,1.27E2,7E1,5.7E1,4.9E1,2.1E1,3E1,2.7E1],"tree_param":{"num_deleted":"0","num_feature":"12","num_nodes":"9","size_leaf_vector":"1"}},{"base_weights":[5.4668526E-5,2.0376008E-3,-4.1797888E-4,-1.5141E-3,4.936373E-3,-2.333555E-3,3.7936564E-4,6.904182E-5,-6.095741E-4,8.2360295E-4,4.6014087E-5,1.6727345E-4,-4.3209663E-4,9.728404E-4,-2.8436049E-5],"categories":[],"categories_nodes":[],"categories_segments":[],"categories_sizes":[],"default_left":[0,0,0,0,0,0,0,0,0,0,0,0,0,0,0],"id":39,"left_children":[1,3,5,7,9,11,13,-1,-1,-1,-1,-1,-1,-1,-1],"loss_changes":[1.2175407E-4,2.6486345E-4,1.6125955E-4,1.2541233E-4,2.0299063E-4,2.540543E-4,4.6815645E-4,0E0,0E0,0E0,0E0,0E0,0E0,0E0,0E0],"parents":[2147483647,0,0,1,1,2,2,3,3,4,4,5,5,6,6],"right_children":[2,4,6,8,10,12,14,-1,-1,-1,-1,-1,-1,-1,-1],"split_conditions":[-6.8698967E-1,-5.727963E-1,-7.1331656E-1,3.5310166E0,-4.0836537E-1,-3.9301527E-1,-6.783978E-1,6.904182E-5,-6.095741E-4,8.2360295E-4,4.6014087E-5,1.6727345E-4,-4.3209663E-4,9.728404E-4,-2.8436049E-5],"split_indices":[4,3,0,2,0,6,0,0,0,0,0,0,0,0,0],"split_type":[0,0,0,0,0,0,0,0,0,0,0,0,0,0,0],"sum_hessian":[1.28E2,2.4E1,1.04E2,1.1E1,1.3E1,3E1,7.4E1,8E0,3E0,7E0,6E0,1E1,2E1,4E0,7E1],"tree_param":{"num_deleted":"0","num_feature":"12","num_nodes":"15","size_leaf_vector":"1"}},{"base_weights":[5.702077E-5,7.398866E-4,-5.8141028E-5,-6.575305E-4,1.553309E-3,-3.3033217E-4,1.0218772E-5,1.0197433E-4,9.847273E-4],"categories":[],"categories_nodes":[],"categories_segments":[],"categories_sizes":[],"default_left":[0,0,0,0,0,0,0,0,0],"id":40,"left_children":[1,-1,3,5,7,-1,-1,-1,-1],"loss_changes":[1.09499684E-4,0E0,1.2465479E-4,1.8928281E-4,1.4484645E-4,0E0,0E0,0E0,0E0],"parents":[2147483647,0,0,2,2,3,3,4,4],"right_children":[2,-1,4,6,8,-1,-1,-1,-1],"split_conditions":[-2.9995048E0,7.398866E-4,8.651037E-1,-1.0914135E0,1.4521359E0,-3.3033217E-4,1.0218772E-5,1.0197433E-4,9.847273E-4],"split_indices":[3,0,7,5,5,0,0,0,0],"split_type":[0,0,0,0,0,0,0,0,0],"sum_hessian":[1.28E2,1E0,1.27E2,9.3E1,3.4E1,2E1,7.3E1,3.3E1,1E0],"tree_param":{"num_deleted":"0","num_feature":"12","num_nodes":"9","size_leaf_vector":"1"}},{"base_weights":[6.2996805E-5,1.7715215E-4,-7.2744436E-4,9.35491E-4,3.1225634E-5,3.145667E-4,-4.1397336E-5],"categories":[],"categories_nodes":[],"categories_segments":[],"categories_sizes":[],"default_left":[0,0,0,0,0,0,0],"id":41,"left_children":[1,3,-1,-1,5,-1,-1],"loss_changes":[1.0934012E-4,1.711355E-4,0E0,0E0,1.7739357E-4,0E0,0E0],"parents":[2147483647,0,0,1,1,4,4],"right_children":[2,4,-1,-1,6,-1,-1],"split_conditions":[-4.0450683E-1,-1.3704933E0,-7.2744436E-4,9.35491E-4,-2.3984141E0,3.145667E-4,-4.1397336E-5],"split_indices":[1,6,0,0,3,0,0],"split_type":[0,0,0,0,0,0,0],"sum_hessian":[1.28E2,1.27E2,1E0,1E0,1.26E2,1.5E1,1.11E2],"tree_param":{"num_deleted":"0","num_feature":"12","num_nodes":"7","size_leaf_vector":"1"}},{"base_weights":[6.0427483E-5,2.3750248E-3,-2.8832103E-4,3.9480836E-3,-1.1669302E-3,-1.8724753E-3,4.4652348E-4,-9.519596E-5,6.5171E-4,3.4121185E-5,-4.3538204E-4,-3.4802673E-5,-9.436714E-4,9.4397564E-4,-1.6716149E-5],"categories":[],"categories_nodes":[],"categories_segments":[],"categories_sizes":[],"default_left":[0,0,0,0,0,0,0,0,0,0,0,0,0,0,0],"id":42,"left_children":[1,3,5,7,9,11,13,-1,-1,-1,-1,-1,-1,-1,-1],"loss_changes":[1.0481517E-4,9.932609E-5,1.3238018E-4,1.5726355E-4,3.0323274E-5,4.118423E-4,4.320609E-4,0E0,0E0,0E0,0E0,0E0,0E0,0E0,0E0],"parents":[2147483647,0,0,1,1,2,2,3,3,4,4,5,5,6,6],"right_children":[2,4,6,8,10,12,14,-1,-1,-1,-1,-1,-1,-1,-1],"split_conditions":[1.4136384E-1,4.9328893E-2,1.728386E0,-9.5554906E-1,-4.7511977E-1,1.4503129E0,-1.2878412E0,-9.519596E-5,6.5171E-4,3.4121185E-5,-4.3538204E-4,-3.4802673E-5,-9.436714E-4,9.4397564E-4,-1.6716149E-5],"split_indices":[2,6,2,6,0,2,6,0,0,0,0,0,0,0,0],"split_type":[0,0,0,0,0,0,0,0,0,0,0,0,0,0,0],"sum_hessian":[1.28E2,1.6E1,1.12E2,1.1E1,5E0,3.5E1,7.7E1,4E0,7E0,4E0,1E0,3E1,5E0,4E0,7.3E1],"tree_param":{"num_deleted":"0","num_feature":"12","num_nodes":"15","size_leaf_vector":"1"}},{"base_weights":[5.519121E-5,-1.19688295E-4,4.4161407E-3,1.8011644E-3,-5.9396186E-4,1.1042338E-4,4.968059E-4,-1.4592089E-4,4.4671152E-4,3.8294518E-5,-2.4470707E-4],"categories":[],"categories_nodes":[],"categories_segments":[],"categories_sizes":[],"default_left":[0,0,0,0,0,0,0,0,0,0,0],"id":43,"left_children":[1,3,5,7,9,-1,-1,-1,-1,-1,-1],"loss_changes":[9.890921E-5,1.14946015E-4,3.6536148E-6,2.2381831E-4,1.837789E-4,0E0,0E0,0E0,0E0,0E0,0E0],"parents":[2147483647,0,0,1,1,2,2,3,3,4,4],"right_children":[2,4,6,8,10,-1,-1,-1,-1,-1,-1],"split_conditions":[1.0632976E0,-6.8698967E-1,-1.5525945E0,-5.727963E-1,7.6967984E-1,1.1042338E-4,4.968059E-4,-1.4592089E-4,4.4671152E-4,3.8294518E-5,-2.4470707E-4],"split_indices":[4,4,1,3,3,0,0,0,0,0,0],"split_type":[0,0,0,0,0,0,0,0,0,0,0],"sum_hessian":[1.28E2,1.24E2,4E0,2.4E1,1E2,1E0,3E0,1.1E1,1.3E1,6.6E1,3.4E1],"tree_param":{"num_deleted":"0","num_feature":"12","num_nodes":"11","size_leaf_vector":"1"}},{"base_weights":[5.5110922E-5,1.6354879E-4,-6.9124677E-4,8.3960296E-4,3.2615633E-5,4.3714488E-5,-3.0170125E-4],"categories":[],"categories_nodes":[],"categories_segments":[],"categories_sizes":[],"default_left":[0,0,0,0,0,0,0],"id":44,"left_children":[1,3,-1,-1,5,-1,-1],"loss_changes":[9.859638E-5,1.3769795E-4,0E0,0E0,1.5799416E-4,0E0,0E0],"parents":[2147483647,0,0,1,1,4,4],"right_children":[2,4,-1,-1,6,-1,-1],"split_conditions":[-4.0450683E-1,-1.3704933E0,-6.9124677E-4,8.3960296E-4,1.1525136E0,4.3714488E-5,-3.0170125E-4],"split_indices":[1,6,0,0,5,0,0],"split_type":[0,0,0,0,0,0,0],"sum_hessian":[1.28E2,1.27E2,1E0,1E0,1.26E2,1.12E2,1.4E1],"tree_param":{"num_deleted":"0","num_feature":"12","num_nodes":"7","size_leaf_vector":"1"}},{"base_weights":[4.874998E-5,-3.5937666E-3,2.5565134E-4,-7.01335E-4,-8.232632E-4,2.2734962E-3,-3.086524E-4,4.1556104E-5,-1.7876664E-4,6.744413E-5,1.1299452E-3,-2.9561634E-4,5.541708E-5],"categories":[],"categories_nodes":[],"categories_segments":[],"categories_sizes":[],"default_left":[0,0,0,0,0,0,0,0,0,0,0,0,0],"id":45,"left_children":[1,3,5,-1,7,9,11,-1,-1,-1,-1,-1,-1],"loss_changes":[9.813852E-5,6.0543935E-5,1.4075903E-4,0E0,6.716515E-6,3.8207014E-4,2.2321861E-4,0E0,0E0,0E0,0E0,0E0,0E0],"parents":[2147483647,0,0,1,1,2,2,4,4,5,5,6,6],"right_children":[2,4,6,-1,8,10,12,-1,-1,-1,-1,-1,-1],"split_conditions":[-1.4616224E0,-4.5203558E-1,-8.332139E-1,-7.01335E-4,3.1756407E-1,4.0460157E-1,-1.3935606E0,4.1556104E-5,-1.7876664E-4,6.744413E-5,1.1299452E-3,-2.9561634E-4,5.541708E-5],"split_indices":[7,0,7,0,5,4,3,0,0,0,0,0,0],"split_type":[0,0,0,0,0,0,0,0,0,0,0,0,0],"sum_hessian":[1.28E2,6E0,1.22E2,2E0,4E0,2.6E1,9.6E1,2E0,2E0,2.3E1,3E0,2.3E1,7.3E1],"tree_param":{"num_deleted":"0","num_feature":"12","num_nodes":"13","size_leaf_vector":"1"}},{"base_weights":[4.4794626E-5,6.8143144E-4,-6.132907E-5,-5.992139E-4,1.385028E-3,-3.0051527E-4,9.165002E-6,3.4429945E-4,-3.305964E-5],"categories":[],"categories_nodes":[],"categories_segments":[],"categories_sizes":[],"default_left":[0,0,0,0,0,0,0,0,0],"id":46,"left_children":[1,-1,3,5,7,-1,-1,-1,-1],"loss_changes":[9.309235E-5,0E0,1.00410536E-4,1.5652E-4,1.2471265E-4,0E0,0E0,0E0,0E0],"parents":[2147483647,0,0,2,2,3,3,4,4],"right_children":[2,-1,4,6,8,-1,-1,-1,-1],"split_conditions":[-2.9995048E0,6.8143144E-4,8.651037E-1,-1.0914135E0,-3.1845343E-1,-3.0051527E-4,9.165002E-6,3.4429945E-4,-3.305964E-5],"split_indices":[3,0,7,5,3,0,0,0,0],"split_type":[0,0,0,0,0,0,0,0,0],"sum_hessian":[1.28E2,1E0,1.27E2,9.3E1,3.4E1,2E1,7.3E1,1.5E1,1.9E1],"tree_param":{"num_deleted":"0","num_feature":"12","num_nodes":"9","size_leaf_vector":"1"}},{"base_weights":[4.57518E-5,-1.5543797E-4,3.5744074E-3,2.636933E-4,-3.1907628E-3,5.9368704E-3,-1.5545001E-3,-1.32562045E-5,3.8060194E-4,-1.173378E-3,-7.719345E-6,2.2424555E-4,7.652329E-4,-2.9464622E-4,6.147121E-5],"categories":[],"categories_nodes":[],"categories_segments":[],"categories_sizes":[],"default_left":[0,0,0,0,0,0,0,0,0,0,0,0,0,0,0],"id":47,"left_children":[1,3,5,7,9,11,13,-1,-1,-1,-1,-1,-1,-1,-1],"loss_changes":[9.21365E-5,1.5732193E-4,9.404685E-5,1.5350408E-4,3.9808336E-4,1.4528065E-5,1.0869611E-5,0E0,0E0,0E0,0E0,0E0,0E0,0E0,0E0],"parents":[2147483647,0,0,1,1,2,2,3,3,4,4,5,5,6,6],"right_children":[2,4,6,8,10,12,14,-1,-1,-1,-1,-1,-1,-1,-1],"split_conditions":[4.546116E0,4.0842605E0,1.9435402E-2,3.6513152E0,4.1608305E0,-2.4536812E0,-6.600468E-1,-1.32562045E-5,3.8060194E-4,-1.173378E-3,-7.719345E-6,2.2424555E-4,7.652329E-4,-2.9464622E-4,6.147121E-5],"split_indices":[2,2,7,2,2,3,0,0,0,0,0,0,0,0,0],"split_type":[0,0,0,0,0,0,0,0,0,0,0,0,0,0,0],"sum_hessian":[1.28E2,1.22E2,6E0,1.08E2,1.4E1,4E0,2E0,9.8E1,1E1,3E0,1.1E1,2E0,2E0,1E0,1E0],"tree_param":{"num_deleted":"0","num_feature":"12","num_nodes":"15","size_leaf_vector":"1"}},{"base_weights":[4.0731262E-5,2.220252E-3,-2.8752172E-4,-2.1517784E-3,3.3108143E-3,-3.8923237E-3,2.4199619E-5,-3.6668035E-4,1.196648E-4,6.7172165E-4,1.7711395E-4,-7.1321E-4,-1.9478018E-4,5.489282E-4,-3.6246478E-5],"categories":[],"categories_nodes":[],"categories_segments":[],"categories_sizes":[],"default_left":[0,0,0,0,0,0,0,0,0,0,0,0,0,0,0],"id":48,"left_children":[1,3,5,7,9,11,13,-1,-1,-1,-1,-1,-1,-1,-1],"loss_changes":[9.292938E-5,8.8179644E-5,1.2707157E-4,2.467967E-5,6.15294E-5,4.2806423E-5,2.238707E-4,0E0,0E0,0E0,0E0,0E0,0E0,0E0,0E0],"parents":[2147483647,0,0,1,1,2,2,3,3,4,4,5,5,6,6],"right_children":[2,4,6,8,10,12,14,-1,-1,-1,-1,-1,-1,-1,-1],"split_conditions":[1.4136384E-1,-1.1529516E0,4.7127935E-1,-4.5203558E-1,-6.176044E-1,-1.3494332E0,-1.2878412E0,-3.6668035E-4,1.196648E-4,6.7172165E-4,1.7711395E-4,-7.1321E-4,-1.9478018E-4,5.489282E-4,-3.6246478E-5],"split_indices":[2,7,2,0,7,6,6,0,0,0,0,0,0,0,0],"split_type":[0,0,0,0,0,0,0,0,0,0,0,0,0,0,0],"sum_hessian":[1.28E2,1.6E1,1.12E2,3E0,1.3E1,8E0,1.04E2,2E0,1E0,3E0,1E1,2E0,6E0,6E0,9.8E1],"tree_param":{"num_deleted":"0","num_feature":"12","num_nodes":"15","size_leaf_vector":"1"}},{"base_weights":[3.8259004E-5,-1.2456474E-4,4.101201E-3,3.0052126E-4,-2.2440632E-3,5.0465943E-4,1.7887409E-4,-3.0504083E-5,6.0838653E-4,2.2564123E-4,-5.1871565E-4],"categories":[],"categories_nodes":[],"categories_segments":[],"categories_sizes":[],"default_left":[0,0,0,0,0,0,0,0,0,0,0],"id":49,"left_children":[1,3,5,7,9,-1,-1,-1,-1,-1,-1],"loss_changes":[8.584996E-5,1.1329553E-4,1.9038634E-6,3.6958407E-4,2.898561E-4,0E0,0E0,0E0,0E0,0E0,0E0],"parents":[2147483647,0,0,1,1,2,2,3,3,4,4],"right_children":[2,4,6,8,10,-1,-1,-1,-1,-1,-1],"split_conditions":[1.0632976E0,7.43593E-1,3.078218E0,5.720396E-1,-5.8326125E-1,5.0465943E-4,1.7887409E-4,-3.0504083E-5,6.0838653E-4,2.2564123E-4,-5.1871565E-4],"split_indices":[4,4,2,4,7,0,0,0,0,0,0],"split_type":[0,0,0,0,0,0,0,0,0,0,0],"sum_hessian":[1.28E2,1.24E2,4E0,1.04E2,2E1,2E0,2E0,9.5E1,9E0,8E0,1.2E1],"tree_param":{"num_deleted":"0","num_feature":"12","num_nodes":"11","size_leaf_vector":"1"}},{"base_weights":[4.1939642E-5,6.513602E-4,-5.9507736E-5,-8.3960174E-4,8.964609E-4,2.443473E-5,-3.615889E-4,6.787977E-4,2.125824E-5],"categories":[],"categories_nodes":[],"categories_segments":[],"categories_sizes":[],"default_left":[0,0,0,0,0,0,0,0,0],"id":50,"left_children":[1,-1,3,5,7,-1,-1,-1,-1],"loss_changes":[8.508039E-5,0E0,9.6208074E-5,2.1454766E-4,2.322437E-4,0E0,0E0,0E0,0E0],"parents":[2147483647,0,0,2,2,3,3,4,4],"right_children":[2,-1,4,6,8,-1,-1,-1,-1],"split_conditions":[-2.9995048E0,6.513602E-4,-4.9682873E-1,2.8442395E-1,-4.703868E-1,2.443473E-5,-3.615889E-4,6.787977E-4,2.125824E-5],"split_indices":[3,0,0,6,0,0,0,0,0],"split_type":[0,0,0,0,0,0,0,0,0],"sum_hessian":[1.28E2,1E0,1.27E2,7E1,5.7E1,5.1E1,1.9E1,5E0,5.2E1],"tree_param":{"num_deleted":"0","num_feature":"12","num_nodes":"9","size_leaf_vector":"1"}},{"base_weights":[4.560818E-5,1.6730016E-3,-3.4230077E-4,-1.1292746E-3,3.9554522E-3,-1.0180059E-3,1.6474401E-3,7.5111115E-5,-5.077824E-4,6.7874754E-4,1.5379002E-5,3.925586E-4,-1.8754338E-4,-1.0583167E-4,5.117829E-4],"categories":[],"categories_nodes":[],"categories_segments":[],"categories_sizes":[],"default_left":[0,0,0,0,0,0,0,0,0,0,0,0,0,0,0],"id":51,"left_children":[1,3,5,7,9,11,13,-1,-1,-1,-1,-1,-1,-1,-1],"loss_changes":[8.200784E-5,1.6436823E-4,1.428473E-4,9.291156E-5,1.4968569E-4,3.422253E-4,2.5894702E-4,0E0,0E0,0E0,0E0,0E0,0E0,0E0,0E0],"parents":[2147483647,0,0,1,1,2,2,3,3,4,4,5,5,6,6],"right_children":[2,4,6,8,10,12,14,-1,-1,-1,-1,-1,-1,-1,-1],"split_conditions":[-6.8698967E-1,-5.727963E-1,-3.9344168E-1,-2.5414117E-2,-4.0836537E-1,-2.3984141E0,-2.0888257E-1,7.5111115E-5,-5.077824E-4,6.7874754E-4,1.5379002E-5,3.925586E-4,-1.8754338E-4,-1.0583167E-4,5.117829E-4],"split_indices":[4,3,0,7,0,3,6,0,0,0,0,0,0,0,0],"split_type":[0,0,0,0,0,0,0,0,0,0,0,0,0,0,0],"sum_hessian":[1.28E2,2.4E1,1.04E2,1.1E1,1.3E1,7.8E1,2.6E1,8E0,3E0,7E0,6E0,1.1E1,6.7E1,1.5E1,1.1E1],"tree_param":{"num_deleted":"0","num_feature":"12","num_nodes":"15","size_leaf_vector":"1"}},{"base_weights":[4.7810336E-5,2.028624E-3,-2.5061128E-4,-2.026388E-3,3.0422972E-3,-3.4427235E-3,2.5385096E-5,-3.2922154E-4,8.855471E-5,7.099292E-4,1.7745238E-4,-6.5537303E-4,-1.6176174E-4,4.9781863E-4,-3.2506938E-5],"categories":[],"categories_nodes":[],"categories_segments":[],"categories_sizes":[],"default_left":[0,0,0,0,0,0,0,0,0,0,0,0,0,0,0],"id":52,"left_children":[1,3,5,7,9,11,13,-1,-1,-1,-1,-1,-1,-1,-1],"loss_changes":[7.676257E-5,7.604264E-5,9.964168E-5,1.7659442E-5,5.9409052E-5,4.0499843E-5,1.8387006E-4,0E0,0E0,0E0,0E0,0E0,0E0,0E0,0E0],"parents":[2147483647,0,0,1,1,2,2,3,3,4,4,5,5,6,6],"right_children":[2,4,6,8,10,12,14,-1,-1,-1,-1,-1,-1,-1,-1],"split_conditions":[1.4136384E-1,-1.1529516E0,4.7127935E-1,-4.5203558E-1,-8.332139E-1,-1.3494332E0,-1.2878412E0,-3.2922154E-4,8.855471E-5,7.099292E-4,1.7745238E-4,-6.5537303E-4,-1.6176174E-4,4.9781863E-4,-3.2506938E-5],"split_indices":[2,7,2,0,7,6,6,0,0,0,0,0,0,0,0],"split_type":[0,0,0,0,0,0,0,0,0,0,0,0,0,0,0],"sum_hessian":[1.28E2,1.6E1,1.12E2,3E0,1.3E1,8E0,1.04E2,2E0,1E0,2E0,1.1E1,2E0,6E0,6E0,9.8E1],"tree_param":{"num_deleted":"0","num_feature":"12","num_nodes":"15","size_leaf_vector":"1"}},{"base_weights":[4.531523E-5,6.007896E-4,-4.8204114E-5,-7.450852E-4,8.0570555E-4,3.631265E-5,-3.2298808E-4,6.282307E-4,1.7051098E-5],"categories":[],"categories_nodes":[],"categories_segments":[],"categories_sizes":[],"default_left":[0,0,0,0,0,0,0,0,0],"id":53,"left_children":[1,-1,3,5,7,-1,-1,-1,-1],"loss_changes":[7.222215E-5,0E0,7.676972E-5,1.966841E-4,2.0069384E-4,0E0,0E0,0E0,0E0],"parents":[2147483647,0,0,2,2,3,3,4,4],"right_children":[2,-1,4,6,8,-1,-1,-1,-1],"split_conditions":[-2.9995048E0,6.007896E-4,-4.9682873E-1,-6.3239753E-1,-4.703868E-1,3.631265E-5,-3.2298808E-4,6.282307E-4,1.7051098E-5],"split_indices":[3,0,0,0,0,0,0,0,0],"split_type":[0,0,0,0,0,0,0,0,0],"sum_hessian":[1.28E2,1E0,1.27E2,7E1,5.7E1,4.9E1,2.1E1,5E0,5.2E1],"tree_param":{"num_deleted":"0","num_feature":"12","num_nodes":"9","size_leaf_vector":"1"}},{"base_weights":[4.8220914E-5,-3.0878661E-3,2.2630538E-4,-6.156896E-4,-6.2887516E-4,2.0636613E-3,-2.8745667E-4,4.792123E-5,-1.5273374E-4,6.116536E-5,1.0259793E-3,-1.0750768E-4,2.153016E-4],"categories":[],"categories_nodes":[],"categories_segments":[],"categories_sizes":[],"default_left":[0,0,0,0,0,0,0,0,0,0,0,0,0],"id":54,"left_children":[1,3,5,-1,7,9,11,-1,-1,-1,-1,-1,-1],"loss_changes":[7.27438E-5,4.8955102E-5,1.1670076E-4,0E0,5.709793E-6,3.150474E-4,1.8876466E-4,0E0,0E0,0E0,0E0,0E0,0E0],"parents":[2147483647,0,0,1,1,2,2,4,4,5,5,6,6],"right_children":[2,4,6,-1,8,10,12,-1,-1,-1,-1,-1,-1],"split_conditions":[-1.4616224E0,-4.5203558E-1,-8.332139E-1,-6.156896E-4,3.1756407E-1,4.0460157E-1,-7.5016755E-1,4.792123E-5,-1.5273374E-4,6.116536E-5,1.0259793E-3,-1.0750768E-4,2.153016E-4],"split_indices":[7,0,7,0,5,4,1,0,0,0,0,0,0],"split_type":[0,0,0,0,0,0,0,0,0,0,0,0,0],"sum_hessian":[1.28E2,6E0,1.22E2,2E0,4E0,2.6E1,9.6E1,2E0,2E0,2.3E1,3E0,7.3E1,2.3E1],"tree_param":{"num_deleted":"0","num_feature":"12","num_nodes":"13","size_leaf_vector":"1"}},{"base_weights":[4.70766E-5,-1.2972165E-4,3.1469492E-3,2.512712E-4,-2.8896218E-3,5.1575815E-3,-1.2530874E-3,-5.0777564E-4,4.499961E-5,-1.0441234E-3,-1.3161566E-5,1.879853E-4,6.716116E-4,-2.4393469E-4,5.5971566E-5],"categories":[],"categories_nodes":[],"categories_segments":[],"categories_sizes":[],"default_left":[0,0,0,0,0,0,0,0,0,0,0,0,0,0,0],"id":55,"left_children":[1,3,5,7,9,11,13,-1,-1,-1,-1,-1,-1,-1,-1],"loss_changes":[7.110694E-5,1.3006086E-4,6.839089E-5,1.17717114E-4,3.1103665E-4,1.2916964E-5,7.816705E-6,0E0,0E0,0E0,0E0,0E0,0E0,0E0,0E0],"parents":[2147483647,0,0,1,1,2,2,3,3,4,4,5,5,6,6],"right_children":[2,4,6,8,10,12,14,-1,-1,-1,-1,-1,-1,-1,-1],"split_conditions":[4.546116E0,4.0842605E0,1.9435402E-2,-1.3494332E0,4.1608305E0,-2.4536812E0,-6.600468E-1,-5.0777564E-4,4.499961E-5,-1.0441234E-3,-1.3161566E-5,1.879853E-4,6.716116E-4,-2.4393469E-4,5.5971566E-5],"split_indices":[2,2,7,6,2,3,0,0,0,0,0,0,0,0,0],"split_type":[0,0,0,0,0,0,0,0,0,0,0,0,0,0,0],"sum_hessian":[1.28E2,1.22E2,6E0,1.08E2,1.4E1,4E0,2E0,3E0,1.05E2,3E0,1.1E1,2E0,2E0,1E0,1E0],"tree_param":{"num_deleted":"0","num_feature":"12","num_nodes":"15","size_leaf_vector":"1"}},{"base_weights":[3.5792014E-5,-4.054502E-4,1.2324268E-3,-2.779216E-3,1.4753998E-4,3.1253626E-3,-1.7835708E-4,-1.9581306E-5,-5.983994E-4,6.486847E-5,-5.028169E-4,5.4177868E-5,4.7875542E-4,2.5693266E-4,-2.4532306E-4],"categories":[],"categories_nodes":[],"categories_segments":[],"categories_sizes":[],"default_left":[0,0,0,0,0,0,0,0,0,0,0,0,0,0,0],"id":56,"left_children":[1,3,5,7,9,11,13,-1,-1,-1,-1,-1,-1,-1,-1],"loss_changes":[6.861244E-5,1.2511361E-4,9.4025745E-5,1.4785441E-4,2.0557649E-4,6.182237E-5,1.3756644E-4,0E0,0E0,0E0,0E0,0E0,0E0,0E0,0E0],"parents":[2147483647,0,0,1,1,2,2,3,3,4,4,5,5,6,6],"right_children":[2,4,6,8,10,12,14,-1,-1,-1,-1,-1,-1,-1,-1],"split_conditions":[8.651037E-1,-1.1505867E0,-5.092371E-1,-1.3586371E0,7.652623E-1,3.4911032E-3,9.085967E-2,-1.9581306E-5,-5.983994E-4,6.486847E-5,-5.028169E-4,5.4177868E-5,4.7875542E-4,2.5693266E-4,-2.4532306E-4],"split_indices":[7,5,3,5,7,4,5,0,0,0,0,0,0,0,0],"split_type":[0,0,0,0,0,0,0,0,0,0,0,0,0,0,0],"sum_hessian":[1.28E2,9.4E1,3.4E1,1.7E1,7.7E1,1.4E1,2E1,1E1,7E0,7.1E1,6E0,6E0,8E0,9E0,1.1E1],"tree_param":{"num_deleted":"0","num_feature":"12","num_nodes":"15","size_leaf_vector":"1"}},{"base_weights":[2.8248596E-5,-1.1962211E-4,3.7193666E-3,2.6478647E-4,-2.0359687E-3,4.670779E-4,1.5281657E-4,-3.4686043E-5,4.620046E-4,2.4400931E-4,-4.4482923E-4],"categories":[],"categories_nodes":[],"categories_segments":[],"categories_sizes":[],"default_left":[0,0,0,0,0,0,0,0,0,0,0],"id":57,"left_children":[1,3,5,7,9,-1,-1,-1,-1,-1,-1],"loss_changes":[7.085418E-5,9.2621616E-5,3.2859534E-6,2.8131E-4,2.3760612E-4,0E0,0E0,0E0,0E0,0E0,0E0],"parents":[2147483647,0,0,1,1,2,2,3,3,4,4],"right_children":[2,4,6,8,10,-1,-1,-1,-1,-1,-1],"split_conditions":[1.0632976E0,7.43593E-1,3.078218E0,5.267695E-1,-7.243606E-1,4.670779E-4,1.5281657E-4,-3.4686043E-5,4.620046E-4,2.4400931E-4,-4.4482923E-4],"split_indices":[4,4,2,4,7,0,0,0,0,0,0],"split_type":[0,0,0,0,0,0,0,0,0,0,0],"sum_hessian":[1.28E2,1.24E2,4E0,1.04E2,2E1,2E0,2E0,9.2E1,1.2E1,7E0,1.3E1],"tree_param":{"num_deleted":"0","num_feature":"12","num_nodes":"11","size_leaf_vector":"1"}},{"base_weights":[3.1984917E-5,1.9021756E-3,-2.4965426E-4,-1.7447413E-3,2.8082822E-3,1.4971991E-3,-6.8842317E-4,-2.8360353E-4,7.645704E-5,6.037797E-4,1.3786148E-4,-8.319562E-5,3.3528538E-4,-1.7201183E-4,6.699911E-5],"categories":[],"categories_nodes":[],"categories_segments":[],"categories_sizes":[],"default_left":[0,0,0,0,0,0,0,0,0,0,0,0,0,0,0],"id":58,"left_children":[1,3,5,7,9,11,13,-1,-1,-1,-1,-1,-1,-1,-1],"loss_changes":[6.8421636E-5,6.1076134E-5,8.764124E-5,1.3121936E-5,5.631605E-5,1.021979E-4,1.2868618E-4,0E0,0E0,0E0,0E0,0E0,0E0,0E0,0E0],"parents":[2147483647,0,0,1,1,2,2,3,3,4,4,5,5,6,6],"right_children":[2,4,6,8,10,12,14,-1,-1,-1,-1,-1,-1,-1,-1],"split_conditions":[1.4136384E-1,-1.1529516E0,-6.8698967E-1,-4.5203558E-1,-6.176044E-1,-5.727963E-1,-4.9682873E-1,-2.8360353E-4,7.645704E-5,6.037797E-4,1.3786148E-4,-8.319562E-5,3.3528538E-4,-1.7201183E-4,6.699911E-5],"split_indices":[2,7,4,0,7,3,0,0,0,0,0,0,0,0,0],"split_type":[0,0,0,0,0,0,0,0,0,0,0,0,0,0,0],"sum_hessian":[1.28E2,1.6E1,1.12E2,3E0,1.3E1,2.2E1,9E1,2E0,1E0,3E0,1E1,1E1,1.2E1,5.1E1,3.9E1],"tree_param":{"num_deleted":"0","num_feature":"12","num_nodes":"15","size_leaf_vector":"1"}},{"base_weights":[3.4069933E-5,-2.9619264E-3,2.042968E-4,-5.5891596E-4,-7.932015E-4,1.8958377E-3,-2.6865065E-4,1.9830013E-5,-1.5203026E-4,5.652384E-5,9.4054744E-4,-2.5479906E-4,3.5647645E-5],"categories":[],"categories_nodes":[],"categories_segments":[],"categories_sizes":[],"default_left":[0,0,0,0,0,0,0,0,0,0,0,0,0],"id":59,"left_children":[1,3,5,-1,7,9,11,-1,-1,-1,-1,-1,-1],"loss_changes":[6.639499E-5,3.545089E-5,9.891055E-5,0E0,3.906086E-6,2.6447623E-4,1.3912137E-4,0E0,0E0,0E0,0E0,0E0,0E0],"parents":[2147483647,0,0,1,1,2,2,4,4,5,5,6,6],"right_children":[2,4,6,-1,8,10,12,-1,-1,-1,-1,-1,-1],"split_conditions":[-1.4616224E0,-4.5203558E-1,-8.332139E-1,-5.5891596E-4,3.1756407E-1,4.0460157E-1,-1.6578839E0,1.9830013E-5,-1.5203026E-4,5.652384E-5,9.4054744E-4,-2.5479906E-4,3.5647645E-5],"split_indices":[7,0,7,0,5,4,3,0,0,0,0,0,0],"split_type":[0,0,0,0,0,0,0,0,0,0,0,0,0],"sum_hessian":[1.28E2,6E0,1.22E2,2E0,4E0,2.6E1,9.6E1,2E0,2E0,2.3E1,3E0,2E1,7.6E1],"tree_param":{"num_deleted":"0","num_feature":"12","num_nodes":"13","size_leaf_vector":"1"}},{"base_weights":[3.1335858E-5,5.6970713E-4,-5.7436067E-5,-4.992324E-4,1.1307437E-3,-8.36748E-5,2.781387E-4,2.837822E-4,-2.9145607E-5],"categories":[],"categories_nodes":[],"categories_segments":[],"categories_sizes":[],"default_left":[0,0,0,0,0,0,0,0,0],"id":60,"left_children":[1,-1,3,5,7,-1,-1,-1,-1],"loss_changes":[6.520883E-5,0E0,6.775598E-5,1.0640979E-4,8.580032E-5,0E0,0E0,0E0,0E0],"parents":[2147483647,0,0,2,2,3,3,4,4],"right_children":[2,-1,4,6,8,-1,-1,-1,-1],"split_conditions":[-2.9995048E0,5.6970713E-4,8.651037E-1,9.5116246E-1,-3.1845343E-1,-8.36748E-5,2.781387E-4,2.837822E-4,-2.9145607E-5],"split_indices":[3,0,7,4,3,0,0,0,0],"split_type":[0,0,0,0,0,0,0,0,0],"sum_hessian":[1.28E2,1E0,1.27E2,9.3E1,3.4E1,8.5E1,8E0,1.5E1,1.9E1],"tree_param":{"num_deleted":"0","num_feature":"12","num_nodes":"9","size_leaf_vector":"1"}},{"base_weights":[3.6099984E-5,1.9692879E-3,-2.1636886E-4,7.039853E-4,6.476739E-4,2.2781175E-3,-5.8469485E-4,-4.0033992E-5,4.2745002E-4,6.155925E-4,-1.8844554E-4,-1.4650443E-4,1.651519E-4],"categories":[],"categories_nodes":[],"categories_segments":[],"categories_sizes":[],"default_left":[0,0,0,0,0,0,0,0,0,0,0,0,0],"id":61,"left_children":[1,3,5,-1,7,9,11,-1,-1,-1,-1,-1,-1],"loss_changes":[6.338709E-5,9.59604E-5,1.0699218E-4,0E0,5.112378E-5,2.5372545E-4,2.0125316E-4,0E0,0E0,0E0,0E0,0E0,0E0],"parents":[2147483647,0,0,1,1,2,2,4,4,5,5,6,6],"right_children":[2,4,6,-1,8,10,12,-1,-1,-1,-1,-1,-1],"split_conditions":[-9.17221E-1,-8.0326754E-1,-2.3984141E0,7.039853E-4,1.6676772E-1,-6.277136E-1,-3.9344168E-1,-4.0033992E-5,4.2745002E-4,6.155925E-4,-1.8844554E-4,-1.4650443E-4,1.651519E-4],"split_indices":[4,0,3,0,6,0,0,0,0,0,0,0,0],"split_type":[0,0,0,0,0,0,0,0,0,0,0,0,0],"sum_hessian":[1.28E2,1.4E1,1.14E2,2E0,1.2E1,1.4E1,1E2,1E1,2E0,7E0,7E0,7.2E1,2.8E1],"tree_param":{"num_deleted":"0","num_feature":"12","num_nodes":"13","size_leaf_vector":"1"}},{"base_weights":[4.440627E-5,1.828796E-3,-2.2443471E-4,6.621761E-4,1.1153757E-3,-3.0067284E-3,1.6185071E-5,-5.013718E-5,3.8935166E-4,-4.120043E-4,-5.850741E-5,4.2196998E-4,-2.811966E-5],"categories":[],"categories_nodes":[],"categories_segments":[],"categories_sizes":[],"default_left":[0,0,0,0,0,0,0,0,0,0,0,0,0],"id":62,"left_children":[1,3,5,-1,7,9,11,-1,-1,-1,-1,-1,-1],"loss_changes":[6.229395E-5,5.0744027E-5,7.5699325E-5,0E0,7.381694E-5,2.1854044E-5,1.3244162E-4,0E0,0E0,0E0,0E0,0E0,0E0],"parents":[2147483647,0,0,1,1,2,2,4,4,5,5,6,6],"right_children":[2,4,6,-1,8,10,12,-1,-1,-1,-1,-1,-1],"split_conditions":[1.4136384E-1,-1.5322479E0,4.7127935E-1,6.621761E-4,1.7122175E-1,8.1006193E-1,-1.2878412E0,-5.013718E-5,3.8935166E-4,-4.120043E-4,-5.850741E-5,4.2196998E-4,-2.811966E-5],"split_indices":[2,1,2,0,4,7,6,0,0,0,0,0,0],"split_type":[0,0,0,0,0,0,0,0,0,0,0,0,0],"sum_hessian":[1.28E2,1.6E1,1.12E2,1E0,1.5E1,8E0,1.04E2,1E1,5E0,5E0,3E0,6E0,9.8E1],"tree_param":{"num_deleted":"0","num_feature":"12","num_nodes":"13","size_leaf_vector":"1"}},{"base_weights":[4.7134174E-5,1.8698863E-3,-1.9102597E-4,6.439245E-4,6.7158154E-4,-1.853009E-3,2.9122498E-4,-2.9947993E-5,4.0082796E-4,3.077216E-5,-4.0374105E-4,2.3074428E-4,-3.558477E-5],"categories":[],"categories_nodes":[],"categories_segments":[],"categories_sizes":[],"default_left":[0,0,0,0,0,0,0,0,0,0,0,0,0],"id":63,"left_children":[1,3,5,-1,7,9,11,-1,-1,-1,-1,-1,-1],"loss_changes":[5.6356992E-5,7.780778E-5,9.271133E-5,0E0,4.332221E-5,1.2395988E-4,1.1823863E-4,0E0,0E0,0E0,0E0,0E0,0E0],"parents":[2147483647,0,0,1,1,2,2,4,4,5,5,6,6],"right_children":[2,4,6,-1,8,10,12,-1,-1,-1,-1,-1,-1],"split_conditions":[-9.17221E-1,-8.0326754E-1,-1.0914135E0,6.439245E-4,1.6676772E-1,-1.3586371E0,-8.332139E-1,-2.9947993E-5,4.0082796E-4,3.077216E-5,-4.0374105E-4,2.3074428E-4,-3.558477E-5],"split_indices":[4,0,5,0,6,5,7,0,0,0,0,0,0],"split_type":[0,0,0,0,0,0,0,0,0,0,0,0,0],"sum_hessian":[1.28E2,1.4E1,1.14E2,2E0,1.2E1,2.5E1,8.9E1,1E1,2E0,1.3E1,1.2E1,2.1E1,6.8E1],"tree_param":{"num_deleted":"0","num_feature":"12","num_nodes":"13","size_leaf_vector":"1"}},{"base_weights":[4.890902E-5,1.3197615E-4,-5.291842E-4,-2.373641E-3,3.1879763E-4,-4.264996E-4,-7.171308E-5,2.4128534E-4,-2.026058E-5],"categories":[],"categories_nodes":[],"categories_segments":[],"categories_sizes":[],"default_left":[0,0,0,0,0,0,0,0,0],"id":64,"left_children":[1,3,-1,5,7,-1,-1,-1,-1],"loss_changes":[5.7928068E-5,6.067391E-5,0E0,2.5138877E-5,1.315106E-4,0E0,0E0,0E0,0E0],"parents":[2147483647,0,0,1,1,3,3,4,4],"right_children":[2,4,-1,6,8,-1,-1,-1,-1],"split_conditions":[1.6462884E0,-1.4268528E0,-5.291842E-4,-4.5203558E-1,-8.332139E-1,-4.264996E-4,-7.171308E-5,2.4128534E-4,-2.026058E-5],"split_indices":[5,7,0,0,7,0,0,0,0],"split_type":[0,0,0,0,0,0,0,0,0],"sum_hessian":[1.28E2,1.27E2,1E0,8E0,1.19E2,3E0,5E0,2.3E1,9.6E1],"tree_param":{"num_deleted":"0","num_feature":"12","num_nodes":"9","size_leaf_vector":"1"}},{"base_weights":[3.776722E-5,-9.209734E-5,3.2768277E-3,2.5784102E-4,-1.8374035E-3,5.9319667E-5,3.7994364E-4,-3.0712057E-5,4.2796554E-4,2.104428E-4,-3.9586355E-4],"categories":[],"categories_nodes":[],"categories_segments":[],"categories_sizes":[],"default_left":[0,0,0,0,0,0,0,0,0,0,0],"id":65,"left_children":[1,3,5,7,9,-1,-1,-1,-1,-1,-1],"loss_changes":[5.456424E-5,7.681746E-5,4.758629E-6,2.3989228E-4,1.8392297E-4,0E0,0E0,0E0,0E0,0E0,0E0],"parents":[2147483647,0,0,1,1,2,2,3,3,4,4],"right_children":[2,4,6,8,10,-1,-1,-1,-1,-1,-1],"split_conditions":[1.0632976E0,7.43593E-1,-1.5525945E0,5.267695E-1,-7.243606E-1,5.9319667E-5,3.7994364E-4,-3.0712057E-5,4.2796554E-4,2.104428E-4,-3.9586355E-4],"split_indices":[4,4,1,4,7,0,0,0,0,0,0],"split_type":[0,0,0,0,0,0,0,0,0,0,0],"sum_hessian":[1.28E2,1.24E2,4E0,1.04E2,2E1,1E0,3E0,9.2E1,1.2E1,7E0,1.3E1],"tree_param":{"num_deleted":"0","num_feature":"12","num_nodes":"11","size_leaf_vector":"1"}},{"base_weights":[3.903776E-5,1.6994759E-3,-2.1110814E-4,-1.5423058E-3,2.5043082E-3,-3.985068E-4,2.6835725E-3,-2.3642418E-4,4.6175115E-5,5.253223E-4,1.2770385E-4,-9.2182665E-5,9.754084E-5,4.3694253E-4,-1.0207064E-4],"categories":[],"categories_nodes":[],"categories_segments":[],"categories_sizes":[],"default_left":[0,0,0,0,0,0,0,0,0,0,0,0,0,0,0],"id":66,"left_children":[1,3,5,7,9,11,13,-1,-1,-1,-1,-1,-1,-1,-1],"loss_changes":[5.3939155E-5,4.821695E-5,6.236732E-5,7.680517E-6,4.052266E-5,7.783185E-5,4.8173984E-5,0E0,0E0,0E0,0E0,0E0,0E0,0E0,0E0],"parents":[2147483647,0,0,1,1,2,2,3,3,4,4,5,5,6,6],"right_children":[2,4,6,8,10,12,14,-1,-1,-1,-1,-1,-1,-1,-1],"split_conditions":[1.4136384E-1,-1.1529516E0,4.546116E0,-4.5203558E-1,-6.176044E-1,8.651037E-1,1.9435402E-2,-2.3642418E-4,4.6175115E-5,5.253223E-4,1.2770385E-4,-9.2182665E-5,9.754084E-5,4.3694253E-4,-1.0207064E-4],"split_indices":[2,7,2,0,7,7,7,0,0,0,0,0,0,0,0],"split_type":[0,0,0,0,0,0,0,0,0,0,0,0,0,0,0],"sum_hessian":[1.28E2,1.6E1,1.12E2,3E0,1.3E1,1.06E2,6E0,2E0,1E0,3E0,1E1,7.7E1,2.9E1,4E0,2E0],"tree_param":{"num_deleted":"0","num_feature":"12","num_nodes":"15","size_leaf_vector":"1"}},{"base_weights":[4.1358846E-5,-1.8395861E-3,2.4999923E-4,-4.001037E-3,1.1450684E-5,8.2992594E-4,1.0906371E-4,-1.3334554E-4,-5.001465E-4,1.2390951E-4,-9.72955E-5,4.7649704E-5,-1.4825378E-4],"categories":[],"categories_nodes":[],"categories_segments":[],"categories_sizes":[],"default_left":[0,0,0,0,0,0,0,0,0,0,0,0,0],"id":67,"left_children":[1,3,5,7,9,-1,11,-1,-1,-1,-1,-1,-1],"loss_changes":[5.108479E-5,5.205785E-5,1.3182277E-4,9.343094E-6,1.0873585E-5,0E0,6.854408E-5,0E0,0E0,0E0,0E0,0E0,0E0],"parents":[2147483647,0,0,1,1,2,2,3,3,4,4,6,6],"right_children":[2,4,6,8,10,-1,12,-1,-1,-1,-1,-1,-1],"split_conditions":[-1.3694515E0,-4.5203558E-1,-1.3489443E0,-8.245791E-1,-5.08912E-1,8.2992594E-4,7.43593E-1,-1.3334554E-4,-5.001465E-4,1.2390951E-4,-9.72955E-5,4.7649704E-5,-1.4825378E-4],"split_indices":[7,0,7,3,5,0,4,0,0,0,0,0,0],"split_type":[0,0,0,0,0,0,0,0,0,0,0,0,0],"sum_hessian":[1.28E2,1.2E1,1.16E2,5E0,7E0,1E0,1.15E2,2E0,3E0,3E0,4E0,9.4E1,2.1E1],"tree_param":{"num_deleted":"0","num_feature":"12","num_nodes":"13","size_leaf_vector":"1"}},{"base_weights":[3.8172133E-5,-8.9780224E-5,3.2293466E-3,1.7259219E-3,-3.3433654E-4,4.1419626E-4,1.2402817E-4,-1.8274906E-5,3.9333673E-4,1.9491804E-4,-6.571417E-5],"categories":[],"categories_nodes":[],"categories_segments":[],"categories_sizes":[],"default_left":[0,0,0,0,0,0,0,0,0,0,0],"id":68,"left_children":[1,3,5,7,9,-1,-1,-1,-1,-1,-1],"loss_changes":[5.2962994E-5,5.6082223E-5,3.9390616E-6,6.391812E-5,8.3102415E-5,0E0,0E0,0E0,0E0,0E0,0E0],"parents":[2147483647,0,0,1,1,2,2,3,3,4,4],"right_children":[2,4,6,8,10,-1,-1,-1,-1,-1,-1],"split_conditions":[1.0632976E0,-9.17221E-1,3.078218E0,9.52475E-2,-2.3984141E0,4.1419626E-4,1.2402817E-4,-1.8274906E-5,3.9333673E-4,1.9491804E-4,-6.571417E-5],"split_indices":[4,4,2,3,3,0,0,0,0,0,0],"split_type":[0,0,0,0,0,0,0,0,0,0,0],"sum_hessian":[1.28E2,1.24E2,4E0,1.4E1,1.1E2,2E0,2E0,8E0,6E0,1.3E1,9.7E1],"tree_param":{"num_deleted":"0","num_feature":"12","num_nodes":"11","size_leaf_vector":"1"}},{"base_weights":[4.2436164E-5,1.2021724E-4,-4.9567706E-4,9.556119E-4,-3.929647E-4,-1.4550969E-5,4.0160646E-4,-6.867134E-5,3.3443878E-4],"categories":[],"categories_nodes":[],"categories_segments":[],"categories_sizes":[],"default_left":[0,0,0,0,0,0,0,0,0],"id":69,"left_children":[1,3,-1,5,7,-1,-1,-1,-1],"loss_changes":[5.0756724E-5,5.525033E-5,0E0,1.6571098E-4,9.012401E-5,0E0,0E0,0E0,0E0],"parents":[2147483647,0,0,1,1,3,3,4,4],"right_children":[2,4,-1,6,8,-1,-1,-1,-1],"split_conditions":[1.6462884E0,-1.2005454E0,-4.9567706E-4,5.4917175E-1,4.5234823E0,-1.4550969E-5,4.0160646E-4,-6.867134E-5,3.3443878E-4],"split_indices":[5,1,0,4,2,0,0,0,0],"split_type":[0,0,0,0,0,0,0,0,0],"sum_hessian":[1.28E2,1.27E2,1E0,4.8E1,7.9E1,3.6E1,1.2E1,7.4E1,5E0],"tree_param":{"num_deleted":"0","num_feature":"12","num_nodes":"9","size_leaf_vector":"1"}},{"base_weights":[3.941077E-5,1.151923E-4,-4.8303124E-4,-9.038794E-5,3.2101944E-3,1.8688022E-4,-3.8526206E-5,1.148311E-4,6.2638964E-4],"categories":[],"categories_nodes":[],"categories_segments":[],"categories_sizes":[],"default_left":[0,0,0,0,0,0,0,0,0],"id":70,"left_children":[1,3,-1,5,7,-1,-1,-1,-1],"loss_changes":[4.816194E-5,8.173289E-5,0E0,7.062341E-5,4.3178123E-5,0E0,0E0,0E0,0E0],"parents":[2147483647,0,0,1,1,3,3,4,4],"right_children":[2,4,-1,6,8,-1,-1,-1,-1],"split_conditions":[-4.0450683E-1,-4.9499258E-1,-4.8303124E-4,-2.3984141E0,4.9328893E-2,1.8688022E-4,-3.8526206E-5,1.148311E-4,6.2638964E-4],"split_indices":[1,1,0,3,6,0,0,0,0],"split_type":[0,0,0,0,0,0,0,0,0],"sum_hessian":[1.28E2,1.27E2,1E0,1.2E2,7E0,1.5E1,1.05E2,5E0,2E0],"tree_param":{"num_deleted":"0","num_feature":"12","num_nodes":"9","size_leaf_vector":"1"}},{"base_weights":[3.8621223E-5,1.6022383E-3,-1.9695499E-4,4.046758E-3,5.3878926E-4,-1.4959134E-3,2.0843388E-4,4.9597415E-4,1.9741308E-5,-1.8192914E-4,2.8199E-4,8.560929E-5,-4.0946968E-4,-8.3086474E-5,1.7038532E-4],"categories":[],"categories_nodes":[],"categories_segments":[],"categories_sizes":[],"default_left":[0,0,0,0,0,0,0,0,0,0,0,0,0,0,0],"id":71,"left_children":[1,3,5,7,9,11,13,-1,-1,-1,-1,-1,-1,-1,-1],"loss_changes":[4.7832847E-5,4.2013224E-5,5.9815706E-5,1.6592821E-5,7.5057775E-5,1.6853899E-4,1.3662995E-4,0E0,0E0,0E0,0E0,0E0,0E0,0E0,0E0],"parents":[2147483647,0,0,1,1,2,2,3,3,4,4,5,5,6,6],"right_children":[2,4,6,8,10,12,14,-1,-1,-1,-1,-1,-1,-1,-1],"split_conditions":[1.4136384E-1,-1.0725591E0,-1.0391732E0,-6.861678E-1,-1.3810249E-1,-1.0293398E0,1.9378653E-2,4.9597415E-4,1.9741308E-5,-1.8192914E-4,2.8199E-4,8.560929E-5,-4.0946968E-4,-8.3086474E-5,1.7038532E-4],"split_indices":[2,5,5,0,5,1,6,0,0,0,0,0,0,0,0],"split_type":[0,0,0,0,0,0,0,0,0,0,0,0,0,0,0],"sum_hessian":[1.28E2,1.6E1,1.12E2,4E0,1.2E1,2.6E1,8.6E1,3E0,1E0,6E0,6E0,1.4E1,1.2E1,5.1E1,3.5E1],"tree_param":{"num_deleted":"0","num_feature":"12","num_nodes":"15","size_leaf_vector":"1"}},{"base_weights":[3.769875E-5,1.1260048E-4,-4.7748614E-4,2.0727497E-5,3.9337324E-3,-3.985628E-4,1.5084697E-5,6.144664E-5,5.286132E-4],"categories":[],"categories_nodes":[],"categories_segments":[],"categories_sizes":[],"default_left":[0,0,0,0,0,0,0,0,0],"id":72,"left_children":[1,3,-1,5,7,-1,-1,-1,-1],"loss_changes":[4.7038164E-5,4.4853987E-5,0E0,6.628563E-5,1.0218773E-5,0E0,0E0,0E0,0E0],"parents":[2147483647,0,0,1,1,3,3,4,4],"right_children":[2,4,-1,6,8,-1,-1,-1,-1],"split_conditions":[1.6462884E0,1.6021343E0,-4.7748614E-4,-1.3494332E0,-8.442471E-1,-3.985628E-4,1.5084697E-5,6.144664E-5,5.286132E-4],"split_indices":[5,5,0,6,0,0,0,0,0],"split_type":[0,0,0,0,0,0,0,0,0],"sum_hessian":[1.28E2,1.27E2,1E0,1.25E2,2E0,3E0,1.22E2,1E0,1E0],"tree_param":{"num_deleted":"0","num_feature":"12","num_nodes":"9","size_leaf_vector":"1"}},{"base_weights":[3.1828808E-5,4.6707885E-4,-4.09036E-5,-1.2960291E-3,2.917365E-4,-2.8689482E-4,2.7982722E-4,-2.1335401E-5,2.1381272E-4],"categories":[],"categories_nodes":[],"categories_segments":[],"categories_sizes":[],"default_left":[0,0,0,0,0,0,0,0,0],"id":73,"left_children":[1,-1,3,5,7,-1,-1,-1,-1],"loss_changes":[4.3716E-5,0E0,5.3818745E-5,1.8190822E-4,9.558081E-5,0E0,0E0,0E0,0E0],"parents":[2147483647,0,0,2,2,3,3,4,4],"right_children":[2,-1,4,6,8,-1,-1,-1,-1],"split_conditions":[-2.9995048E0,4.6707885E-4,-1.6578839E0,5.8209884E-1,3.5324214E0,-2.8689482E-4,2.7982722E-4,-2.1335401E-5,2.1381272E-4],"split_indices":[3,0,3,5,2,0,0,0,0],"split_type":[0,0,0,0,0,0,0,0,0],"sum_hessian":[1.28E2,1E0,1.27E2,2.6E1,1.01E2,1.9E1,7E0,8E1,2.1E1],"tree_param":{"num_deleted":"0","num_feature":"12","num_nodes":"9","size_leaf_vector":"1"}},{"base_weights":[3.370393E-5,1.04677405E-4,-4.5254506E-4,1.0138748E-3,-2.6211585E-4,2.6915886E-4,-2.7056615E-4,-9.8984245E-5,1.9641007E-4],"categories":[],"categories_nodes":[],"categories_segments":[],"categories_sizes":[],"default_left":[0,0,0,0,0,0,0,0,0],"id":74,"left_children":[1,3,-1,5,7,-1,-1,-1,-1],"loss_changes":[4.2215408E-5,4.295215E-5,0E0,2.3817424E-4,1.5099125E-4,0E0,0E0,0E0,0E0],"parents":[2147483647,0,0,1,1,3,3,4,4],"right_children":[2,4,-1,6,8,-1,-1,-1,-1],"split_conditions":[1.6462884E0,-7.243606E-1,-4.5254506E-4,-8.668606E-1,-7.5016755E-1,2.6915886E-4,-2.7056615E-4,-9.8984245E-5,1.9641007E-4],"split_indices":[5,7,0,1,1,0,0,0,0],"split_type":[0,0,0,0,0,0,0,0,0],"sum_hessian":[1.28E2,1.27E2,1E0,3.6E1,9.1E1,2.5E1,1.1E1,6.9E1,2.2E1],"tree_param":{"num_deleted":"0","num_feature":"12","num_nodes":"9","size_leaf_vector":"1"}},{"base_weights":[2.7569782E-5,-3.2300066E-4,9.783304E-4,-2.4956453E-3,1.15565774E-4,2.386023E-3,-1.967402E-4,3.8870747E-4,-4.947141E-4,-1.8524991E-4,9.921024E-5,-4.0381197E-5,3.349619E-4,2.1700207E-4,-2.3304555E-4],"categories":[],"categories_nodes":[],"categories_segments":[],"categories_sizes":[],"default_left":[0,0,0,0,0,0,0,0,0,0,0,0,0,0,0],"id":75,"left_children":[1,3,5,7,9,11,13,-1,-1,-1,-1,-1,-1,-1,-1],"loss_changes":[4.3312808E-5,9.0809066E-5,5.836426E-5,2.6958532E-4,1.3984434E-4,4.436499E-5,1.0605702E-4,0E0,0E0,0E0,0E0,0E0,0E0,0E0,0E0],"parents":[2147483647,0,0,1,1,2,2,3,3,4,4,5,5,6,6],"right_children":[2,4,6,8,10,12,14,-1,-1,-1,-1,-1,-1,-1,-1],"split_conditions":[8.651037E-1,-1.0239395E0,-3.1845343E-1,-6.65284E-1,-7.1331656E-1,6.6121274E-1,9.085967E-2,3.8870747E-4,-4.947141E-4,-1.8524991E-4,9.921024E-5,-4.0381197E-5,3.349619E-4,2.1700207E-4,-2.3304555E-4],"split_indices":[7,6,3,0,0,2,5,0,0,0,0,0,0,0,0],"split_type":[0,0,0,0,0,0,0,0,0,0,0,0,0,0,0],"sum_hessian":[1.28E2,9.4E1,3.4E1,1.5E1,7.9E1,1.5E1,1.9E1,4E0,1.1E1,2.4E1,5.5E1,4E0,1.1E1,9E0,1E1],"tree_param":{"num_deleted":"0","num_feature":"12","num_nodes":"15","size_leaf_vector":"1"}},{"base_weights":[2.5483327E-5,-8.8416265E-5,2.8678766E-3,1.9814595E-4,-1.517017E-3,3.824079E-4,9.557153E-5,-2.8235352E-5,3.6203233E-4,-9.334257E-4,-6.594422E-5],"categories":[],"categories_nodes":[],"categories_segments":[],"categories_sizes":[],"default_left":[0,0,0,0,0,0,0,0,0,0,0],"id":76,"left_children":[1,3,5,7,9,-1,-1,-1,-1,-1,-1],"loss_changes":[4.201698E-5,5.147347E-5,5.487338E-6,1.7367944E-4,1.3462582E-4,0E0,0E0,0E0,0E0,0E0,0E0],"parents":[2147483647,0,0,1,1,2,2,3,3,4,4],"right_children":[2,4,6,8,10,-1,-1,-1,-1,-1,-1],"split_conditions":[1.0632976E0,7.43593E-1,3.078218E0,5.267695E-1,7.50115E-1,3.824079E-4,9.557153E-5,-2.8235352E-5,3.6203233E-4,-9.334257E-4,-6.594422E-5],"split_indices":[4,4,2,4,4,0,0,0,0,0,0],"split_type":[0,0,0,0,0,0,0,0,0,0,0],"sum_hessian":[1.28E2,1.24E2,4E0,1.04E2,2E1,2E0,2E0,9.2E1,1.2E1,1E0,1.9E1],"tree_param":{"num_deleted":"0","num_feature":"12","num_nodes":"11","size_leaf_vector":"1"}},{"base_weights":[2.1480728E-5,1.4638733E-3,-1.9570648E-4,5.427995E-4,8.76866E-4,-7.72339E-4,5.204416E-4,-3.8349488E-5,3.0413835E-4,2.1224305E-4,-1.4255101E-4,6.216492E-4,-9.65944E-6],"categories":[],"categories_nodes":[],"categories_segments":[],"categories_sizes":[],"default_left":[0,0,0,0,0,0,0,0,0,0,0,0,0],"id":77,"left_children":[1,3,5,-1,7,9,11,-1,-1,-1,-1,-1,-1],"loss_changes":[4.0698214E-5,3.479883E-5,4.706579E-5,0E0,4.481552E-5,1.2214466E-4,1.7984858E-4,0E0,0E0,0E0,0E0,0E0,0E0],"parents":[2147483647,0,0,1,1,2,2,4,4,5,5,6,6],"right_children":[2,4,6,-1,8,10,12,-1,-1,-1,-1,-1,-1],"split_conditions":[1.4136384E-1,-1.5322479E0,-4.9682873E-1,5.427995E-4,1.7122175E-1,-2.1649854E0,-4.703868E-1,-3.8349488E-5,3.0413835E-4,2.1224305E-4,-1.4255101E-4,6.216492E-4,-9.65944E-6],"split_indices":[2,1,0,0,4,3,0,0,0,0,0,0,0],"split_type":[0,0,0,0,0,0,0,0,0,0,0,0,0],"sum_hessian":[1.28E2,1.6E1,1.12E2,1E0,1.5E1,6.2E1,5E1,1E1,5E0,1.1E1,5.1E1,4E0,4.6E1],"tree_param":{"num_deleted":"0","num_feature":"12","num_nodes":"13","size_leaf_vector":"1"}},{"base_weights":[3.0885138E-5,-2.2172192E-3,1.5857494E-4,-4.107744E-4,-6.394605E-4,1.4777093E-3,-2.1024156E-4,4.4280267E-5,-1.020727E-4,3.757214E-5,7.720209E-4,-2.2186823E-4,3.4024542E-5],"categories":[],"categories_nodes":[],"categories_segments":[],"categories_sizes":[],"default_left":[0,0,0,0,0,0,0,0,0,0,0,0,0],"id":78,"left_children":[1,3,5,-1,7,9,11,-1,-1,-1,-1,-1,-1],"loss_changes":[3.738234E-5,1.8252802E-5,6.015245E-5,0E0,2.5151337E-6,1.8283664E-4,1.0800007E-4,0E0,0E0,0E0,0E0,0E0,0E0],"parents":[2147483647,0,0,1,1,2,2,4,4,5,5,6,6],"right_children":[2,4,6,-1,8,10,12,-1,-1,-1,-1,-1,-1],"split_conditions":[-1.4616224E0,-4.5203558E-1,-8.332139E-1,-4.107744E-4,6.820307E-1,4.0460157E-1,-1.6578839E0,4.4280267E-5,-1.020727E-4,3.757214E-5,7.720209E-4,-2.2186823E-4,3.4024542E-5],"split_indices":[7,0,7,0,2,4,3,0,0,0,0,0,0],"split_type":[0,0,0,0,0,0,0,0,0,0,0,0,0],"sum_hessian":[1.28E2,6E0,1.22E2,2E0,4E0,2.6E1,9.6E1,1E0,3E0,2.3E1,3E0,2E1,7.6E1],"tree_param":{"num_deleted":"0","num_feature":"12","num_nodes":"13","size_leaf_vector":"1"}},{"base_weights":[2.898408E-5,1.5305763E-3,-1.671278E-4,4.1977977E-3,1.790596E-4,-1.5704185E-3,2.4012427E-4,5.0369155E-4,4.206625E-5,-1.8683313E-4,3.0095948E-4,2.6434513E-5,-3.4255165E-4,1.8228217E-4,-2.6798398E-5],"categories":[],"categories_nodes":[],"categories_segments":[],"categories_sizes":[],"default_left":[0,0,0,0,0,0,0,0,0,0,0,0,0,0,0],"id":79,"left_children":[1,3,5,7,9,11,13,-1,-1,-1,-1,-1,-1,-1,-1],"loss_changes":[3.8243732E-5,5.332026E-5,6.60988E-5,1.3728473E-5,6.9370246E-5,8.940084E-5,7.286482E-5,0E0,0E0,0E0,0E0,0E0,0E0,0E0,0E0],"parents":[2147483647,0,0,1,1,2,2,3,3,4,4,5,5,6,6],"right_children":[2,4,6,8,10,12,14,-1,-1,-1,-1,-1,-1,-1,-1],"split_conditions":[-9.17221E-1,-8.6619157E-1,-1.0914135E0,-4.0836537E-1,-8.465203E-1,-1.3586371E0,-8.332139E-1,5.0369155E-4,4.206625E-5,-1.8683313E-4,3.0095948E-4,2.6434513E-5,-3.4255165E-4,1.8228217E-4,-2.6798398E-5],"split_indices":[4,5,5,0,1,5,7,0,0,0,0,0,0,0,0],"split_type":[0,0,0,0,0,0,0,0,0,0,0,0,0,0,0],"sum_hessian":[1.28E2,1.4E1,1.14E2,4E0,1E1,2.5E1,8.9E1,3E0,1E0,6E0,4E0,1.3E1,1.2E1,2.1E1,6.8E1],"tree_param":{"num_deleted":"0","num_feature":"12","num_nodes":"15","size_leaf_vector":"1"}},{"base_weights":[2.9955814E-5,-7.714005E-5,2.7013612E-3,-4.4982502E-4,8.940449E-4,3.6150598E-4,8.8720895E-5,-1.8243503E-5,-3.632443E-4,4.895287E-4,5.032033E-5],"categories":[],"categories_nodes":[],"categories_segments":[],"categories_sizes":[],"default_left":[0,0,0,0,0,0,0,0,0,0,0],"id":80,"left_children":[1,3,5,7,9,-1,-1,-1,-1,-1,-1],"loss_changes":[3.711483E-5,4.5645415E-5,5.0806266E-6,7.677832E-5,5.2271487E-5,0E0,0E0,0E0,0E0,0E0,0E0],"parents":[2147483647,0,0,1,1,2,2,3,3,4,4],"right_children":[2,4,6,8,10,-1,-1,-1,-1,-1,-1],"split_conditions":[1.0632976E0,8.651037E-1,3.078218E0,7.652623E-1,-7.7292097E-1,3.6150598E-4,8.8720895E-5,-1.8243503E-5,-3.632443E-4,4.895287E-4,5.032033E-5],"split_indices":[4,7,2,7,4,0,0,0,0,0,0],"split_type":[0,0,0,0,0,0,0,0,0,0,0],"sum_hessian":[1.28E2,1.24E2,4E0,9E1,3.4E1,2E0,2E0,8.4E1,6E0,2E0,3.2E1],"tree_param":{"num_deleted":"0","num_feature":"12","num_nodes":"11","size_leaf_vector":"1"}},{"base_weights":[3.167793E-5,-2.6380518E-3,1.382137E-4,-4.6714285E-4,2.7467544E-5,2.0742454E-4,-4.2219655E-4,-2.1080334E-4,3.430244E-5],"categories":[],"categories_nodes":[],"categories_segments":[],"categories_sizes":[],"default_left":[0,0,0,0,0,0,0,0,0],"id":81,"left_children":[1,3,5,-1,-1,7,-1,-1,-1],"loss_changes":[3.7055015E-5,3.0896485E-5,3.85972E-5,0E0,0E0,3.9656097E-5,0E0,0E0,0E0],"parents":[2147483647,0,0,1,1,2,2,5,5],"right_children":[2,4,6,-1,-1,8,-1,-1,-1],"split_conditions":[-1.5639108E0,-5.655172E-1,1.6462884E0,-4.6714285E-4,2.7467544E-5,-1.4616224E0,-4.2219655E-4,-2.1080334E-4,3.430244E-5],"split_indices":[5,0,5,0,0,7,0,0,0],"split_type":[0,0,0,0,0,0,0,0,0],"sum_hessian":[1.28E2,4E0,1.24E2,2E0,2E0,1.23E2,1E0,6E0,1.17E2],"tree_param":{"num_deleted":"0","num_feature":"12","num_nodes":"9","size_leaf_vector":"1"}},{"base_weights":[2.0460704E-5,1.3580996E-3,-1.8095807E-4,3.5367613E-3,4.1568358E-4,1.0269281E-3,-4.8425945E-4,4.3281578E-4,1.8558809E-5,-1.4892411E-4,2.2612249E-4,-1.6308881E-4,1.8558154E-4,-9.8525525E-5,1.0397829E-4],"categories":[],"categories_nodes":[],"categories_segments":[],"categories_sizes":[],"default_left":[0,0,0,0,0,0,0,0,0,0,0,0,0,0,0],"id":82,"left_children":[1,3,5,7,9,11,13,-1,-1,-1,-1,-1,-1,-1,-1],"loss_changes":[3.5001663E-5,3.343432E-5,4.1895244E-5,1.2457276E-5,4.9070535E-5,5.3696313E-5,7.050649E-5,0E0,0E0,0E0,0E0,0E0,0E0,0E0,0E0],"parents":[2147483647,0,0,1,1,2,2,3,3,4,4,5,5,6,6],"right_children":[2,4,6,8,10,12,14,-1,-1,-1,-1,-1,-1,-1,-1],"split_conditions":[1.4136384E-1,-1.0725591E0,-6.8698967E-1,-6.861678E-1,-1.3810249E-1,-1.6578839E0,-3.9344168E-1,4.3281578E-4,1.8558809E-5,-1.4892411E-4,2.2612249E-4,-1.6308881E-4,1.8558154E-4,-9.8525525E-5,1.0397829E-4],"split_indices":[2,5,4,0,5,3,0,0,0,0,0,0,0,0,0],"split_type":[0,0,0,0,0,0,0,0,0,0,0,0,0,0,0],"sum_hessian":[1.28E2,1.6E1,1.12E2,4E0,1.2E1,2.2E1,9E1,3E0,1E0,6E0,6E0,5E0,1.7E1,6.8E1,2.2E1],"tree_param":{"num_deleted":"0","num_feature":"12","num_nodes":"15","size_leaf_vector":"1"}},{"base_weights":[2.2728676E-5,4.0923664E-4,-4.1036983E-5,-1.444635E-4,2.5321483E-3,-5.123189E-5,8.0557795E-5,3.3493698E-4,8.7087705E-5],"categories":[],"categories_nodes":[],"categories_segments":[],"categories_sizes":[],"default_left":[0,0,0,0,0,0,0,0,0],"id":83,"left_children":[1,-1,3,5,7,-1,-1,-1,-1],"loss_changes":[3.3643842E-5,0E0,3.4431156E-5,4.3747972E-5,3.871246E-6,0E0,0E0,0E0,0E0],"parents":[2147483647,0,0,2,2,3,3,4,4],"right_children":[2,-1,4,6,8,-1,-1,-1,-1],"split_conditions":[-2.9995048E0,4.0923664E-4,1.0632976E0,8.651037E-1,3.078218E0,-5.123189E-5,8.0557795E-5,3.3493698E-4,8.7087705E-5],"split_indices":[3,0,4,7,2,0,0,0,0],"split_type":[0,0,0,0,0,0,0,0,0],"sum_hessian":[1.28E2,1E0,1.27E2,1.23E2,4E0,8.9E1,3.4E1,2E0,2E0],"tree_param":{"num_deleted":"0","num_feature":"12","num_nodes":"9","size_leaf_vector":"1"}},{"base_weights":[2.712703E-5,-2.4660558E-3,1.2663733E-4,-4.2601614E-4,1.5006851E-5,4.0481196E-4,-8.980266E-4,2.4574952E-5,7.9964654E-4,4.268148E-4,-1.2608852E-4],"categories":[],"categories_nodes":[],"categories_segments":[],"categories_sizes":[],"default_left":[0,0,0,0,0,0,0,0,0,0,0],"id":84,"left_children":[1,3,5,-1,-1,7,9,-1,-1,-1,-1],"loss_changes":[3.231685E-5,2.4107332E-5,3.599297E-5,0E0,0E0,1.17582E-4,5.5995588E-5,0E0,0E0,0E0,0E0],"parents":[2147483647,0,0,1,1,2,2,5,5,6,6],"right_children":[2,4,6,-1,-1,8,10,-1,-1,-1,-1],"split_conditions":[-1.5639108E0,-5.655172E-1,9.522706E-1,-4.2601614E-4,1.5006851E-5,9.443952E-1,-1.3704933E0,2.4574952E-5,7.9964654E-4,4.268148E-4,-1.2608852E-4],"split_indices":[5,0,5,0,0,5,6,0,0,0,0],"split_type":[0,0,0,0,0,0,0,0,0,0,0],"sum_hessian":[1.28E2,4E0,1.24E2,2E0,2E0,9.8E1,2.6E1,9.7E1,1E0,1E0,2.5E1],"tree_param":{"num_deleted":"0","num_feature":"12","num_nodes":"11","size_leaf_vector":"1"}},{"base_weights":[2.9948706E-5,-8.75392E-5,2.0901007E-3,2.056014E-4,-2.2118583E-3,3.3952221E-3,-7.8180205E-4,-5.8587448E-6,2.5646103E-4,-7.707431E-4,-1.9567928E-5,1.3958346E-4,4.262869E-4,-1.5451429E-4,3.7243975E-5],"categories":[],"categories_nodes":[],"categories_segments":[],"categories_sizes":[],"default_left":[0,0,0,0,0,0,0,0,0,0,0,0,0,0,0],"id":85,"left_children":[1,3,5,7,9,11,13,-1,-1,-1,-1,-1,-1,-1,-1],"loss_changes":[3.1406507E-5,7.704983E-5,2.889166E-5,6.808165E-5,1.6469271E-4,2.7235583E-6,3.2187118E-6,0E0,0E0,0E0,0E0,0E0,0E0,0E0,0E0],"parents":[2147483647,0,0,1,1,2,2,3,3,4,4,5,5,6,6],"right_children":[2,4,6,8,10,12,14,-1,-1,-1,-1,-1,-1,-1,-1],"split_conditions":[4.546116E0,4.0842605E0,1.9435402E-2,3.6513152E0,4.1608305E0,-2.4536812E0,-6.600468E-1,-5.8587448E-6,2.5646103E-4,-7.707431E-4,-1.9567928E-5,1.3958346E-4,4.262869E-4,-1.5451429E-4,3.7243975E-5],"split_indices":[2,2,7,2,2,3,0,0,0,0,0,0,0,0,0],"split_type":[0,0,0,0,0,0,0,0,0,0,0,0,0,0,0],"sum_hessian":[1.28E2,1.22E2,6E0,1.08E2,1.4E1,4E0,2E0,9.8E1,1E1,3E0,1.1E1,2E0,2E0,1E0,1E0],"tree_param":{"num_deleted":"0","num_feature":"12","num_nodes":"15","size_leaf_vector":"1"}},{"base_weights":[2.6247588E-5,8.6921624E-5,-3.8700146E-4,8.8144094E-4,-2.3355811E-4,2.237738E-4,-2.130656E-4,-8.515192E-5,1.6573479E-4],"categories":[],"categories_nodes":[],"categories_segments":[],"categories_sizes":[],"default_left":[0,0,0,0,0,0,0,0,0],"id":86,"left_children":[1,3,-1,5,7,-1,-1,-1,-1],"loss_changes":[3.083224E-5,3.2798165E-5,0E0,1.5592386E-4,1.0891385E-4,0E0,0E0,0E0,0E0],"parents":[2147483647,0,0,1,1,3,3,4,4],"right_children":[2,4,-1,6,8,-1,-1,-1,-1],"split_conditions":[1.6462884E0,-7.243606E-1,-3.8700146E-4,-8.668606E-1,-7.5016755E-1,2.237738E-4,-2.130656E-4,-8.515192E-5,1.6573479E-4],"split_indices":[5,7,0,1,1,0,0,0,0],"split_type":[0,0,0,0,0,0,0,0,0],"sum_hessian":[1.28E2,1.27E2,1E0,3.6E1,9.1E1,2.5E1,1.1E1,6.9E1,2.2E1],"tree_param":{"num_deleted":"0","num_feature":"12","num_nodes":"9","size_leaf_vector":"1"}},{"base_weights":[2.1330477E-5,1.2907226E-3,-1.698288E-4,2.1347317E-3,-6.1241596E-4,-2.1597708E-3,2.3550795E-6,-5.2843418E-5,3.532369E-4,1.0387274E-6,-1.863216E-4,-4.0814443E-4,-1.0276576E-4,-2.0680125E-5,3.4879014E-4],"categories":[],"categories_nodes":[],"categories_segments":[],"categories_sizes":[],"default_left":[0,0,0,0,0,0,0,0,0,0,0,0,0,0,0],"id":87,"left_children":[1,3,5,7,9,11,13,-1,-1,-1,-1,-1,-1,-1,-1],"loss_changes":[3.1521835E-5,2.8613873E-5,3.8722945E-5,4.65323E-5,4.6933674E-6,1.5385638E-5,7.726883E-5,0E0,0E0,0E0,0E0,0E0,0E0,0E0,0E0],"parents":[2147483647,0,0,1,1,2,2,3,3,4,4,5,5,6,6],"right_children":[2,4,6,8,10,12,14,-1,-1,-1,-1,-1,-1,-1,-1],"split_conditions":[1.4136384E-1,4.9328893E-2,4.7127935E-1,-9.5554906E-1,-4.7511977E-1,-1.3494332E0,-4.9499258E-1,-5.2843418E-5,3.532369E-4,1.0387274E-6,-1.863216E-4,-4.0814443E-4,-1.0276576E-4,-2.0680125E-5,3.4879014E-4],"split_indices":[2,6,2,6,0,6,1,0,0,0,0,0,0,0,0],"split_type":[0,0,0,0,0,0,0,0,0,0,0,0,0,0,0],"sum_hessian":[1.28E2,1.6E1,1.12E2,1.1E1,5E0,8E0,1.04E2,4E0,7E0,4E0,1E0,2E0,6E0,9.9E1,5E0],"tree_param":{"num_deleted":"0","num_feature":"12","num_nodes":"15","size_leaf_vector":"1"}},{"base_weights":[1.867272E-5,3.7768428E-4,-4.019457E-5,-3.314904E-4,7.432912E-4,-1.899984E-4,-9.624731E-7,2.0381436E-4,-3.297553E-5],"categories":[],"categories_nodes":[],"categories_segments":[],"categories_sizes":[],"default_left":[0,0,0,0,0,0,0,0,0],"id":88,"left_children":[1,-1,3,5,7,-1,-1,-1,-1],"loss_changes":[2.8690902E-5,0E0,2.9459337E-5,4.7437068E-5,4.9302376E-5,0E0,0E0,0E0,0E0],"parents":[2147483647,0,0,2,2,3,3,4,4],"right_children":[2,-1,4,6,8,-1,-1,-1,-1],"split_conditions":[-2.9995048E0,3.7768428E-4,8.651037E-1,-1.0239395E0,-3.1845343E-1,-1.899984E-4,-9.624731E-7,2.0381436E-4,-3.297553E-5],"split_indices":[3,0,7,6,3,0,0,0,0],"split_type":[0,0,0,0,0,0,0,0,0],"sum_hessian":[1.28E2,1E0,1.27E2,9.3E1,3.4E1,1.5E1,7.8E1,1.5E1,1.9E1],"tree_param":{"num_deleted":"0","num_feature":"12","num_nodes":"9","size_leaf_vector":"1"}},{"base_weights":[1.9577274E-5,1.3043897E-3,-1.4817719E-4,3.7030308E-3,9.551744E-5,-4.7582973E-4,1.0504052E-3,4.4605113E-4,3.3655433E-5,-1.6801638E-4,2.562368E-4,2.25342E-4,-9.189236E-5,-3.2140844E-5,4.005685E-4],"categories":[],"categories_nodes":[],"categories_segments":[],"categories_sizes":[],"default_left":[0,0,0,0,0,0,0,0,0,0,0,0,0,0,0],"id":89,"left_children":[1,3,5,7,9,11,13,-1,-1,-1,-1,-1,-1,-1,-1],"loss_changes":[2.799704E-5,4.3141048E-5,4.566245E-5,1.1248994E-5,5.2488933E-5,1.12118265E-4,1.0263978E-4,0E0,0E0,0E0,0E0,0E0,0E0,0E0,0E0],"parents":[2147483647,0,0,1,1,2,2,3,3,4,4,5,5,6,6],"right_children":[2,4,6,8,10,12,14,-1,-1,-1,-1,-1,-1,-1,-1],"split_conditions":[-9.17221E-1,-8.6619157E-1,-3.5984007E-1,-4.0836537E-1,-8.465203E-1,-2.3984141E0,4.2817986E-1,4.4605113E-4,3.3655433E-5,-1.6801638E-4,2.562368E-4,2.25342E-4,-9.189236E-5,-3.2140844E-5,4.005685E-4],"split_indices":[4,5,0,0,1,3,4,0,0,0,0,0,0,0,0],"split_type":[0,0,0,0,0,0,0,0,0,0,0,0,0,0,0],"sum_hessian":[1.28E2,1.4E1,1.14E2,4E0,1E1,9E1,2.4E1,3E0,1E0,6E0,4E0,1.2E1,7.8E1,1.7E1,7E0],"tree_param":{"num_deleted":"0","num_feature":"12","num_nodes":"15","size_leaf_vector":"1"}},{"base_weights":[2.5912519E-5,-1.9005804E-3,1.3533965E-4,-3.396282E-4,-6.230434E-4,1.2588185E-3,-1.7877654E-4,3.197266E-5,-9.386675E-5,2.9007422E-5,6.75658E-4,-1.9069218E-4,2.948576E-5],"categories":[],"categories_nodes":[],"categories_segments":[],"categories_sizes":[],"default_left":[0,0,0,0,0,0,0,0,0,0,0,0,0],"id":90,"left_children":[1,3,5,-1,7,9,11,-1,-1,-1,-1,-1,-1],"loss_changes":[2.7451792E-5,1.1259672E-5,4.363211E-5,0E0,1.7879217E-6,1.4184006E-4,7.99576E-5,0E0,0E0,0E0,0E0,0E0,0E0],"parents":[2147483647,0,0,1,1,2,2,4,4,5,5,6,6],"right_children":[2,4,6,-1,8,10,12,-1,-1,-1,-1,-1,-1],"split_conditions":[-1.4616224E0,-4.5203558E-1,-8.332139E-1,-3.396282E-4,6.820307E-1,4.0460157E-1,-1.6578839E0,3.197266E-5,-9.386675E-5,2.9007422E-5,6.75658E-4,-1.9069218E-4,2.948576E-5],"split_indices":[7,0,7,0,2,4,3,0,0,0,0,0,0],"split_type":[0,0,0,0,0,0,0,0,0,0,0,0,0],"sum_hessian":[1.28E2,6E0,1.22E2,2E0,4E0,2.6E1,9.6E1,1E0,3E0,2.3E1,3E0,2E1,7.6E1],"tree_param":{"num_deleted":"0","num_feature":"12","num_nodes":"13","size_leaf_vector":"1"}},{"base_weights":[2.4421603E-5,1.2209757E-3,-1.5580708E-4,3.263373E-3,3.4151704E-4,-2.0136968E-3,4.9244973E-6,3.9460624E-4,2.6630762E-5,-1.2148837E-4,1.8491296E-4,-3.5874432E-4,-1.0515632E-4,3.1840472E-4,-2.199117E-5],"categories":[],"categories_nodes":[],"categories_segments":[],"categories_sizes":[],"default_left":[0,0,0,0,0,0,0,0,0,0,0,0,0,0,0],"id":91,"left_children":[1,3,5,7,9,11,13,-1,-1,-1,-1,-1,-1,-1,-1],"loss_changes":[2.800952E-5,2.9420966E-5,3.3754153E-5,9.179457E-6,3.275032E-5,9.854964E-6,7.57523E-5,0E0,0E0,0E0,0E0,0E0,0E0,0E0,0E0],"parents":[2147483647,0,0,1,1,2,2,3,3,4,4,5,5,6,6],"right_children":[2,4,6,8,10,12,14,-1,-1,-1,-1,-1,-1,-1,-1],"split_conditions":[1.4136384E-1,-1.0725591E0,4.7127935E-1,-6.861678E-1,-1.3810249E-1,-1.3494332E0,-1.2878412E0,3.9460624E-4,2.6630762E-5,-1.2148837E-4,1.8491296E-4,-3.5874432E-4,-1.0515632E-4,3.1840472E-4,-2.199117E-5],"split_indices":[2,5,2,0,5,6,6,0,0,0,0,0,0,0,0],"split_type":[0,0,0,0,0,0,0,0,0,0,0,0,0,0,0],"sum_hessian":[1.28E2,1.6E1,1.12E2,4E0,1.2E1,8E0,1.04E2,3E0,1E0,6E0,6E0,2E0,6E0,6E0,9.8E1],"tree_param":{"num_deleted":"0","num_feature":"12","num_nodes":"15","size_leaf_vector":"1"}},{"base_weights":[2.4438144E-5,8.124242E-5,-3.6232546E-4,-2.1203607E-3,1.6936156E-4,-3.5897575E-4,5.582297E-6,1.0321946E-4,-1.0489477E-5],"categories":[],"categories_nodes":[],"categories_segments":[],"categories_sizes":[],"default_left":[0,0,0,0,0,0,0,0,0],"id":92,"left_children":[1,3,-1,5,7,-1,-1,-1,-1],"loss_changes":[2.7023749E-5,2.5191539E-5,0E0,1.6188775E-5,2.945131E-5,0E0,0E0,0E0,0E0],"parents":[2147483647,0,0,1,1,3,3,4,4],"right_children":[2,4,-1,6,8,-1,-1,-1,-1],"split_conditions":[1.6462884E0,-1.5639108E0,-3.6232546E-4,-5.655172E-1,-8.332139E-1,-3.5897575E-4,5.582297E-6,1.0321946E-4,-1.0489477E-5],"split_indices":[5,5,0,0,7,0,0,0,0],"split_type":[0,0,0,0,0,0,0,0,0],"sum_hessian":[1.28E2,1.27E2,1E0,4E0,1.23E2,2E0,2E0,2.9E1,9.4E1],"tree_param":{"num_deleted":"0","num_feature":"12","num_nodes":"9","size_leaf_vector":"1"}},{"base_weights":[1.7164879E-5,-6.352432E-5,2.5545834E-3,1.8735965E-4,-1.2580376E-3,3.6252663E-5,3.1644266E-4,-2.0421825E-5,2.9742354E-4,-8.6134777E-4,-4.97613E-5],"categories":[],"categories_nodes":[],"categories_segments":[],"categories_sizes":[],"default_left":[0,0,0,0,0,0,0,0,0,0,0],"id":93,"left_children":[1,3,5,7,9,-1,-1,-1,-1,-1,-1],"loss_changes":[2.657403E-5,3.799592E-5,4.2000574E-6,1.1519167E-4,1.187655E-4,0E0,0E0,0E0,0E0,0E0,0E0],"parents":[2147483647,0,0,1,1,2,2,3,3,4,4],"right_children":[2,4,6,8,10,-1,-1,-1,-1,-1,-1],"split_conditions":[1.0874864E0,7.43593E-1,-1.5525945E0,5.267695E-1,7.50115E-1,3.6252663E-5,3.1644266E-4,-2.0421825E-5,2.9742354E-4,-8.6134777E-4,-4.97613E-5],"split_indices":[4,4,1,4,4,0,0,0,0,0,0],"split_type":[0,0,0,0,0,0,0,0,0,0,0],"sum_hessian":[1.28E2,1.25E2,3E0,1.04E2,2.1E1,1E0,2E0,9.2E1,1.2E1,1E0,2E1],"tree_param":{"num_deleted":"0","num_feature":"12","num_nodes":"11","size_leaf_vector":"1"}},{"base_weights":[1.3267E-5,-1.847004E-3,1.1902823E-4,-3.2831848E-4,-6.158949E-4,1.0127426E-3,-1.9312273E-4,2.7333701E-5,-9.065372E-5,1.9370137E-4,-2.0021973E-4,-7.281285E-5,1.4435523E-4],"categories":[],"categories_nodes":[],"categories_segments":[],"categories_sizes":[],"default_left":[0,0,0,0,0,0,0,0,0,0,0,0,0],"id":94,"left_children":[1,3,5,-1,7,9,11,-1,-1,-1,-1,-1,-1],"loss_changes":[2.5599893E-5,1.0354564E-5,3.450936E-5,0E0,1.5400321E-6,9.305017E-5,8.1609105E-5,0E0,0E0,0E0,0E0,0E0,0E0],"parents":[2147483647,0,0,1,1,2,2,4,4,5,5,6,6],"right_children":[2,4,6,-1,8,10,12,-1,-1,-1,-1,-1,-1],"split_conditions":[-1.4616224E0,-4.5203558E-1,-7.243606E-1,-3.2831848E-4,6.820307E-1,-7.121163E-1,-7.5016755E-1,2.7333701E-5,-9.065372E-5,1.9370137E-4,-2.0021973E-4,-7.281285E-5,1.4435523E-4],"split_indices":[7,0,7,0,2,1,1,0,0,0,0,0,0],"split_type":[0,0,0,0,0,0,0,0,0,0,0,0,0],"sum_hessian":[1.28E2,6E0,1.22E2,2E0,4E0,3.1E1,9.1E1,1E0,3E0,2.4E1,7E0,6.9E1,2.2E1],"tree_param":{"num_deleted":"0","num_feature":"12","num_nodes":"13","size_leaf_vector":"1"}},{"base_weights":[9.4083625E-6,2.3921103E-4,-8.6759473E-4,1.08971384E-4,6.7618274E-4,3.780474E-4,-1.1917695E-3,-1.3224369E-4,5.4245018E-5,-1.6375387E-4,1.0079688E-4],"categories":[],"categories_nodes":[],"categories_segments":[],"categories_sizes":[],"default_left":[0,0,0,0,0,0,0,0,0,0,0],"id":95,"left_children":[1,3,5,7,-1,-1,9,-1,-1,-1,-1],"loss_changes":[2.6205895E-5,8.676199E-5,4.518868E-5,6.400683E-5,0E0,0E0,2.7145554E-5,0E0,0E0,0E0,0E0],"parents":[2147483647,0,0,1,1,2,2,3,3,6,6],"right_children":[2,4,6,8,-1,-1,10,-1,-1,-1,-1],"split_conditions":[9.522706E-1,9.443952E-1,-1.3704933E0,-1.6578839E0,6.7618274E-4,3.780474E-4,-7.001779E-1,-1.3224369E-4,5.4245018E-5,-1.6375387E-4,1.0079688E-4],"split_indices":[5,5,6,3,0,0,1,0,0,0,0],"split_type":[0,0,0,0,0,0,0,0,0,0,0],"sum_hessian":[1.28E2,1.02E2,2.6E1,1.01E2,1E0,1E0,2.5E1,2.3E1,7.8E1,2.1E1,4E0],"tree_param":{"num_deleted":"0","num_feature":"12","num_nodes":"11","size_leaf_vector":"1"}},{"base_weights":[1.5547224E-5,-9.0406895E-5,1.8750915E-3,1.580281E-4,-1.889674E-3,2.9583368E-3,-5.553478E-4,5.144563E-5,-1.1257575E-4,-6.579893E-4,-1.68795E-5,1.2198989E-4,3.7106624E-4,-1.1442169E-4,3.1119514E-5],"categories":[],"categories_nodes":[],"categories_segments":[],"categories_sizes":[],"default_left":[0,0,0,0,0,0,0,0,0,0,0,0,0,0,0],"id":96,"left_children":[1,3,5,7,9,11,13,-1,-1,-1,-1,-1,-1,-1,-1],"loss_changes":[2.5585923E-5,5.5279736E-5,2.0072237E-5,5.0455084E-5,1.1995883E-4,2.012719E-6,1.8869157E-6,0E0,0E0,0E0,0E0,0E0,0E0,0E0,0E0],"parents":[2147483647,0,0,1,1,2,2,3,3,4,4,5,5,6,6],"right_children":[2,4,6,8,10,12,14,-1,-1,-1,-1,-1,-1,-1,-1],"split_conditions":[4.546116E0,4.0842605E0,1.9435402E-2,9.522706E-1,4.1608305E0,-2.4536812E0,-6.600468E-1,5.144563E-5,-1.1257575E-4,-6.579893E-4,-1.68795E-5,1.2198989E-4,3.7106624E-4,-1.1442169E-4,3.1119514E-5],"split_indices":[2,2,7,5,2,3,0,0,0,0,0,0,0,0,0],"split_type":[0,0,0,0,0,0,0,0,0,0,0,0,0,0,0],"sum_hessian":[1.28E2,1.22E2,6E0,1.08E2,1.4E1,4E0,2E0,8.5E1,2.3E1,3E0,1.1E1,2E0,2E0,1E0,1E0],"tree_param":{"num_deleted":"0","num_feature":"12","num_nodes":"15","size_leaf_vector":"1"}},{"base_weights":[1.1463383E-5,-1.5941066E-4,1.0740428E-3,-1.3117554E-5,-3.2874597E-3,3.4276592E-3,-1.6604246E-3,-1.7077995E-5,5.561993E-4,-1.3313696E-4,-5.55591E-4,4.5096487E-4,-6.0019964E-5,-5.774139E-4,3.3979937E-5],"categories":[],"categories_nodes":[],"categories_segments":[],"categories_sizes":[],"default_left":[0,0,0,0,0,0,0,0,0,0,0,0,0,0,0],"id":97,"left_children":[1,3,5,7,9,11,13,-1,-1,-1,-1,-1,-1,-1,-1],"loss_changes":[2.3593388E-5,5.120942E-5,1.2153734E-4,9.588028E-5,