{"learner":{"attributes":{"scikit_learn":"{\"_estimator_type\": \"regressor\"}"},"feature_names":[],"feature_types":[],"gradient_booster":{"model":{"gbtree_model_param":{"num_parallel_tree":"1","num_trees":"100"},"iteration_indptr":[0,1,2,3,4,5,6,7,8,9,10,11,12,13,14,15,16,17,18,19,20,21,22,23,24,25,26,27,28,29,30,31,32,33,34,35,36,37,38,39,40,41,42,43,44,45,46,47,48,49,50,51,52,53,54,55,56,57,58,59,60,61,62,63,64,65,66,67,68,69,70,71,72,73,74,75,76,77,78,79,80,81,82,83,84,85,86,87,88,89,90,91,92,93,94,95,96,97,98,99,100],"tree_info":[0,0,0,0,0,0,0,0,0,0,0,0,0,0,0,0,0,0,0,0,0,0,0,0,0,0,0,0,0,0,0,0,0,0,0,0,0,0,0,0,0,0,0,0,0,0,0,0,0,0,0,0,0,0,0,0,0,0,0,0,0,0,0,0,0,0,0,0,0,0,0,0,0,0,0,0,0,0,0,0,0,0,0,0,0,0,0,0,0,0,0,0,0,0,0,0,0,0,0,0],"trees":[{"base_weights":[-1.0973723E-9,-2.7850911E-2,1.8512663E-1,-3.2722197E-2,3.2075293E-2,9.124387E-2,2.5843978E-1,-1.0402339E-3,-5.2066315E-3,-1.2365107E-3,9.071707E-3,-1.1118712E-3,1.0542903E-2,2.841728E-2,2.6287835E-3],"categories":[],"categories_nodes":[],"categories_segments":[],"categories_sizes":[],"default_left":[0,0,0,0,0,0,0,0,0,0,0,0,0,0,0],"id":0,"left_children":[1,3,5,7,9,11,13,-1,-1,-1,-1,-1,-1,-1,-1],"loss_changes":[6.702729E-1,3.4036264E-2,9.342724E-2,4.4792995E-2,2.4576303E-2,1.4240503E-2,4.6295464E-2,0E0,0E0,0E0,0E0,0E0,0E0,0E0,0E0],"parents":[2147483647,0,0,1,1,2,2,3,3,4,4,5,5,6,6],"right_children":[2,4,6,8,10,12,14,-1,-1,-1,-1,-1,-1,-1,-1],"split_conditions":[7.9340065E-1,5.8219075E-1,2.5083575E0,-4.5407832E-1,-6.7588943E-1,1.4136384E-1,4.502506E0,-1.0402339E-3,-5.2066315E-3,-1.2365107E-3,9.071707E-3,-1.1118712E-3,1.0542903E-2,2.841728E-2,2.6287835E-3],"split_indices":[6,6,2,6,1,2,2,0,0,0,0,0,0,0,0],"split_type":[0,0,0,0,0,0,0,0,0,0,0,0,0,0,0],"sum_hessian":[1.28E2,1.12E2,1.6E1,1.04E2,8E0,8E0,8E0,4.9E1,5.5E1,5E0,3E0,1E0,7E0,7E0,1E0],"tree_param":{"num_deleted":"0","num_feature":"12","num_nodes":"15","size_leaf_vector":"1"}},{"base_weights":[3.2608764E-4,-2.5051765E-2,1.6899498E-1,-2.9509472E-2,2.9738342E-2,8.3167374E-2,2.3604538E-1,-9.382909E-4,-4.695266E-3,-1.133468E-3,8.391329E-3,-1.0562777E-3,9.620399E-3,2.903737E-2,9.554156E-3],"categories":[],"categories_nodes":[],"categories_segments":[],"categories_sizes":[],"default_left":[0,0,0,0,0,0,0,0,0,0,0,0,0,0,0],"id":1,"left_children":[1,3,5,7,9,11,13,-1,-1,-1,-1,-1,-1,-1,-1],"loss_changes":[5.564123E-1,2.8476484E-2,7.819986E-2,3.6421947E-2,2.097729E-2,1.2013499E-2,4.0957272E-2,0E0,0E0,0E0,0E0,0E0,0E0,0E0,0E0],"parents":[2147483647,0,0,1,1,2,2,3,3,4,4,5,5,6,6],"right_children":[2,4,6,8,10,12,14,-1,-1,-1,-1,-1,-1,-1,-1],"split_conditions":[7.9340065E-1,5.8219075E-1,2.5083575E0,-4.5407832E-1,-6.7588943E-1,1.4136384E-1,-5.759037E-1,-9.382909E-4,-4.695266E-3,-1.133468E-3,8.391329E-3,-1.0562777E-3,9.620399E-3,2.903737E-2,9.554156E-3],"split_indices":[6,6,2,6,1,2,0,0,0,0,0,0,0,0,0],"split_type":[0,0,0,0,0,0,0,0,0,0,0,0,0,0,0],"sum_hessian":[1.28E2,1.12E2,1.6E1,1.04E2,8E0,8E0,8E0,4.9E1,5.5E1,5E0,3E0,1E0,7E0,5E0,3E0],"tree_param":{"num_deleted":"0","num_feature":"12","num_nodes":"15","size_leaf_vector":"1"}},{"base_weights":[6.716176E-4,-2.2532213E-2,1.5486935E-1,-2.6612177E-2,2.7570937E-2,7.580221E-2,2.1672878E-1,-8.4633846E-4,-4.234124E-3,-1.0390123E-3,7.761979E-3,-1.0034638E-3,8.778614E-3,2.3877079E-2,2.0196366E-3],"categories":[],"categories_nodes":[],"categories_segments":[],"categories_sizes":[],"default_left":[0,0,0,0,0,0,0,0,0,0,0,0,0,0,0],"id":2,"left_children":[1,3,5,7,9,11,13,-1,-1,-1,-1,-1,-1,-1,-1],"loss_changes":[4.6504873E-1,2.3833062E-2,6.671929E-2,2.9615313E-2,1.7905649E-2,1.0138869E-2,3.4165412E-2,0E0,0E0,0E0,0E0,0E0,0E0,0E0,0E0],"parents":[2147483647,0,0,1,1,2,2,3,3,4,4,5,5,6,6],"right_children":[2,4,6,8,10,12,14,-1,-1,-1,-1,-1,-1,-1,-1],"split_conditions":[7.9340065E-1,5.8219075E-1,2.5083575E0,-4.5407832E-1,-6.7588943E-1,1.4136384E-1,4.502506E0,-8.4633846E-4,-4.234124E-3,-1.0390123E-3,7.761979E-3,-1.0034638E-3,8.778614E-3,2.3877079E-2,2.0196366E-3],"split_indices":[6,6,2,6,1,2,2,0,0,0,0,0,0,0,0],"split_type":[0,0,0,0,0,0,0,0,0,0,0,0,0,0,0],"sum_hessian":[1.28E2,1.12E2,1.6E1,1.04E2,8E0,8E0,8E0,4.9E1,5.5E1,5E0,3E0,1E0,7E0,7E0,1E0],"tree_param":{"num_deleted":"0","num_feature":"12","num_nodes":"15","size_leaf_vector":"1"}},{"base_weights":[8.782106E-4,-2.0264456E-2,1.413631E-1,-2.2420643E-2,6.6269234E-2,6.908589E-2,1.979333E-1,-2.6395523E-3,2.5560842E-3,9.015816E-3,9.2456874E-4,-9.532906E-4,8.010486E-3,2.462783E-2,7.5932494E-3],"categories":[],"categories_nodes":[],"categories_segments":[],"categories_sizes":[],"default_left":[0,0,0,0,0,0,0,0,0,0,0,0,0,0,0],"id":3,"left_children":[1,3,5,7,9,11,13,-1,-1,-1,-1,-1,-1,-1,-1],"loss_changes":[3.8602376E-1,2.2569645E-2,5.5834085E-2,2.1844681E-2,3.25312E-3,8.560315E-3,3.438261E-2,0E0,0E0,0E0,0E0,0E0,0E0,0E0,0E0],"parents":[2147483647,0,0,1,1,2,2,3,3,4,4,5,5,6,6],"right_children":[2,4,6,8,10,12,14,-1,-1,-1,-1,-1,-1,-1,-1],"split_conditions":[7.9340065E-1,4.7067204E0,2.5083575E0,5.8219075E-1,-8.0326754E-1,1.4136384E-1,-5.759037E-1,-2.6395523E-3,2.5560842E-3,9.015816E-3,9.2456874E-4,-9.532906E-4,8.010486E-3,2.462783E-2,7.5932494E-3],"split_indices":[6,2,2,6,0,2,0,0,0,0,0,0,0,0,0],"split_type":[0,0,0,0,0,0,0,0,0,0,0,0,0,0,0],"sum_hessian":[1.28E2,1.12E2,1.6E1,1.1E2,2E0,8E0,8E0,1.02E2,8E0,1E0,1E0,1E0,7E0,5E0,3E0],"tree_param":{"num_deleted":"0","num_feature":"12","num_nodes":"15","size_leaf_vector":"1"}},{"base_weights":[1.1712828E-3,-1.8150782E-2,1.2953728E-1,-2.017933E-2,6.295577E-2,6.296144E-2,1.817201E-1,-2.37816E-3,2.3288766E-3,8.565025E-3,8.783403E-4,-9.056261E-4,7.309568E-3,2.257551E-2,7.0237564E-3],"categories":[],"categories_nodes":[],"categories_segments":[],"categories_sizes":[],"default_left":[0,0,0,0,0,0,0,0,0,0,0,0,0,0,0],"id":4,"left_children":[1,3,5,7,9,11,13,-1,-1,-1,-1,-1,-1,-1,-1],"loss_changes":[3.2230943E-1,1.986213E-2,4.7618568E-2,1.7934639E-2,2.9359413E-3,7.23058E-3,2.8325707E-2,0E0,0E0,0E0,0E0,0E0,0E0,0E0,0E0],"parents":[2147483647,0,0,1,1,2,2,3,3,4,4,5,5,6,6],"right_children":[2,4,6,8,10,12,14,-1,-1,-1,-1,-1,-1,-1,-1],"split_conditions":[7.9340065E-1,4.7067204E0,2.5083575E0,5.8219075E-1,-8.0326754E-1,1.4136384E-1,-5.759037E-1,-2.37816E-3,2.3288766E-3,8.565025E-3,8.783403E-4,-9.056261E-4,7.309568E-3,2.257551E-2,7.0237564E-3],"split_indices":[6,2,2,6,0,2,0,0,0,0,0,0,0,0,0],"split_type":[0,0,0,0,0,0,0,0,0,0,0,0,0,0,0],"sum_hessian":[1.28E2,1.12E2,1.6E1,1.1E2,2E0,8E0,8E0,1.02E2,8E0,1E0,1E0,1E0,7E0,5E0,3E0],"tree_param":{"num_deleted":"0","num_feature":"12","num_nodes":"15","size_leaf_vector":"1"}},{"base_weights":[1.4060717E-3,-1.625257E-2,1.1870139E-1,-1.816184E-2,5.9807986E-2,5.737684E-2,1.668369E-1,-2.1426526E-3,2.1218653E-3,8.136774E-3,8.344233E-4,-8.603448E-4,6.6699805E-3,2.0694219E-2,6.4969743E-3],"categories":[],"categories_nodes":[],"categories_segments":[],"categories_sizes":[],"default_left":[0,0,0,0,0,0,0,0,0,0,0,0,0,0,0],"id":5,"left_children":[1,3,5,7,9,11,13,-1,-1,-1,-1,-1,-1,-1,-1],"loss_changes":[2.691238E-1,1.749611E-2,4.0609524E-2,1.4725346E-2,2.6496872E-3,6.1100367E-3,2.3323715E-2,0E0,0E0,0E0,0E0,0E0,0E0,0E0,0E0],"parents":[2147483647,0,0,1,1,2,2,3,3,4,4,5,5,6,6],"right_children":[2,4,6,8,10,12,14,-1,-1,-1,-1,-1,-1,-1,-1],"split_conditions":[7.9340065E-1,4.7067204E0,2.5083575E0,5.8219075E-1,-8.0326754E-1,1.4136384E-1,-5.759037E-1,-2.1426526E-3,2.1218653E-3,8.136774E-3,8.344233E-4,-8.603448E-4,6.6699805E-3,2.0694219E-2,6.4969743E-3],"split_indices":[6,2,2,6,0,2,0,0,0,0,0,0,0,0,0],"split_type":[0,0,0,0,0,0,0,0,0,0,0,0,0,0,0],"sum_hessian":[1.28E2,1.12E2,1.6E1,1.1E2,2E0,8E0,8E0,1.02E2,8E0,1E0,1E0,1E0,7E0,5E0,3E0],"tree_param":{"num_deleted":"0","num_feature":"12","num_nodes":"15","size_leaf_vector":"1"}},{"base_weights":[1.5906675E-3,-1.4548105E-2,1.0877247E-1,-1.6345844E-2,5.6817584E-2,5.228467E-2,1.5317445E-1,-1.9686692E-3,1.936538E-3,7.729936E-3,7.9270214E-4,-8.173276E-4,6.086357E-3,1.7016387E-2,8.629559E-4],"categories":[],"categories_nodes":[],"categories_segments":[],"categories_sizes":[],"default_left":[0,0,0,0,0,0,0,0,0,0,0,0,0,0,0],"id":6,"left_children":[1,3,5,7,9,11,13,-1,-1,-1,-1,-1,-1,-1,-1],"loss_changes":[2.2472443E-1,1.5426276E-2,3.4630194E-2,1.3624176E-2,2.391342E-3,5.1654186E-3,2.0633161E-2,0E0,0E0,0E0,0E0,0E0,0E0,0E0,0E0],"parents":[2147483647,0,0,1,1,2,2,3,3,4,4,5,5,6,6],"right_children":[2,4,6,8,10,12,14,-1,-1,-1,-1,-1,-1,-1,-1],"split_conditions":[7.9340065E-1,4.7067204E0,2.5083575E0,-5.0377846E-1,-8.0326754E-1,1.4136384E-1,4.502506E0,-1.9686692E-3,1.936538E-3,7.729936E-3,7.9270214E-4,-8.173276E-4,6.086357E-3,1.7016387E-2,8.629559E-4],"split_indices":[6,2,2,1,0,2,2,0,0,0,0,0,0,0,0],"split_type":[0,0,0,0,0,0,0,0,0,0,0,0,0,0,0],"sum_hessian":[1.28E2,1.12E2,1.6E1,1.1E2,2E0,8E0,8E0,1.01E2,9E0,1E0,1E0,1E0,7E0,7E0,1E0],"tree_param":{"num_deleted":"0","num_feature":"12","num_nodes":"15","size_leaf_vector":"1"}},{"base_weights":[1.6768635E-3,-1.3018158E-2,9.9256895E-2,1.4541054E-3,-2.226792E-2,4.764165E-2,1.398436E-1,-1.8507733E-4,7.3434385E-3,-3.2454364E-3,8.396683E-4,6.8876124E-3,1.6878843E-3,1.7551668E-2,5.1373076E-3],"categories":[],"categories_nodes":[],"categories_segments":[],"categories_sizes":[],"default_left":[0,0,0,0,0,0,0,0,0,0,0,0,0,0,0],"id":7,"left_children":[1,3,5,7,9,11,13,-1,-1,-1,-1,-1,-1,-1,-1],"loss_changes":[1.862705E-1,1.51591245E-2,2.8950796E-2,1.0840785E-2,2.1825567E-2,4.7165398E-3,1.9387305E-2,0E0,0E0,0E0,0E0,0E0,0E0,0E0,0E0],"parents":[2147483647,0,0,1,1,2,2,3,3,4,4,5,5,6,6],"right_children":[2,4,6,8,10,12,14,-1,-1,-1,-1,-1,-1,-1,-1],"split_conditions":[7.9340065E-1,-5.2543384E-1,2.5083575E0,4.6441126E0,3.6619824E-1,-2.4231756E-1,-5.759037E-1,-1.8507733E-4,7.3434385E-3,-3.2454364E-3,8.396683E-4,6.8876124E-3,1.6878843E-3,1.7551668E-2,5.1373076E-3],"split_indices":[6,6,2,2,6,7,0,0,0,0,0,0,0,0,0],"split_type":[0,0,0,0,0,0,0,0,0,0,0,0,0,0,0],"sum_hessian":[1.28E2,1.12E2,1.6E1,4.4E1,6.8E1,8E0,8E0,4.3E1,1E0,5.1E1,1.7E1,4E0,4E0,5E0,3E0],"tree_param":{"num_deleted":"0","num_feature":"12","num_nodes":"15","size_leaf_vector":"1"}},{"base_weights":[1.7883794E-3,-1.1674284E-2,9.1170296E-2,4.8537314E-4,-2.0991605E-2,4.3830317E-2,1.2838024E-1,-2.3521773E-4,6.976267E-3,-3.1496354E-3,7.6036627E-4,-8.6085545E-4,5.146125E-3,1.608903E-2,4.7520096E-3],"categories":[],"categories_nodes":[],"categories_segments":[],"categories_sizes":[],"default_left":[0,0,0,0,0,0,0,0,0,0,0,0,0,0,0],"id":8,"left_children":[1,3,5,7,9,11,13,-1,-1,-1,-1,-1,-1,-1,-1],"loss_changes":[1.5629244E-1,1.2812572E-2,2.4318874E-2,9.992985E-3,1.9464198E-2,4.044423E-3,1.6013399E-2,0E0,0E0,0E0,0E0,0E0,0E0,0E0,0E0],"parents":[2147483647,0,0,1,1,2,2,3,3,4,4,5,5,6,6],"right_children":[2,4,6,8,10,12,14,-1,-1,-1,-1,-1,-1,-1,-1],"split_conditions":[7.9340065E-1,-4.5407832E-1,2.5083575E0,4.6441126E0,3.6619824E-1,1.4136384E-1,-5.759037E-1,-2.3521773E-4,6.976267E-3,-3.1496354E-3,7.6036627E-4,-8.6085545E-4,5.146125E-3,1.608903E-2,4.7520096E-3],"split_indices":[6,6,2,2,6,2,0,0,0,0,0,0,0,0,0],"split_type":[0,0,0,0,0,0,0,0,0,0,0,0,0,0,0],"sum_hessian":[1.28E2,1.12E2,1.6E1,4.9E1,6.3E1,8E0,8E0,4.8E1,1E0,4.6E1,1.7E1,1E0,7E0,5E0,3E0],"tree_param":{"num_deleted":"0","num_feature":"12","num_nodes":"15","size_leaf_vector":"1"}},{"base_weights":[1.8380542E-3,-1.0468344E-2,8.353128E-2,-1.19723715E-2,4.8670128E-2,3.9923426E-2,1.1785789E-1,-9.5208426E-4,-5.3287316E-3,6.627454E-3,6.730653E-4,5.9249136E-3,1.2613032E-3,1.3177677E-2,3.2534226E-4],"categories":[],"categories_nodes":[],"categories_segments":[],"categories_sizes":[],"default_left":[0,0,0,0,0,0,0,0,0,0,0,0,0,0,0],"id":9,"left_children":[1,3,5,7,9,11,13,-1,-1,-1,-1,-1,-1,-1,-1],"loss_changes":[1.3056451E-1,1.0633581E-2,2.0742178E-2,1.073527E-2,1.7688894E-3,4.0028216E-3,1.3927758E-2,0E0,0E0,0E0,0E0,0E0,0E0,0E0,0E0],"parents":[2147483647,0,0,1,1,2,2,3,3,4,4,5,5,6,6],"right_children":[2,4,6,8,10,12,14,-1,-1,-1,-1,-1,-1,-1,-1],"split_conditions":[7.9340065E-1,4.7067204E0,2.5083575E0,4.4292417E0,-8.0326754E-1,-2.4231756E-1,4.502506E0,-9.5208426E-4,-5.3287316E-3,6.627454E-3,6.730653E-4,5.9249136E-3,1.2613032E-3,1.3177677E-2,3.2534226E-4],"split_indices":[6,2,2,2,0,7,2,0,0,0,0,0,0,0,0],"split_type":[0,0,0,0,0,0,0,0,0,0,0,0,0,0,0],"sum_hessian":[1.28E2,1.12E2,1.6E1,1.1E2,2E0,8E0,8E0,1.05E2,5E0,1E0,1E0,4E0,4E0,7E0,1E0],"tree_param":{"num_deleted":"0","num_feature":"12","num_nodes":"15","size_leaf_vector":"1"}},{"base_weights":[1.8225352E-3,-9.412485E-3,7.639517E-2,1.73458E-3,-1.7670851E-2,3.247345E-2,1.03893034E-1,-8.526497E-5,6.2960805E-3,-2.4721303E-3,1.9187847E-3,5.4509207E-3,-3.1896096E-4,1.3650137E-2,4.3984405E-3],"categories":[],"categories_nodes":[],"categories_segments":[],"categories_sizes":[],"default_left":[0,0,0,0,0,0,0,0,0,0,0,0,0,0,0],"id":10,"left_children":[1,3,5,7,9,11,13,-1,-1,-1,-1,-1,-1,-1,-1],"loss_changes":[1.0879851E-1,1.0433041E-2,1.7158046E-2,7.815593E-3,1.736593E-2,6.4607635E-3,1.3531283E-2,0E0,0E0,0E0,0E0,0E0,0E0,0E0,0E0],"parents":[2147483647,0,0,1,1,2,2,3,3,4,4,5,5,6,6],"right_children":[2,4,6,8,10,12,14,-1,-1,-1,-1,-1,-1,-1,-1],"split_conditions":[7.9340065E-1,-4.6851522E-1,2.390135E0,4.6441126E0,1.835904E0,-2.4231756E-1,-5.759037E-1,-8.526497E-5,6.2960805E-3,-2.4721303E-3,1.9187847E-3,5.4509207E-3,-3.1896096E-4,1.3650137E-2,4.3984405E-3],"split_indices":[6,6,2,2,3,7,0,0,0,0,0,0,0,0,0],"split_type":[0,0,0,0,0,0,0,0,0,0,0,0,0,0,0],"sum_hessian":[1.28E2,1.12E2,1.6E1,4.8E1,6.4E1,7E0,9E0,4.7E1,1E0,5.4E1,1E1,4E0,3E0,5E0,4E0],"tree_param":{"num_deleted":"0","num_feature":"12","num_nodes":"15","size_leaf_vector":"1"}},{"base_weights":[1.863832E-3,-8.421171E-3,7.011922E-2,-1.1129119E-2,2.058361E-2,4.2956E-2,1.1275911E-1,1.0533289E-4,-2.0438673E-3,3.307255E-3,-6.4179406E-4,5.858595E-3,-2.9503895E-4,1.2203495E-2,3.3189976E-3],"categories":[],"categories_nodes":[],"categories_segments":[],"categories_sizes":[],"default_left":[0,0,0,0,0,0,0,0,0,0,0,0,0,0,0],"id":11,"left_children":[1,3,5,7,9,11,13,-1,-1,-1,-1,-1,-1,-1,-1],"loss_changes":[9.1149375E-2,9.104488E-3,1.484634E-2,1.1816494E-2,3.584466E-3,8.7830275E-3,3.7808716E-4,0E0,0E0,0E0,0E0,0E0,0E0,0E0,0E0],"parents":[2147483647,0,0,1,1,2,2,3,3,4,4,5,5,6,6],"right_children":[2,4,6,8,10,12,14,-1,-1,-1,-1,-1,-1,-1,-1],"split_conditions":[7.9340065E-1,-5.0377846E-1,4.8142728E-1,-4.5407832E-1,-4.309626E-1,-2.4231756E-1,-3.7923643E-1,1.0533289E-4,-2.0438673E-3,3.307255E-3,-6.4179406E-4,5.858595E-3,-2.9503895E-4,1.2203495E-2,3.3189976E-3],"split_indices":[6,1,7,6,1,7,0,0,0,0,0,0,0,0,0],"split_type":[0,0,0,0,0,0,0,0,0,0,0,0,0,0,0],"sum_hessian":[1.28E2,1.12E2,1.6E1,1.03E2,9E0,1.1E1,5E0,4.5E1,5.8E1,6E0,3E0,8E0,3E0,4E0,1E0],"tree_param":{"num_deleted":"0","num_feature":"12","num_nodes":"15","size_leaf_vector":"1"}},{"base_weights":[1.8465421E-3,-9.570516E-3,5.4880396E-2,1.3304269E-3,-1.880287E-2,-1.2283113E-2,6.9666564E-2,-1.0816093E-4,5.9760096E-3,-8.761625E-4,-4.250461E-3,-1.4335007E-3,-2.0377674E-4,9.427409E-3,3.1849963E-3],"categories":[],"categories_nodes":[],"categories_segments":[],"categories_sizes":[],"default_left":[0,0,0,0,0,0,0,0,0,0,0,0,0,0,0],"id":12,"left_children":[1,3,5,7,9,11,13,-1,-1,-1,-1,-1,-1,-1,-1],"loss_changes":[7.8633524E-2,1.0793644E-2,2.3696795E-2,7.111361E-3,1.3431296E-2,7.590046E-5,1.4678277E-2,0E0,0E0,0E0,0E0,0E0,0E0,0E0,0E0],"parents":[2147483647,0,0,1,1,2,2,3,3,4,4,5,5,6,6],"right_children":[2,4,6,8,10,12,14,-1,-1,-1,-1,-1,-1,-1,-1],"split_conditions":[5.994214E-1,-4.5407832E-1,-2.509857E0,4.6441126E0,5.267695E-1,4.283039E0,-5.759037E-1,-1.0816093E-4,5.9760096E-3,-8.761625E-4,-4.250461E-3,-1.4335007E-3,-2.0377674E-4,9.427409E-3,3.1849963E-3],"split_indices":[6,6,3,2,4,2,0,0,0,0,0,0,0,0,0],"split_type":[0,0,0,0,0,0,0,0,0,0,0,0,0,0,0],"sum_hessian":[1.28E2,1.06E2,2.2E1,4.9E1,5.7E1,4E0,1.8E1,4.8E1,1E0,4.1E1,1.6E1,3E0,1E0,1E1,8E0],"tree_param":{"num_deleted":"0","num_feature":"12","num_nodes":"15","size_leaf_vector":"1"}},{"base_weights":[1.752713E-3,-8.606536E-3,4.9869537E-2,1.3147412E-3,-1.7010974E-2,-1.1382258E-2,6.3363716E-2,-9.756558E-5,5.6772097E-3,-7.9063233E-4,-3.850417E-3,-1.3259881E-3,-1.9358807E-4,1.0469105E-3,7.6771006E-3],"categories":[],"categories_nodes":[],"categories_segments":[],"categories_sizes":[],"default_left":[0,0,0,0,0,0,0,0,0,0,0,0,0,0,0],"id":13,"left_children":[1,3,5,7,9,11,13,-1,-1,-1,-1,-1,-1,-1,-1],"loss_changes":[6.4729795E-2,8.94432E-3,1.9731708E-2,6.4063575E-3,1.1045478E-2,6.301416E-5,1.2670569E-2,0E0,0E0,0E0,0E0,0E0,0E0,0E0,0E0],"parents":[2147483647,0,0,1,1,2,2,3,3,4,4,5,5,6,6],"right_children":[2,4,6,8,10,12,14,-1,-1,-1,-1,-1,-1,-1,-1],"split_conditions":[5.994214E-1,-4.5407832E-1,-2.509857E0,4.6441126E0,5.267695E-1,4.283039E0,1.2702912E0,-9.756558E-5,5.6772097E-3,-7.9063233E-4,-3.850417E-3,-1.3259881E-3,-1.9358807E-4,1.0469105E-3,7.6771006E-3],"split_indices":[6,6,3,2,4,2,2,0,0,0,0,0,0,0,0],"split_type":[0,0,0,0,0,0,0,0,0,0,0,0,0,0,0],"sum_hessian":[1.28E2,1.06E2,2.2E1,4.9E1,5.7E1,4E0,1.8E1,4.8E1,1E0,4.1E1,1.6E1,3E0,1E0,4E0,1.4E1],"tree_param":{"num_deleted":"0","num_feature":"12","num_nodes":"15","size_leaf_vector":"1"}},{"base_weights":[1.6405658E-3,-6.2240344E-3,5.3820524E-2,-7.478864E-3,4.2279337E-2,3.029707E-2,9.189734E-2,-5.325195E-4,-4.4280547E-3,5.393349E-3,9.485517E-4,4.2979536E-3,-5.8127404E-4,9.9837035E-3,2.6099428E-3],"categories":[],"categories_nodes":[],"categories_segments":[],"categories_sizes":[],"default_left":[0,0,0,0,0,0,0,0,0,0,0,0,0,0,0],"id":14,"left_children":[1,3,5,7,9,11,13,-1,-1,-1,-1,-1,-1,-1,-1],"loss_changes":[5.3273294E-2,7.1937735E-3,1.2442648E-2,8.561909E-3,6.349655E-4,5.7453653E-3,5.2880496E-4,0E0,0E0,0E0,0E0,0E0,0E0,0E0,0E0],"parents":[2147483647,0,0,1,1,2,2,3,3,4,4,5,5,6,6],"right_children":[2,4,6,8,10,12,14,-1,-1,-1,-1,-1,-1,-1,-1],"split_conditions":[7.9340065E-1,4.7067204E0,4.8142728E-1,4.4292417E0,-8.0326754E-1,-2.4231756E-1,-3.7923643E-1,-5.325195E-4,-4.4280547E-3,5.393349E-3,9.485517E-4,4.2979536E-3,-5.8127404E-4,9.9837035E-3,2.6099428E-3],"split_indices":[6,2,7,2,0,7,0,0,0,0,0,0,0,0,0],"split_type":[0,0,0,0,0,0,0,0,0,0,0,0,0,0,0],"sum_hessian":[1.28E2,1.12E2,1.6E1,1.1E2,2E0,1.1E1,5E0,1.05E2,5E0,1E0,1E0,8E0,3E0,4E0,1E0],"tree_param":{"num_deleted":"0","num_feature":"12","num_nodes":"15","size_leaf_vector":"1"}},{"base_weights":[1.6136538E-3,-7.096758E-3,4.2065848E-2,1.8540325E-3,-1.4690599E-2,-1.1078276E-3,5.383715E-2,-1.9942867E-5,5.123682E-3,-6.557188E-4,-3.3920754E-3,7.4747666E-3,2.2297946E-3],"categories":[],"categories_nodes":[],"categories_segments":[],"categories_sizes":[],"default_left":[0,0,0,0,0,0,0,0,0,0,0,0,0],"id":15,"left_children":[1,3,5,7,9,-1,11,-1,-1,-1,-1,-1,-1],"loss_changes":[4.5752358E-2,7.3001203E-3,1.4984664E-2,5.0804997E-3,8.849169E-3,0E0,1.08638E-2,0E0,0E0,0E0,0E0,0E0,0E0],"parents":[2147483647,0,0,1,1,2,2,3,3,4,4,6,6],"right_children":[2,4,6,8,10,-1,12,-1,-1,-1,-1,-1,-1],"split_conditions":[5.994214E-1,-4.5407832E-1,-2.509857E0,4.6441126E0,5.267695E-1,-1.1078276E-3,-5.759037E-1,-1.9942867E-5,5.123682E-3,-6.557188E-4,-3.3920754E-3,7.4747666E-3,2.2297946E-3],"split_indices":[6,6,3,2,4,0,0,0,0,0,0,0,0],"split_type":[0,0,0,0,0,0,0,0,0,0,0,0,0],"sum_hessian":[1.28E2,1.06E2,2.2E1,4.9E1,5.7E1,4E0,1.8E1,4.8E1,1E0,4.1E1,1.6E1,1E1,8E0],"tree_param":{"num_deleted":"0","num_feature":"12","num_nodes":"13","size_leaf_vector":"1"}},{"base_weights":[1.5271148E-3,-4.0586153E-3,5.63262E-2,-7.840883E-3,1.1904703E-2,-6.474423E-4,6.9533765E-2,-2.800957E-4,-3.980342E-3,-3.7414883E-4,5.685916E-3,-2.9813798E-4,7.792227E-3],"categories":[],"categories_nodes":[],"categories_segments":[],"categories_sizes":[],"default_left":[0,0,0,0,0,0,0,0,0,0,0,0,0],"id":16,"left_children":[1,3,5,7,9,-1,11,-1,-1,-1,-1,-1,-1],"loss_changes":[3.9714586E-2,7.2178943E-3,1.0403514E-2,1.5353037E-2,1.6390158E-2,0E0,6.3152537E-3,0E0,0E0,0E0,0E0,0E0,0E0],"parents":[2147483647,0,0,1,1,2,2,3,3,4,4,6,6],"right_children":[2,4,6,8,10,-1,12,-1,-1,-1,-1,-1,-1],"split_conditions":[9.5714206E-1,3.6619824E-1,-2.509857E0,1.6676772E-1,-6.7588943E-1,-6.474423E-4,-1.5918982E0,-2.800957E-4,-3.980342E-3,-3.7414883E-4,5.685916E-3,-2.9813798E-4,7.792227E-3],"split_indices":[6,6,3,6,1,0,1,0,0,0,0,0,0],"split_type":[0,0,0,0,0,0,0,0,0,0,0,0,0],"sum_hessian":[1.28E2,1.17E2,1.1E1,9.5E1,2.2E1,2E0,9E0,8.3E1,1.2E1,1.7E1,5E0,1E0,8E0],"tree_param":{"num_deleted":"0","num_feature":"12","num_nodes":"13","size_leaf_vector":"1"}},{"base_weights":[1.4356279E-3,-3.6438438E-3,5.126413E-2,4.518375E-3,-1.0143143E-2,-6.042795E-4,6.332979E-2,-2.5528253E-4,1.8409755E-3,-3.995055E-3,-5.342975E-4,1.956511E-3,7.929108E-3],"categories":[],"categories_nodes":[],"categories_segments":[],"categories_sizes":[],"default_left":[0,0,0,0,0,0,0,0,0,0,0,0,0],"id":17,"left_children":[1,3,5,7,9,-1,11,-1,-1,-1,-1,-1,-1],"loss_changes":[3.283702E-2,6.3055772E-3,8.680042E-3,5.2531194E-3,9.229863E-3,0E0,5.4340586E-3,0E0,0E0,0E0,0E0,0E0,0E0],"parents":[2147483647,0,0,1,1,2,2,3,3,4,4,6,6],"right_children":[2,4,6,8,10,-1,12,-1,-1,-1,-1,-1,-1],"split_conditions":[9.5714206E-1,-1.1301676E-1,-2.509857E0,5.8209884E-1,-2.3748999E0,-6.042795E-4,2.5083575E0,-2.5528253E-4,1.8409755E-3,-3.995055E-3,-5.342975E-4,1.956511E-3,7.929108E-3],"split_indices":[6,4,3,5,3,0,2,0,0,0,0,0,0],"split_type":[0,0,0,0,0,0,0,0,0,0,0,0,0],"sum_hessian":[1.28E2,1.17E2,1.1E1,5.2E1,6.5E1,2E0,9E0,3.5E1,1.7E1,8E0,5.7E1,3E0,6E0],"tree_param":{"num_deleted":"0","num_feature":"12","num_nodes":"13","size_leaf_vector":"1"}},{"base_weights":[1.3411943E-3,-5.4216613E-3,3.2744862E-2,1.3595243E-2,-8.670018E-3,-8.691599E-4,4.192578E-2,1.7030375E-3,-1.8965866E-3,-1.0144637E-3,3.8458572E-3,5.9444285E-3,1.585585E-3],"categories":[],"categories_nodes":[],"categories_segments":[],"categories_sizes":[],"default_left":[0,0,0,0,0,0,0,0,0,0,0,0,0],"id":18,"left_children":[1,3,5,7,9,-1,11,-1,-1,-1,-1,-1,-1],"loss_changes":[2.7574353E-2,6.7276545E-3,9.114167E-3,2.1126228E-3,6.7838477E-3,0E0,7.73488E-3,0E0,0E0,0E0,0E0,0E0,0E0],"parents":[2147483647,0,0,1,1,2,2,3,3,4,4,6,6],"right_children":[2,4,6,8,10,-1,12,-1,-1,-1,-1,-1,-1],"split_conditions":[5.994214E-1,7.248503E-2,-2.509857E0,3.5106328E-1,4.7067204E0,-8.691599E-4,-5.759037E-1,1.7030375E-3,-1.8965866E-3,-1.0144637E-3,3.8458572E-3,5.9444285E-3,1.585585E-3],"split_indices":[6,2,3,6,2,0,0,0,0,0,0,0,0],"split_type":[0,0,0,0,0,0,0,0,0,0,0,0,0],"sum_hessian":[1.28E2,1.06E2,2.2E1,1.5E1,9.1E1,4E0,1.8E1,1.4E1,1E0,8.9E1,2E0,1E1,8E0],"tree_param":{"num_deleted":"0","num_feature":"12","num_nodes":"13","size_leaf_vector":"1"}},{"base_weights":[1.2791574E-3,-3.0813257E-3,4.4050645E-2,-5.044887E-3,1.862962E-2,-5.060501E-4,5.4378923E-2,-7.482608E-4,1.5283583E-3,2.7327598E-3,-1.249244E-4,-4.6033598E-4,6.1443998E-3],"categories":[],"categories_nodes":[],"categories_segments":[],"categories_sizes":[],"default_left":[0,0,0,0,0,0,0,0,0,0,0,0,0],"id":19,"left_children":[1,3,5,7,9,-1,11,-1,-1,-1,-1,-1,-1],"loss_changes":[2.4194798E-2,5.124415E-3,6.3619874E-3,5.5158725E-3,1.7631981E-3,0E0,4.4499915E-3,0E0,0E0,0E0,0E0,0E0,0E0],"parents":[2147483647,0,0,1,1,2,2,3,3,4,4,6,6],"right_children":[2,4,6,8,10,-1,12,-1,-1,-1,-1,-1,-1],"split_conditions":[9.5714206E-1,-5.0377846E-1,-2.509857E0,8.9487064E-1,-4.309626E-1,-5.060501E-4,-1.5918982E0,-7.482608E-4,1.5283583E-3,2.7327598E-3,-1.249244E-4,-4.6033598E-4,6.1443998E-3],"split_indices":[6,1,3,4,1,0,1,0,0,0,0,0,0],"split_type":[0,0,0,0,0,0,0,0,0,0,0,0,0],"sum_hessian":[1.28E2,1.17E2,1.1E1,1.08E2,9E0,2E0,9E0,9.7E1,1.1E1,6E0,3E0,1E0,8E0],"tree_param":{"num_deleted":"0","num_feature":"12","num_nodes":"13","size_leaf_vector":"1"}},{"base_weights":[1.2176437E-3,-2.7444821E-3,4.007708E-2,6.641383E-3,-7.2857854E-3,-4.7231346E-4,4.9509436E-2,7.9497666E-5,2.3516463E-3,-1.1140298E-3,1.3436727E-3,2.2698415E-3,7.178077E-3],"categories":[],"categories_nodes":[],"categories_segments":[],"categories_sizes":[],"default_left":[0,0,0,0,0,0,0,0,0,0,0,0,0],"id":20,"left_children":[1,3,5,7,9,-1,11,-1,-1,-1,-1,-1,-1],"loss_changes":[1.9971604E-2,5.0780266E-3,5.304698E-3,3.8289898E-3,6.539704E-3,0E0,4.341863E-3,0E0,0E0,0E0,0E0,0E0,0E0],"parents":[2147483647,0,0,1,1,2,2,3,3,4,4,6,6],"right_children":[2,4,6,8,10,-1,12,-1,-1,-1,-1,-1,-1],"split_conditions":[9.5714206E-1,-4.1275805E-1,-2.509857E0,-7.121163E-1,8.9487064E-1,-4.7231346E-4,3.078218E0,7.9497666E-5,2.3516463E-3,-1.1140298E-3,1.3436727E-3,2.2698415E-3,7.178077E-3],"split_indices":[6,4,3,1,4,0,2,0,0,0,0,0,0],"split_type":[0,0,0,0,0,0,0,0,0,0,0,0,0],"sum_hessian":[1.28E2,1.17E2,1.1E1,3.8E1,7.9E1,2E0,9E0,2.9E1,9E0,6.7E1,1.2E1,5E0,4E0],"tree_param":{"num_deleted":"0","num_feature":"12","num_nodes":"13","size_leaf_vector":"1"}},{"base_weights":[1.1860846E-3,-4.455476E-3,2.4833195E-2,3.7866754E-3,-1.1734977E-2,-4.1899653E-3,3.6352754E-2,2.0202846E-4,4.5169913E-3,-1.8707926E-3,1.0520145E-3,-9.4173674E-4,1.6200923E-3,1.5474203E-3,6.051667E-3],"categories":[],"categories_nodes":[],"categories_segments":[],"categories_sizes":[],"default_left":[0,0,0,0,0,0,0,0,0,0,0,0,0,0,0],"id":21,"left_children":[1,3,5,7,9,11,13,-1,-1,-1,-1,-1,-1,-1,-1],"loss_changes":[1.7320095E-2,6.3443054E-3,8.510669E-3,3.5636923E-3,8.887104E-3,1.0053009E-3,8.14469E-3,0E0,0E0,0E0,0E0,0E0,0E0,0E0,0E0],"parents":[2147483647,0,0,1,1,2,2,3,3,4,4,5,5,6,6],"right_children":[2,4,6,8,10,12,14,-1,-1,-1,-1,-1,-1,-1,-1],"split_conditions":[5.8219075E-1,-4.5407832E-1,1.3545045E0,4.6441126E0,8.630367E-1,-4.0836537E-1,-9.729239E-1,2.0202846E-4,4.5169913E-3,-1.8707926E-3,1.0520145E-3,-9.4173674E-4,1.6200923E-3,1.5474203E-3,6.051667E-3],"split_indices":[6,6,2,2,7,0,1,0,0,0,0,0,0,0,0],"split_type":[0,0,0,0,0,0,0,0,0,0,0,0,0,0,0],"sum_hessian":[1.28E2,1.04E2,2.4E1,4.9E1,5.5E1,7E0,1.7E1,4.8E1,1E0,4.2E1,1.3E1,6E0,1E0,1E1,7E0],"tree_param":{"num_deleted":"0","num_feature":"12","num_nodes":"15","size_leaf_vector":"1"}},{"base_weights":[1.1618765E-3,-2.2567569E-3,3.4681614E-2,-3.203397E-3,3.5098903E-2,1.0329195E-2,5.0600603E-2,-1.4250113E-4,-3.5569628E-3,4.291142E-3,9.736937E-4,2.9908493E-3,4.3163673E-5,2.475695E-3,6.3794106E-3],"categories":[],"categories_nodes":[],"categories_segments":[],"categories_sizes":[],"default_left":[0,0,0,0,0,0,0,0,0,0,0,0,0,0,0],"id":22,"left_children":[1,3,5,7,9,11,13,-1,-1,-1,-1,-1,-1,-1,-1],"loss_changes":[1.4860598E-2,4.2851935E-3,4.129327E-3,6.62623E-3,1.7659646E-4,1.1498139E-3,8.074306E-4,0E0,0E0,0E0,0E0,0E0,0E0,0E0,0E0],"parents":[2147483647,0,0,1,1,2,2,3,3,4,4,5,5,6,6],"right_children":[2,4,6,8,10,12,14,-1,-1,-1,-1,-1,-1,-1,-1],"split_conditions":[9.5714206E-1,4.7067204E0,-1.0466257E0,4.4292417E0,-8.0326754E-1,-8.8731843E-1,3.078218E0,-1.4250113E-4,-3.5569628E-3,4.291142E-3,9.736937E-4,2.9908493E-3,4.3163673E-5,2.475695E-3,6.3794106E-3],"split_indices":[6,2,3,2,0,0,2,0,0,0,0,0,0,0,0],"split_type":[0,0,0,0,0,0,0,0,0,0,0,0,0,0,0],"sum_hessian":[1.28E2,1.17E2,1.1E1,1.15E2,2E0,5E0,6E0,1.1E2,5E0,1E0,1E0,1E0,4E0,3E0,3E0],"tree_param":{"num_deleted":"0","num_feature":"12","num_nodes":"15","size_leaf_vector":"1"}},{"base_weights":[1.1499876E-3,-3.7219012E-3,2.156592E-2,2.5136936E-3,-1.1774375E-2,-3.935177E-3,3.1701636E-2,1.094299E-3,-3.4098089E-4,-2.0706155E-3,1.525785E-3,-8.5410674E-4,1.4153026E-3,1.3047472E-3,5.3388407E-3],"categories":[],"categories_nodes":[],"categories_segments":[],"categories_sizes":[],"default_left":[0,0,0,0,0,0,0,0,0,0,0,0,0,0,0],"id":23,"left_children":[1,3,5,7,9,11,13,-1,-1,-1,-1,-1,-1,-1,-1],"loss_changes":[1.2911142E-2,5.3018536E-3,6.586546E-3,3.0331707E-3,1.1422442E-2,7.873801E-4,6.5852907E-3,0E0,0E0,0E0,0E0,0E0,0E0,0E0,0E0],"parents":[2147483647,0,0,1,1,2,2,3,3,4,4,5,5,6,6],"right_children":[2,4,6,8,10,12,14,-1,-1,-1,-1,-1,-1,-1,-1],"split_conditions":[5.8219075E-1,-2.8035715E-1,1.3545045E0,-1.1301676E-1,8.630367E-1,-4.0836537E-1,-9.729239E-1,1.094299E-3,-3.4098089E-4,-2.0706155E-3,1.525785E-3,-8.5410674E-4,1.4153026E-3,1.3047472E-3,5.3388407E-3],"split_indices":[6,6,2,4,7,0,1,0,0,0,0,0,0,0,0],"split_type":[0,0,0,0,0,0,0,0,0,0,0,0,0,0,0],"sum_hessian":[1.28E2,1.04E2,2.4E1,5.9E1,4.5E1,7E0,1.7E1,2.4E1,3.5E1,3.4E1,1.1E1,6E0,1E0,1E1,7E0],"tree_param":{"num_deleted":"0","num_feature":"12","num_nodes":"15","size_leaf_vector":"1"}},{"base_weights":[1.0924559E-3,-1.892173E-3,3.0350268E-2,1.3022568E-2,-4.1906554E-3,-4.7891407E-4,3.7857063E-2,1.5896669E-3,-1.5044473E-3,-8.123354E-4,1.0658071E-3,5.250187E-3,1.2711883E-3],"categories":[],"categories_nodes":[],"categories_segments":[],"categories_sizes":[],"default_left":[0,0,0,0,0,0,0,0,0,0,0,0,0],"id":24,"left_children":[1,3,5,7,9,-1,11,-1,-1,-1,-1,-1,-1],"loss_changes":[1.1322187E-2,4.099763E-3,3.346716E-3,1.5298373E-3,6.101323E-3,0E0,3.0150656E-3,0E0,0E0,0E0,0E0,0E0,0E0],"parents":[2147483647,0,0,1,1,2,2,3,3,4,4,6,6],"right_children":[2,4,6,8,10,-1,12,-1,-1,-1,-1,-1,-1],"split_conditions":[9.5714206E-1,7.248503E-2,-2.509857E0,3.5106328E-1,3.6619824E-1,-4.7891407E-4,-5.759037E-1,1.5896669E-3,-1.5044473E-3,-8.123354E-4,1.0658071E-3,5.250187E-3,1.2711883E-3],"split_indices":[6,2,3,6,6,0,0,0,0,0,0,0,0],"split_type":[0,0,0,0,0,0,0,0,0,0,0,0,0],"sum_hessian":[1.28E2,1.17E2,1.1E1,1.5E1,1.02E2,2E0,9E0,1.4E1,1E0,8.1E1,2.1E1,5E0,4E0],"tree_param":{"num_deleted":"0","num_feature":"12","num_nodes":"13","size_leaf_vector":"1"}},{"base_weights":[1.0326765E-3,-1.7000856E-3,2.781878E-2,-1.6278345E-2,5.810042E-4,-4.4698638E-4,3.4723498E-2,-5.813956E-4,-5.968605E-3,-2.5152543E-4,1.4402107E-3,1.4776423E-3,5.1715286E-3],"categories":[],"categories_nodes":[],"categories_segments":[],"categories_sizes":[],"default_left":[0,0,0,0,0,0,0,0,0,0,0,0,0],"id":25,"left_children":[1,3,5,7,9,-1,11,-1,-1,-1,-1,-1,-1],"loss_changes":[9.490101E-3,3.933467E-3,2.830536E-3,6.9207507E-3,4.443977E-3,0E0,2.6251962E-3,0E0,0E0,0E0,0E0,0E0,0E0],"parents":[2147483647,0,0,1,1,2,2,3,3,4,4,6,6],"right_children":[2,4,6,8,10,-1,12,-1,-1,-1,-1,-1,-1],"split_conditions":[9.5714206E-1,-2.3748999E0,-2.509857E0,-2.4536812E0,3.6619824E-1,-4.4698638E-4,3.078218E0,-5.813956E-4,-5.968605E-3,-2.5152543E-4,1.4402107E-3,1.4776423E-3,5.1715286E-3],"split_indices":[6,3,3,3,6,0,2,0,0,0,0,0,0],"split_type":[0,0,0,0,0,0,0,0,0,0,0,0,0],"sum_hessian":[1.28E2,1.17E2,1.1E1,1.5E1,1.02E2,2E0,9E0,1.3E1,2E0,8.4E1,1.8E1,5E0,4E0],"tree_param":{"num_deleted":"0","num_feature":"12","num_nodes":"13","size_leaf_vector":"1"}},{"base_weights":[9.359269E-4,-1.575512E-3,2.555375E-2,-2.4610038E-3,3.318868E-2,7.0896763E-3,3.772956E-2,-8.641399E-5,-3.159282E-3,4.075063E-3,9.0323883E-4,-6.263173E-4,1.5331894E-3,1.7829083E-3,4.819765E-3],"categories":[],"categories_nodes":[],"categories_segments":[],"categories_sizes":[],"default_left":[0,0,0,0,0,0,0,0,0,0,0,0,0,0,0],"id":26,"left_children":[1,3,5,7,9,11,13,-1,-1,-1,-1,-1,-1,-1,-1],"loss_changes":[8.015835E-3,3.7141202E-3,2.43029E-3,5.3689675E-3,1.7993036E-4,7.5636886E-4,5.989205E-4,0E0,0E0,0E0,0E0,0E0,0E0,0E0,0E0],"parents":[2147483647,0,0,1,1,2,2,3,3,4,4,5,5,6,6],"right_children":[2,4,6,8,10,12,14,-1,-1,-1,-1,-1,-1,-1,-1],"split_conditions":[9.5714206E-1,4.7067204E0,-1.0466257E0,4.4292417E0,-8.0326754E-1,1.1466911E0,3.078218E0,-8.641399E-5,-3.159282E-3,4.075063E-3,9.0323883E-4,-6.263173E-4,1.5331894E-3,1.7829083E-3,4.819765E-3],"split_indices":[6,2,3,2,0,2,2,0,0,0,0,0,0,0,0],"split_type":[0,0,0,0,0,0,0,0,0,0,0,0,0,0,0],"sum_hessian":[1.28E2,1.17E2,1.1E1,1.15E2,2E0,5E0,6E0,1.1E2,5E0,1E0,1E0,2E0,3E0,3E0,3E0],"tree_param":{"num_deleted":"0","num_feature":"12","num_nodes":"15","size_leaf_vector":"1"}},{"base_weights":[9.139792E-4,-3.4562324E-3,1.3226518E-2,5.709143E-4,-2.9211933E-2,-1.164156E-2,2.264469E-2,-3.5505294E-5,3.8713098E-3,1.4270534E-3,-4.3683727E-3,-2.0047287E-3,7.736228E-5,2.7312448E-3,-4.4690757E-3],"categories":[],"categories_nodes":[],"categories_segments":[],"categories_sizes":[],"default_left":[0,0,0,0,0,0,0,0,0,0,0,0,0,0,0],"id":27,"left_children":[1,3,5,7,9,11,13,-1,-1,-1,-1,-1,-1,-1,-1],"loss_changes":[6.986998E-3,9.973987E-3,8.226821E-3,2.9804918E-3,8.803891E-3,1.0590954E-3,9.078251E-3,0E0,0E0,0E0,0E0,0E0,0E0,0E0,0E0],"parents":[2147483647,0,0,1,1,2,2,3,3,4,4,5,5,6,6],"right_children":[2,4,6,8,10,12,14,-1,-1,-1,-1,-1,-1,-1,-1],"split_conditions":[3.6619824E-1,1.6676772E-1,1.3545045E0,4.7067204E0,4.2667803E-1,7.9340065E-1,-2.4974884E-1,-3.5505294E-5,3.8713098E-3,1.4270534E-3,-4.3683727E-3,-2.0047287E-3,7.736228E-5,2.7312448E-3,-4.4690757E-3],"split_indices":[6,6,2,2,2,6,0,0,0,0,0,0,0,0,0],"split_type":[0,0,0,0,0,0,0,0,0,0,0,0,0,0,0],"sum_hessian":[1.28E2,9.5E1,3.3E1,8.3E1,1.2E1,9E0,2.4E1,8.2E1,1E0,3E0,9E0,5E0,4E0,2.3E1,1E0],"tree_param":{"num_deleted":"0","num_feature":"12","num_nodes":"15","size_leaf_vector":"1"}},{"base_weights":[8.0110336E-4,-1.3395404E-3,2.1784008E-2,1.1910265E-2,-3.3847573E-3,-5.4103654E-4,2.776392E-2,1.4566522E-3,-1.3966784E-3,-5.3718436E-4,1.5632327E-3,1.1111049E-3,4.2194584E-3],"categories":[],"categories_nodes":[],"categories_segments":[],"categories_sizes":[],"default_left":[0,0,0,0,0,0,0,0,0,0,0,0,0],"id":28,"left_children":[1,3,5,7,9,-1,11,-1,-1,-1,-1,-1,-1],"loss_changes":[5.823463E-3,3.237963E-3,2.1016523E-3,1.3032246E-3,3.9761984E-3,0E0,1.9342937E-3,0E0,0E0,0E0,0E0,0E0,0E0],"parents":[2147483647,0,0,1,1,2,2,3,3,4,4,6,6],"right_children":[2,4,6,8,10,-1,12,-1,-1,-1,-1,-1,-1],"split_conditions":[9.5714206E-1,7.248503E-2,-2.509857E0,3.5106328E-1,9.5116246E-1,-5.4103654E-4,3.078218E0,1.4566522E-3,-1.3966784E-3,-5.3718436E-4,1.5632327E-3,1.1111049E-3,4.2194584E-3],"split_indices":[6,2,3,6,4,0,2,0,0,0,0,0,0],"split_type":[0,0,0,0,0,0,0,0,0,0,0,0,0],"sum_hessian":[1.28E2,1.17E2,1.1E1,1.5E1,1.02E2,2E0,9E0,1.4E1,1E0,9.3E1,9E0,5E0,4E0],"tree_param":{"num_deleted":"0","num_feature":"12","num_nodes":"13","size_leaf_vector":"1"}},{"base_weights":[7.665398E-4,-3.013626E-3,1.1417404E-2,6.804183E-4,-2.6651017E-2,-1.0429999E-2,1.9699669E-2,-2.0405952E-5,3.7046038E-3,1.2606214E-3,-3.968881E-3,-1.394117E-3,1.0585272E-3,-1.7642592E-3,2.7652604E-3],"categories":[],"categories_nodes":[],"categories_segments":[],"categories_sizes":[],"default_left":[0,0,0,0,0,0,0,0,0,0,0,0,0,0,0],"id":29,"left_children":[1,3,5,7,9,11,13,-1,-1,-1,-1,-1,-1,-1,-1],"loss_changes":[5.2282102E-3,8.400621E-3,6.3576307E-3,2.7093845E-3,7.1540847E-3,8.854531E-4,7.912378E-3,0E0,0E0,0E0,0E0,0E0,0E0,0E0,0E0],"parents":[2147483647,0,0,1,1,2,2,3,3,4,4,5,5,6,6],"right_children":[2,4,6,8,10,12,14,-1,-1,-1,-1,-1,-1,-1,-1],"split_conditions":[3.6619824E-1,1.6676772E-1,1.3545045E0,4.7067204E0,4.2667803E-1,-3.5551864E-1,-2.3748999E0,-2.0405952E-5,3.7046038E-3,1.2606214E-3,-3.968881E-3,-1.394117E-3,1.0585272E-3,-1.7642592E-3,2.7652604E-3],"split_indices":[6,6,2,2,2,0,3,0,0,0,0,0,0,0,0],"split_type":[0,0,0,0,0,0,0,0,0,0,0,0,0,0,0],"sum_hessian":[1.28E2,9.5E1,3.3E1,8.3E1,1.2E1,9E0,2.4E1,8.2E1,1E0,3E0,9E0,8E0,1E0,4E0,2E1],"tree_param":{"num_deleted":"0","num_feature":"12","num_nodes":"15","size_leaf_vector":"1"}},{"base_weights":[7.0260913E-4,-1.4469243E-3,1.7135525E-2,7.679042E-4,-3.5728265E-2,-2.208427E-2,3.3404928E-2,5.627861E-4,-4.6675847E-4,-1.2085284E-4,-6.1315936E-3,7.229751E-4,-3.1220212E-3,4.3909103E-3,4.0453483E-4],"categories":[],"categories_nodes":[],"categories_segments":[],"categories_sizes":[],"default_left":[0,0,0,0,0,0,0,0,0,0,0,0,0,0,0],"id":30,"left_children":[1,3,5,7,9,11,13,-1,-1,-1,-1,-1,-1,-1,-1],"loss_changes":[4.5814742E-3,8.759075E-3,1.0308964E-2,2.905639E-3,6.108856E-3,1.5647705E-3,3.2147504E-3,0E0,0E0,0E0,0E0,0E0,0E0,0E0,0E0],"parents":[2147483647,0,0,1,1,2,2,3,3,4,4,5,5,6,6],"right_children":[2,4,6,8,10,12,14,-1,-1,-1,-1,-1,-1,-1,-1],"split_conditions":[8.9487064E-1,7.913325E-1,8.086127E-1,-1.1301676E-1,-3.7797564E-1,-8.649972E-1,1.0412414E0,5.627861E-4,-4.6675847E-4,-1.2085284E-4,-6.1315936E-3,7.229751E-4,-3.1220212E-3,4.3909103E-3,4.0453483E-4],"split_indices":[4,4,2,4,6,0,4,0,0,0,0,0,0,0,0],"split_type":[0,0,0,0,0,0,0,0,0,0,0,0,0,0,0],"sum_hessian":[1.28E2,1.14E2,1.4E1,1.08E2,6E0,4E0,1E1,5.7E1,5.1E1,3E0,3E0,1E0,3E0,7E0,3E0],"tree_param":{"num_deleted":"0","num_feature":"12","num_nodes":"15","size_leaf_vector":"1"}},{"base_weights":[6.032007E-4,-1.1918528E-3,1.8204294E-2,-1.3090567E-2,6.680624E-4,2.7701559E-2,4.090103E-3,5.528918E-4,-2.8186713E-3,1.2339168E-3,-1.6201775E-4,3.2956197E-3,-1.913137E-4,-6.324684E-4,1.0878667E-3],"categories":[],"categories_nodes":[],"categories_segments":[],"categories_sizes":[],"default_left":[0,0,0,0,0,0,0,0,0,0,0,0,0,0,0],"id":31,"left_children":[1,3,5,7,9,11,13,-1,-1,-1,-1,-1,-1,-1,-1],"loss_changes":[4.09744E-3,2.6201562E-3,1.4952519E-3,4.653161E-3,2.7707396E-3,1.1523515E-3,4.9301283E-4,0E0,0E0,0E0,0E0,0E0,0E0,0E0,0E0],"parents":[2147483647,0,0,1,1,2,2,3,3,4,4,5,5,6,6],"right_children":[2,4,6,8,10,12,14,-1,-1,-1,-1,-1,-1,-1,-1],"split_conditions":[9.5714206E-1,-2.3748999E0,-5.759037E-1,-2.2987883E-1,-1.0689181E0,-7.5016755E-1,-4.301503E-1,5.528918E-4,-2.8186713E-3,1.2339168E-3,-1.6201775E-4,3.2956197E-3,-1.913137E-4,-6.324684E-4,1.0878667E-3],"split_indices":[6,3,0,4,6,1,0,0,0,0,0,0,0,0,0],"split_type":[0,0,0,0,0,0,0,0,0,0,0,0,0,0,0],"sum_hessian":[1.28E2,1.17E2,1.1E1,1.5E1,1.02E2,6E0,5E0,7E0,8E0,1.6E1,8.6E1,5E0,1E0,2E0,3E0],"tree_param":{"num_deleted":"0","num_feature":"12","num_nodes":"15","size_leaf_vector":"1"}},{"base_weights":[5.6122E-4,-2.6831198E-3,9.705203E-3,5.5202266E-4,-2.3380725E-2,1.8816836E-2,-6.4610397E-3,1.1197891E-3,-2.3163004E-4,1.1874944E-3,-3.5144917E-3,-6.116949E-5,2.9962547E-3,-1.7299652E-3,1.434067E-3],"categories":[],"categories_nodes":[],"categories_segments":[],"categories_sizes":[],"default_left":[0,0,0,0,0,0,0,0,0,0,0,0,0,0,0],"id":32,"left_children":[1,3,5,7,9,11,13,-1,-1,-1,-1,-1,-1,-1,-1],"loss_changes":[3.8529786E-3,6.441038E-3,5.1298067E-3,2.5909438E-3,5.8091525E-3,4.7823125E-3,3.1790899E-3,0E0,0E0,0E0,0E0,0E0,0E0,0E0,0E0],"parents":[2147483647,0,0,1,1,2,2,3,3,4,4,5,5,6,6],"right_children":[2,4,6,8,10,12,14,-1,-1,-1,-1,-1,-1,-1,-1],"split_conditions":[3.6619824E-1,1.6676772E-1,-4.6490315E-1,-1.4743594E0,4.2667803E-1,-1.2975729E0,5.014804E-1,1.1197891E-3,-2.3163004E-4,1.1874944E-3,-3.5144917E-3,-6.116949E-5,2.9962547E-3,-1.7299652E-3,1.434067E-3],"split_indices":[6,6,0,1,2,1,7,0,0,0,0,0,0,0,0],"split_type":[0,0,0,0,0,0,0,0,0,0,0,0,0,0,0],"sum_hessian":[1.28E2,9.5E1,3.3E1,8.3E1,1.2E1,2.1E1,1.2E1,1.7E1,6.6E1,3E0,9E0,8E0,1.3E1,8E0,4E0],"tree_param":{"num_deleted":"0","num_feature":"12","num_nodes":"15","size_leaf_vector":"1"}},{"base_weights":[5.144027E-4,-1.3445142E-3,1.4731806E-2,6.5197184E-4,-3.224058E-2,-2.0570304E-2,2.9438963E-2,-9.9529125E-6,2.7238184E-3,-1.8584753E-4,-5.456254E-3,6.3893775E-4,-2.890757E-3,3.866128E-3,3.6345926E-4],"categories":[],"categories_nodes":[],"categories_segments":[],"categories_sizes":[],"default_left":[0,0,0,0,0,0,0,0,0,0,0,0,0,0,0],"id":33,"left_children":[1,3,5,7,9,11,13,-1,-1,-1,-1,-1,-1,-1,-1],"loss_changes":[3.4291444E-3,7.11463E-3,8.393474E-3,2.1804832E-3,4.6459143E-3,1.3085515E-3,2.4772193E-3,0E0,0E0,0E0,0E0,0E0,0E0,0E0,0E0],"parents":[2147483647,0,0,1,1,2,2,3,3,4,4,5,5,6,6],"right_children":[2,4,6,8,10,12,14,-1,-1,-1,-1,-1,-1,-1,-1],"split_conditions":[8.9487064E-1,7.913325E-1,8.086127E-1,4.7283845E0,-3.7797564E-1,-8.649972E-1,1.0412414E0,-9.9529125E-6,2.7238184E-3,-1.8584753E-4,-5.456254E-3,6.3893775E-4,-2.890757E-3,3.866128E-3,3.6345926E-4],"split_indices":[4,4,2,2,6,0,4,0,0,0,0,0,0,0,0],"split_type":[0,0,0,0,0,0,0,0,0,0,0,0,0,0,0],"sum_hessian":[1.28E2,1.14E2,1.4E1,1.08E2,6E0,4E0,1E1,1.06E2,2E0,3E0,3E0,1E0,3E0,7E0,3E0],"tree_param":{"num_deleted":"0","num_feature":"12","num_nodes":"15","size_leaf_vector":"1"}},{"base_weights":[4.5559445E-4,-2.4454875E-3,8.633485E-3,4.3504988E-4,-2.0870076E-2,1.0479523E-3,2.6733968E-2,1.2751982E-3,-1.7948831E-4,-5.0759423E-3,-6.827333E-4,-5.066063E-4,3.4413047E-3,3.3796001E-3,7.6919235E-4],"categories":[],"categories_nodes":[],"categories_segments":[],"categories_sizes":[],"default_left":[0,0,0,0,0,0,0,0,0,0,0,0,0,0,0],"id":34,"left_children":[1,3,5,7,9,11,13,-1,-1,-1,-1,-1,-1,-1,-1],"loss_changes":[3.0816037E-3,5.1040608E-3,4.640246E-3,2.3300266E-3,5.109918E-3,5.274206E-3,1.084799E-3,0E0,0E0,0E0,0E0,0E0,0E0,0E0,0E0],"parents":[2147483647,0,0,1,1,2,2,3,3,4,4,5,5,6,6],"right_children":[2,4,6,8,10,12,14,-1,-1,-1,-1,-1,-1,-1,-1],"split_conditions":[3.6619824E-1,1.6676772E-1,5.488054E-1,7.248503E-2,-1.287735E0,-6.442152E-1,-3.9217475E-1,1.2751982E-3,-1.7948831E-4,-5.0759423E-3,-6.827333E-4,-5.066063E-4,3.4413047E-3,3.3796001E-3,7.6919235E-4],"split_indices":[6,6,7,2,3,1,0,0,0,0,0,0,0,0,0],"split_type":[0,0,0,0,0,0,0,0,0,0,0,0,0,0,0],"sum_hessian":[1.28E2,9.5E1,3.3E1,8.3E1,1.2E1,2.4E1,9E0,1.2E1,7.1E1,3E0,9E0,2.1E1,3E0,6E0,3E0],"tree_param":{"num_deleted":"0","num_feature":"12","num_nodes":"15","size_leaf_vector":"1"}},{"base_weights":[4.2879846E-4,-2.2425507E-3,8.267952E-3,3.266029E-3,-1.1263654E-2,-1.3046077E-3,2.512865E-2,1.0877958E-3,-2.322198E-4,-1.8580429E-3,7.7196717E-4,-1.0199223E-3,1.2676417E-3,3.6390338E-4,2.906267E-3],"categories":[],"categories_nodes":[],"categories_segments":[],"categories_sizes":[],"default_left":[0,0,0,0,0,0,0,0,0,0,0,0,0,0,0],"id":35,"left_children":[1,3,5,7,9,11,13,-1,-1,-1,-1,-1,-1,-1,-1],"loss_changes":[2.7199455E-3,4.857054E-3,5.3589838E-3,2.6200293E-3,5.2826134E-3,2.8651177E-3,9.0872636E-4,0E0,0E0,0E0,0E0,0E0,0E0,0E0,0E0],"parents":[2147483647,0,0,1,1,2,2,3,3,4,4,5,5,6,6],"right_children":[2,4,6,8,10,12,14,-1,-1,-1,-1,-1,-1,-1,-1],"split_conditions":[9.1765594E-1,2.5576797E-1,5.3394836E-1,-2.8035715E-1,8.9487064E-1,3.2719937E-1,-1.5712372E0,1.0877958E-3,-2.322198E-4,-1.8580429E-3,7.7196717E-4,-1.0199223E-3,1.2676417E-3,3.6390338E-4,2.906267E-3],"split_indices":[7,4,5,6,4,4,1,0,0,0,0,0,0,0,0],"split_type":[0,0,0,0,0,0,0,0,0,0,0,0,0,0,0],"sum_hessian":[1.28E2,9.6E1,3.2E1,6E1,3.6E1,2.1E1,1.1E1,2.5E1,3.5E1,2.6E1,1E1,1.3E1,8E0,2E0,9E0],"tree_param":{"num_deleted":"0","num_feature":"12","num_nodes":"15","size_leaf_vector":"1"}},{"base_weights":[4.114023E-4,-2.2752476E-3,7.985137E-3,8.6934415E-5,-2.0536376E-2,1.55741135E-2,-5.471986E-3,-6.7898705E-5,3.2595128E-3,-5.094583E-5,-4.446679E-3,-8.5715896E-5,2.5024638E-3,-1.431053E-3,1.1531793E-3],"categories":[],"categories_nodes":[],"categories_segments":[],"categories_sizes":[],"default_left":[0,0,0,0,0,0,0,0,0,0,0,0,0,0,0],"id":36,"left_children":[1,3,5,7,9,11,13,-1,-1,-1,-1,-1,-1,-1,-1],"loss_changes":[2.6430571E-3,4.1428525E-3,3.5574976E-3,2.1634216E-3,5.2491217E-3,3.4377011E-3,2.1187784E-3,0E0,0E0,0E0,0E0,0E0,0E0,0E0,0E0],"parents":[2147483647,0,0,1,1,2,2,3,3,4,4,5,5,6,6],"right_children":[2,4,6,8,10,12,14,-1,-1,-1,-1,-1,-1,-1,-1],"split_conditions":[3.6619824E-1,2.0376636E-1,-4.6490315E-1,4.7067204E0,-8.335512E-1,-1.2975729E0,5.014804E-1,-6.7898705E-5,3.2595128E-3,-5.094583E-5,-4.446679E-3,-8.5715896E-5,2.5024638E-3,-1.431053E-3,1.1531793E-3],"split_indices":[6,6,0,2,1,1,7,0,0,0,0,0,0,0,0],"split_type":[0,0,0,0,0,0,0,0,0,0,0,0,0,0,0],"sum_hessian":[1.28E2,9.5E1,3.3E1,8.5E1,1E1,2.1E1,1.2E1,8.4E1,1E0,6E0,4E0,8E0,1.3E1,8E0,4E0],"tree_param":{"num_deleted":"0","num_feature":"12","num_nodes":"15","size_leaf_vector":"1"}},{"base_weights":[3.7671797E-4,-1.0078379E-2,2.053638E-3,-3.9896662E-3,-3.9192056E-3,-8.040224E-4,1.2565227E-2,2.7076536E-4,-1.92653E-3,9.1717875E-4,-6.031922E-4,1.0760817E-4,2.6045484E-3],"categories":[],"categories_nodes":[],"categories_segments":[],"categories_sizes":[],"default_left":[0,0,0,0,0,0,0,0,0,0,0,0,0],"id":37,"left_children":[1,3,5,7,-1,9,11,-1,-1,-1,-1,-1,-1],"loss_changes":[2.282372E-3,3.034403E-3,3.3744208E-3,1.6890566E-3,0E0,4.696899E-3,3.6890113E-3,0E0,0E0,0E0,0E0,0E0,0E0],"parents":[2147483647,0,0,1,1,2,2,3,3,5,5,6,6],"right_children":[2,4,6,8,-1,10,12,-1,-1,-1,-1,-1,-1],"split_conditions":[-2.3748999E0,-2.4536812E0,5.0365794E-1,8.1006193E-1,-3.9192056E-3,-1.2959232E0,-9.729239E-1,2.7076536E-4,-1.92653E-3,9.1717875E-4,-6.031922E-4,1.0760817E-4,2.6045484E-3],"split_indices":[3,3,6,7,0,1,1,0,0,0,0,0,0],"split_type":[0,0,0,0,0,0,0,0,0,0,0,0,0],"sum_hessian":[1.28E2,1.7E1,1.11E2,1.5E1,2E0,8.8E1,2.3E1,1.1E1,4E0,3E1,5.8E1,1.3E1,1E1],"tree_param":{"num_deleted":"0","num_feature":"12","num_nodes":"13","size_leaf_vector":"1"}},{"base_weights":[3.1928788E-4,-2.0580976E-3,7.297685E-3,2.7685834E-3,-9.959974E-3,-1.1320227E-3,2.2144008E-2,9.805517E-4,-2.3905517E-4,-1.5196035E-3,8.01844E-4,-9.118722E-4,1.1417512E-3,2.5968635E-3,2.0139178E-4],"categories":[],"categories_nodes":[],"categories_segments":[],"categories_sizes":[],"default_left":[0,0,0,0,0,0,0,0,0,0,0,0,0,0,0],"id":38,"left_children":[1,3,5,7,9,11,13,-1,-1,-1,-1,-1,-1,-1,-1],"loss_changes":[2.155173E-3,3.7271394E-3,4.155023E-3,2.2380147E-3,3.6048826E-3,2.309159E-3,8.715824E-4,0E0,0E0,0E0,0E0,0E0,0E0,0E0,0E0],"parents":[2147483647,0,0,1,1,2,2,3,3,4,4,5,5,6,6],"right_children":[2,4,6,8,10,12,14,-1,-1,-1,-1,-1,-1,-1,-1],"split_conditions":[9.1765594E-1,2.5576797E-1,5.3394836E-1,-2.8035715E-1,9.5116246E-1,3.2719937E-1,-4.2134687E-1,9.805517E-4,-2.3905517E-4,-1.5196035E-3,8.01844E-4,-9.118722E-4,1.1417512E-3,2.5968635E-3,2.0139178E-4],"split_indices":[7,4,5,6,4,4,0,0,0,0,0,0,0,0,0],"split_type":[0,0,0,0,0,0,0,0,0,0,0,0,0,0,0],"sum_hessian":[1.28E2,9.6E1,3.2E1,6E1,3.6E1,2.1E1,1.1E1,2.5E1,3.5E1,2.8E1,8E0,1.3E1,8E0,9E0,2E0],"tree_param":{"num_deleted":"0","num_feature":"12","num_nodes":"15","size_leaf_vector":"1"}},{"base_weights":[3.1101675E-4,-9.3953224E-4,1.2582164E-2,-2.9215578E-3,7.842104E-3,2.4000672E-3,1.9512223E-2,-4.3424974E-5,-2.0503802E-3,1.2935427E-3,-2.8727418E-3,1.2686789E-3,-2.1946352E-4,2.2649767E-3,3.4347922E-5],"categories":[],"categories_nodes":[],"categories_segments":[],"categories_sizes":[],"default_left":[0,0,0,0,0,0,0,0,0,0,0,0,0,0,0],"id":39,"left_children":[1,3,5,7,9,11,13,-1,-1,-1,-1,-1,-1,-1,-1],"loss_changes":[1.9914128E-3,2.0767516E-3,7.999198E-4,4.233144E-3,4.46933E-3,3.114294E-4,4.1321944E-4,0E0,0E0,0E0,0E0,0E0,0E0,0E0,0E0],"parents":[2147483647,0,0,1,1,2,2,3,3,4,4,5,5,6,6],"right_children":[2,4,6,8,10,12,14,-1,-1,-1,-1,-1,-1,-1,-1],"split_conditions":[9.5714206E-1,-6.5495217E-1,-1.0466257E0,-7.596369E-1,4.21644E0,-8.8731843E-1,1.4263196E0,-4.3424974E-5,-2.0503802E-3,1.2935427E-3,-2.8727418E-3,1.2686789E-3,-2.1946352E-4,2.2649767E-3,3.4347922E-5],"split_indices":[6,1,3,1,2,0,3,0,0,0,0,0,0,0,0],"split_type":[0,0,0,0,0,0,0,0,0,0,0,0,0,0,0],"sum_hessian":[1.28E2,1.17E2,1.1E1,9.6E1,2.1E1,5E0,6E0,8.5E1,1.1E1,1.9E1,2E0,1E0,4E0,5E0,1E0],"tree_param":{"num_deleted":"0","num_feature":"12","num_nodes":"15","size_leaf_vector":"1"}},{"base_weights":[2.7740002E-4,-9.150521E-3,1.8886891E-3,2.8079455E-3,-1.8102854E-2,-5.207595E-4,1.0644639E-2,-7.9545984E-4,7.0193294E-4,-7.169882E-5,-2.793521E-3,8.703514E-4,-5.2022416E-4,6.24659E-5,2.2429645E-3],"categories":[],"categories_nodes":[],"categories_segments":[],"categories_sizes":[],"default_left":[0,0,0,0,0,0,0,0,0,0,0,0,0,0,0],"id":40,"left_children":[1,3,5,7,9,11,13,-1,-1,-1,-1,-1,-1,-1,-1],"loss_changes":[1.976935E-3,2.0848995E-3,2.3473117E-3,4.637628E-4,1.860355E-3,3.8454058E-3,2.8200413E-3,0E0,0E0,0E0,0E0,0E0,0E0,0E0,0E0],"parents":[2147483647,0,0,1,1,2,2,3,3,4,4,5,5,6,6],"right_children":[2,4,6,8,10,12,14,-1,-1,-1,-1,-1,-1,-1,-1],"split_conditions":[-2.2752845E0,-1.989434E-1,5.0365794E-1,-1.4733346E0,-1.1256324E0,-1.2959232E0,-9.729239E-1,-7.9545984E-4,7.0193294E-4,-7.169882E-5,-2.793521E-3,8.703514E-4,-5.2022416E-4,6.24659E-5,2.2429645E-3],"split_indices":[3,4,6,1,5,1,1,0,0,0,0,0,0,0,0],"split_type":[0,0,0,0,0,0,0,0,0,0,0,0,0,0,0],"sum_hessian":[1.28E2,1.8E1,1.1E2,8E0,1E1,8.7E1,2.3E1,2E0,6E0,4E0,6E0,2.9E1,5.8E1,1.3E1,1E1],"tree_param":{"num_deleted":"0","num_feature":"12","num_nodes":"15","size_leaf_vector":"1"}},{"base_weights":[2.4730986E-4,-3.513011E-4,2.550607E-2,-2.732789E-3,6.5151425E-3,3.2062002E-3,6.1971036E-4,1.2879228E-4,-9.358064E-4,-1.00137426E-4,1.9752495E-3],"categories":[],"categories_nodes":[],"categories_segments":[],"categories_sizes":[],"default_left":[0,0,0,0,0,0,0,0,0,0,0],"id":41,"left_children":[1,3,5,7,9,-1,-1,-1,-1,-1,-1],"loss_changes":[1.9594622E-3,2.0945529E-3,1.8107344E-4,2.542693E-3,3.3032394E-3,0E0,0E0,0E0,0E0,0E0,0E0],"parents":[2147483647,0,0,1,1,2,2,3,3,4,4],"right_children":[2,4,6,8,10,-1,-1,-1,-1,-1,-1],"split_conditions":[4.7283845E0,9.1765594E-1,-8.0326754E-1,2.5576797E-1,5.3394836E-1,3.2062002E-3,6.1971036E-4,1.2879228E-4,-9.358064E-4,-1.00137426E-4,1.9752495E-3],"split_indices":[2,7,0,4,5,0,0,0,0,0,0],"split_type":[0,0,0,0,0,0,0,0,0,0,0],"sum_hessian":[1.28E2,1.26E2,2E0,9.4E1,3.2E1,1E0,1E0,5.9E1,3.5E1,2.1E1,1.1E1],"tree_param":{"num_deleted":"0","num_feature":"12","num_nodes":"11","size_leaf_vector":"1"}},{"base_weights":[2.6051688E-4,-3.0776087E-4,2.4230769E-2,6.0167647E-4,-1.598407E-2,3.0458905E-3,5.887248E-4,-1.5727912E-4,1.1661379E-3,1.1467365E-4,-3.920739E-3],"categories":[],"categories_nodes":[],"categories_segments":[],"categories_sizes":[],"default_left":[0,0,0,0,0,0,0,0,0,0,0],"id":42,"left_children":[1,3,5,7,9,-1,-1,-1,-1,-1,-1],"loss_changes":[1.7646644E-3,1.8202079E-3,1.634187E-4,2.9282656E-3,2.8298E-3,0E0,0E0,0E0,0E0,0E0,0E0],"parents":[2147483647,0,0,1,1,2,2,3,3,4,4],"right_children":[2,4,6,8,10,-1,-1,-1,-1,-1,-1],"split_conditions":[4.7283845E0,4.502506E0,-8.0326754E-1,-6.442152E-1,7.039706E-2,3.0458905E-3,5.887248E-4,-1.5727912E-4,1.1661379E-3,1.1467365E-4,-3.920739E-3],"split_indices":[2,2,0,1,4,0,0,0,0,0,0],"split_type":[0,0,0,0,0,0,0,0,0,0,0],"sum_hessian":[1.28E2,1.26E2,2E0,1.2E2,6E0,1E0,1E0,1.01E2,1.9E1,4E0,2E0],"tree_param":{"num_deleted":"0","num_feature":"12","num_nodes":"11","size_leaf_vector":"1"}},{"base_weights":[2.4095672E-4,-8.338686E-3,1.7073735E-3,2.2177713E-3,-1.6217725E-2,-4.2233916E-4,9.445179E-3,8.3124434E-4,-4.3204552E-4,-4.8428814E-5,-2.5139078E-3,7.94456E-4,-4.6695358E-4,-4.881721E-4,1.5631652E-3],"categories":[],"categories_nodes":[],"categories_segments":[],"categories_sizes":[],"default_left":[0,0,0,0,0,0,0,0,0,0,0,0,0,0,0],"id":43,"left_children":[1,3,5,7,9,11,13,-1,-1,-1,-1,-1,-1,-1,-1],"loss_changes":[1.6372292E-3,1.6162875E-3,1.8331917E-3,3.945487E-4,1.531824E-3,3.1642537E-3,2.2035006E-3,0E0,0E0,0E0,0E0,0E0,0E0,0E0,0E0],"parents":[2147483647,0,0,1,1,2,2,3,3,4,4,5,5,6,6],"right_children":[2,4,6,8,10,12,14,-1,-1,-1,-1,-1,-1,-1,-1],"split_conditions":[-2.2752845E0,-1.989434E-1,5.0365794E-1,-6.277136E-1,-1.1256324E0,-1.2959232E0,-1.2975729E0,8.3124434E-4,-4.3204552E-4,-4.8428814E-5,-2.5139078E-3,7.94456E-4,-4.6695358E-4,-4.881721E-4,1.5631652E-3],"split_indices":[3,4,6,0,5,1,1,0,0,0,0,0,0,0,0],"split_type":[0,0,0,0,0,0,0,0,0,0,0,0,0,0,0],"sum_hessian":[1.28E2,1.8E1,1.1E2,8E0,1E1,8.7E1,2.3E1,4E0,4E0,4E0,6E0,2.9E1,5.8E1,7E0,1.6E1],"tree_param":{"num_deleted":"0","num_feature":"12","num_nodes":"15","size_leaf_vector":"1"}},{"base_weights":[2.109649E-4,-3.2689545E-4,2.2910066E-2,-2.5059774E-3,5.956125E-3,2.916944E-3,5.195658E-4,-4.5655543E-4,7.212408E-4,-8.435317E-5,1.792582E-3],"categories":[],"categories_nodes":[],"categories_segments":[],"categories_sizes":[],"default_left":[0,0,0,0,0,0,0,0,0,0,0],"id":44,"left_children":[1,3,5,7,9,-1,-1,-1,-1,-1,-1],"loss_changes":[1.5824434E-3,1.7537104E-3,1.8108892E-4,1.9344259E-3,2.7009845E-3,0E0,0E0,0E0,0E0,0E0,0E0],"parents":[2147483647,0,0,1,1,2,2,3,3,4,4],"right_children":[2,4,6,8,10,-1,-1,-1,-1,-1,-1],"split_conditions":[4.7283845E0,9.1765594E-1,-8.0326754E-1,-6.442152E-1,5.3394836E-1,2.916944E-3,5.195658E-4,-4.5655543E-4,7.212408E-4,-8.435317E-5,1.792582E-3],"split_indices":[2,7,0,1,5,0,0,0,0,0,0],"split_type":[0,0,0,0,0,0,0,0,0,0,0],"sum_hessian":[1.28E2,1.26E2,2E0,9.4E1,3.2E1,1E0,1E0,7.8E1,1.6E1,2.1E1,1.1E1],"tree_param":{"num_deleted":"0","num_feature":"12","num_nodes":"11","size_leaf_vector":"1"}},{"base_weights":[2.3180152E-4,-8.6909655E-4,1.1037982E-2,9.121862E-3,-2.4126524E-3,1.6822241E-2,2.4500166E-3,4.8299415E-5,1.4256885E-3,7.164628E-4,-4.525072E-4,3.6763563E-4,2.1345324E-3,-3.181223E-4,9.141664E-4],"categories":[],"categories_nodes":[],"categories_segments":[],"categories_sizes":[],"default_left":[0,0,0,0,0,0,0,0,0,0,0,0,0,0,0],"id":45,"left_children":[1,3,5,7,9,11,13,-1,-1,-1,-1,-1,-1,-1,-1],"loss_changes":[1.544242E-3,1.841757E-3,5.5488525E-4,7.028866E-4,2.1162373E-3,3.3774646E-4,2.5517526E-4,0E0,0E0,0E0,0E0,0E0,0E0,0E0,0E0],"parents":[2147483647,0,0,1,1,2,2,3,3,4,4,5,5,6,6],"right_children":[2,4,6,8,10,12,14,-1,-1,-1,-1,-1,-1,-1,-1],"split_conditions":[9.5714206E-1,7.248503E-2,-5.759037E-1,-2.7629003E-1,-1.0689181E0,2.832011E0,-3.7923643E-1,4.8299415E-5,1.4256885E-3,7.164628E-4,-4.525072E-4,3.6763563E-4,2.1345324E-3,-3.181223E-4,9.141664E-4],"split_indices":[6,2,0,2,6,2,0,0,0,0,0,0,0,0,0],"split_type":[0,0,0,0,0,0,0,0,0,0,0,0,0,0,0],"sum_hessian":[1.28E2,1.17E2,1.1E1,1.5E1,1.02E2,6E0,5E0,6E0,9E0,1.8E1,8.4E1,2E0,4E0,3E0,2E0],"tree_param":{"num_deleted":"0","num_feature":"12","num_nodes":"15","size_leaf_vector":"1"}},{"base_weights":[2.461107E-4,-2.6205863E-4,2.1676576E-2,-1.5330841E-3,9.33047E-3,2.7352737E-3,5.1621284E-4,-2.0294277E-5,-2.1646232E-3,-1.9665612E-3,2.1662284E-3],"categories":[],"categories_nodes":[],"categories_segments":[],"categories_sizes":[],"default_left":[0,0,0,0,0,0,0,0,0,0,0],"id":46,"left_children":[1,3,5,7,9,-1,-1,-1,-1,-1,-1],"loss_changes":[1.41053E-3,1.5627326E-3,1.400176E-4,3.018733E-3,5.789616E-3,0E0,0E0,0E0,0E0,0E0,0E0],"parents":[2147483647,0,0,1,1,2,2,3,3,4,4],"right_children":[2,4,6,8,10,-1,-1,-1,-1,-1,-1],"split_conditions":[4.7283845E0,8.9487064E-1,-8.0326754E-1,7.913325E-1,8.086127E-1,2.7352737E-3,5.1621284E-4,-2.0294277E-5,-2.1646232E-3,-1.9665612E-3,2.1662284E-3],"split_indices":[2,4,0,4,2,0,0,0,0,0,0],"split_type":[0,0,0,0,0,0,0,0,0,0,0],"sum_hessian":[1.28E2,1.26E2,2E0,1.12E2,1.4E1,1E0,1E0,1.06E2,6E0,4E0,1E1],"tree_param":{"num_deleted":"0","num_feature":"12","num_nodes":"11","size_leaf_vector":"1"}},{"base_weights":[2.3131537E-4,-7.6281196E-3,1.4923735E-3,-2.9686582E-3,-2.9935874E-3,-3.4286737E-4,8.235876E-3,3.3233865E-4,-1.4009298E-3,6.687118E-4,-4.4068438E-4,2.878223E-4,2.3829134E-3],"categories":[],"categories_nodes":[],"categories_segments":[],"categories_sizes":[],"default_left":[0,0,0,0,0,0,0,0,0,0,0,0,0],"id":47,"left_children":[1,3,5,7,-1,9,11,-1,-1,-1,-1,-1,-1],"loss_changes":[1.2899295E-3,1.7820887E-3,1.3889305E-3,1.1580493E-3,0E0,2.5721716E-3,1.9364525E-3,0E0,0E0,0E0,0E0,0E0,0E0],"parents":[2147483647,0,0,1,1,2,2,3,3,5,5,6,6],"right_children":[2,4,6,8,-1,10,12,-1,-1,-1,-1,-1,-1],"split_conditions":[-2.3748999E0,-2.4536812E0,5.0365794E-1,9.486368E-2,-2.9935874E-3,-1.2499477E0,1.0305465E0,3.3233865E-4,-1.4009298E-3,6.687118E-4,-4.4068438E-4,2.878223E-4,2.3829134E-3],"split_indices":[3,3,6,7,0,1,7,0,0,0,0,0,0],"split_type":[0,0,0,0,0,0,0,0,0,0,0,0,0],"sum_hessian":[1.28E2,1.7E1,1.11E2,1.5E1,2E0,8.8E1,2.3E1,1E1,5E0,3.2E1,5.6E1,1.8E1,5E0],"tree_param":{"num_deleted":"0","num_feature":"12","num_nodes":"13","size_leaf_vector":"1"}},{"base_weights":[1.9916533E-4,-2.823456E-4,2.0516738E-2,8.463391E-3,-1.5292156E-3,2.6205443E-3,4.5696655E-4,1.7466577E-4,1.4961794E-3,-4.087595E-4,4.99447E-4],"categories":[],"categories_nodes":[],"categories_segments":[],"categories_sizes":[],"default_left":[0,0,0,0,0,0,0,0,0,0,0],"id":48,"left_children":[1,3,5,7,9,-1,-1,-1,-1,-1,-1],"loss_changes":[1.267817E-3,1.3978517E-3,1.5240442E-4,6.722355E-4,1.8897019E-3,0E0,0E0,0E0,0E0,0E0,0E0],"parents":[2147483647,0,0,1,1,2,2,3,3,4,4],"right_children":[2,4,6,8,10,-1,-1,-1,-1,-1,-1],"split_conditions":[4.7283845E0,7.248503E-2,-8.0326754E-1,-1.1715541E0,3.6619824E-1,2.6205443E-3,4.5696655E-4,1.7466577E-4,1.4961794E-3,-4.087595E-4,4.99447E-4],"split_indices":[2,2,0,1,6,0,0,0,0,0,0],"split_type":[0,0,0,0,0,0,0,0,0,0,0],"sum_hessian":[1.28E2,1.26E2,2E0,1.5E1,1.11E2,1E0,1E0,8E0,7E0,8E1,3.1E1],"tree_param":{"num_deleted":"0","num_feature":"12","num_nodes":"11","size_leaf_vector":"1"}},{"base_weights":[2.1676054E-4,-2.4024089E-4,1.9490901E-2,5.3083966E-4,-1.3534599E-2,2.489517E-3,4.3411824E-4,-1.2803487E-4,9.741359E-4,1.9160895E-4,-3.4774214E-3],"categories":[],"categories_nodes":[],"categories_segments":[],"categories_sizes":[],"default_left":[0,0,0,0,0,0,0,0,0,0,0],"id":49,"left_children":[1,3,5,7,9,-1,-1,-1,-1,-1,-1],"loss_changes":[1.1409544E-3,1.3090644E-3,1.3754494E-4,2.0309924E-3,2.3637973E-3,0E0,0E0,0E0,0E0,0E0,0E0],"parents":[2147483647,0,0,1,1,2,2,3,3,4,4],"right_children":[2,4,6,8,10,-1,-1,-1,-1,-1,-1],"split_conditions":[4.7283845E0,4.502506E0,-8.0326754E-1,-6.442152E-1,7.039706E-2,2.489517E-3,4.3411824E-4,-1.2803487E-4,9.741359E-4,1.9160895E-4,-3.4774214E-3],"split_indices":[2,2,0,1,4,0,0,0,0,0,0],"split_type":[0,0,0,0,0,0,0,0,0,0,0],"sum_hessian":[1.28E2,1.26E2,2E0,1.2E2,6E0,1E0,1E0,1.01E2,1.9E1,4E0,2E0],"tree_param":{"num_deleted":"0","num_feature":"12","num_nodes":"11","size_leaf_vector":"1"}},{"base_weights":[1.9883558E-4,-6.8925684E-3,1.4108882E-3,2.1996233E-3,-1.3705037E-2,2.1434517E-3,-1.4548147E-2,8.075133E-4,-4.1158116E-4,-6.658202E-5,-2.10609E-3,6.93687E-5,2.6432208E-3,-2.439185E-3,1.4493894E-5],"categories":[],"categories_nodes":[],"categories_segments":[],"categories_sizes":[],"default_left":[0,0,0,0,0,0,0,0,0,0,0,0,0,0,0],"id":50,"left_children":[1,3,5,7,9,11,13,-1,-1,-1,-1,-1,-1,-1,-1],"loss_changes":[1.1184996E-3,1.207011E-3,1.328885E-3,3.6719337E-4,1.0410389E-3,3.749453E-3,7.2670716E-4,0E0,0E0,0E0,0E0,0E0,0E0,0E0,0E0],"parents":[2147483647,0,0,1,1,2,2,3,3,4,4,5,5,6,6],"right_children":[2,4,6,8,10,12,14,-1,-1,-1,-1,-1,-1,-1,-1],"split_conditions":[-2.2752845E0,-1.989434E-1,1.0412414E0,-6.277136E-1,-1.1256324E0,9.5116246E-1,8.086127E-1,8.075133E-4,-4.1158116E-4,-6.658202E-5,-2.10609E-3,6.93687E-5,2.6432208E-3,-2.439185E-3,1.4493894E-5],"split_indices":[3,4,4,0,5,4,2,0,0,0,0,0,0,0,0],"split_type":[0,0,0,0,0,0,0,0,0,0,0,0,0,0,0],"sum_hessian":[1.28E2,1.8E1,1.1E2,8E0,1E1,1.06E2,4E0,4E0,4E0,4E0,6E0,1.01E2,5E0,2E0,2E0],"tree_param":{"num_deleted":"0","num_feature":"12","num_nodes":"15","size_leaf_vector":"1"}},{"base_weights":[1.6741025E-4,-5.0969707E-4,1.2041237E-2,7.5698225E-3,-1.7019435E-3,1.5898477E-3,1.5987585E-4,9.404504E-4,-9.975204E-4,-4.085885E-4,4.0876013E-4],"categories":[],"categories_nodes":[],"categories_segments":[],"categories_sizes":[],"default_left":[0,0,0,0,0,0,0,0,0,0,0],"id":51,"left_children":[1,3,5,7,9,-1,-1,-1,-1,-1,-1],"loss_changes":[1.0432787E-3,1.1977152E-3,2.5653606E-4,6.088445E-4,1.5073104E-3,0E0,0E0,0E0,0E0,0E0,0E0],"parents":[2147483647,0,0,1,1,2,2,3,3,4,4],"right_children":[2,4,6,8,10,-1,-1,-1,-1,-1,-1],"split_conditions":[1.6362791E0,7.248503E-2,-4.2134687E-1,3.5106328E-1,3.6619824E-1,1.5898477E-3,1.5987585E-4,9.404504E-4,-9.975204E-4,-4.085885E-4,4.0876013E-4],"split_indices":[7,2,0,6,6,0,0,0,0,0,0],"split_type":[0,0,0,0,0,0,0,0,0,0,0],"sum_hessian":[1.28E2,1.22E2,6E0,1.5E1,1.07E2,4E0,2E0,1.4E1,1E0,7.6E1,3.1E1],"tree_param":{"num_deleted":"0","num_feature":"12","num_nodes":"11","size_leaf_vector":"1"}},{"base_weights":[1.6379215E-4,-2.6992892E-4,1.8470053E-2,4.4814465E-4,-1.2643782E-2,2.382002E-3,3.8850596E-4,-1.1665027E-4,8.6604396E-4,1.6365763E-4,-3.2229784E-3],"categories":[],"categories_nodes":[],"categories_segments":[],"categories_sizes":[],"default_left":[0,0,0,0,0,0,0,0,0,0,0],"id":52,"left_children":[1,3,5,7,9,-1,-1,-1,-1,-1,-1],"loss_changes":[1.0292212E-3,1.1341041E-3,1.4154555E-4,1.6145576E-3,2.0106127E-3,0E0,0E0,0E0,0E0,0E0,0E0],"parents":[2147483647,0,0,1,1,2,2,3,3,4,4],"right_children":[2,4,6,8,10,-1,-1,-1,-1,-1,-1],"split_conditions":[4.7283845E0,4.502506E0,-8.0326754E-1,-6.442152E-1,7.039706E-2,2.382002E-3,3.8850596E-4,-1.1665027E-4,8.6604396E-4,1.6365763E-4,-3.2229784E-3],"split_indices":[2,2,0,1,4,0,0,0,0,0,0],"split_type":[0,0,0,0,0,0,0,0,0,0,0],"sum_hessian":[1.28E2,1.26E2,2E0,1.2E2,6E0,1E0,1E0,1.01E2,1.9E1,4E0,2E0],"tree_param":{"num_deleted":"0","num_feature":"12","num_nodes":"11","size_leaf_vector":"1"}},{"base_weights":[1.5098313E-4,-2.6112466E-4,1.7546553E-2,-1.983412E-3,4.7048884E-3,2.2629022E-3,3.6908063E-4,2.619831E-4,-5.6806963E-4,-1.7742076E-4,1.6191157E-3],"categories":[],"categories_nodes":[],"categories_segments":[],"categories_sizes":[],"default_left":[0,0,0,0,0,0,0,0,0,0,0],"id":53,"left_children":[1,3,5,7,9,-1,-1,-1,-1,-1,-1],"loss_changes":[9.293635E-4,1.0955503E-3,1.2774486E-4,1.6317347E-3,2.4846075E-3,0E0,0E0,0E0,0E0,0E0,0E0],"parents":[2147483647,0,0,1,1,2,2,3,3,4,4],"right_children":[2,4,6,8,10,-1,-1,-1,-1,-1,-1],"split_conditions":[4.7283845E0,9.1765594E-1,-8.0326754E-1,-2.8035715E-1,5.3394836E-1,2.2629022E-3,3.6908063E-4,2.619831E-4,-5.6806963E-4,-1.7742076E-4,1.6191157E-3],"split_indices":[2,7,0,6,5,0,0,0,0,0,0],"split_type":[0,0,0,0,0,0,0,0,0,0,0],"sum_hessian":[1.28E2,1.26E2,2E0,9.4E1,3.2E1,1E0,1E0,4.2E1,5.2E1,2.1E1,1.1E1],"tree_param":{"num_deleted":"0","num_feature":"12","num_nodes":"11","size_leaf_vector":"1"}},{"base_weights":[1.6509088E-4,-7.044495E-4,8.701813E-3,3.3263236E-3,-3.3258647E-3,1.3983325E-2,1.089748E-3,1.0602543E-3,-1.15028524E-4,-6.3512253E-4,9.66143E-4,3.853328E-4,1.7264659E-3,-3.9269385E-4,7.415414E-4],"categories":[],"categories_nodes":[],"categories_segments":[],"categories_sizes":[],"default_left":[0,0,0,0,0,0,0,0,0,0,0,0,0,0,0],"id":54,"left_children":[1,3,5,7,9,11,13,-1,-1,-1,-1,-1,-1,-1,-1],"loss_changes":[9.637001E-4,1.2578899E-3,4.6720036E-4,1.5431168E-3,2.8903317E-3,1.6615295E-4,2.1952316E-4,0E0,0E0,0E0,0E0,0E0,0E0,0E0,0E0],"parents":[2147483647,0,0,1,1,2,2,3,3,4,4,5,5,6,6],"right_children":[2,4,6,8,10,12,14,-1,-1,-1,-1,-1,-1,-1,-1],"split_conditions":[9.5714206E-1,-5.052109E-1,-5.759037E-1,-3.410314E-1,1.835904E0,2.832011E0,-3.7923643E-1,1.0602543E-3,-1.15028524E-4,-6.3512253E-4,9.66143E-4,3.853328E-4,1.7264659E-3,-3.9269385E-4,7.415414E-4],"split_indices":[6,6,0,7,3,2,0,0,0,0,0,0,0,0,0],"split_type":[0,0,0,0,0,0,0,0,0,0,0,0,0,0,0],"sum_hessian":[1.28E2,1.17E2,1.1E1,4.6E1,7.1E1,6E0,5E0,1.7E1,2.9E1,5.8E1,1.3E1,2E0,4E0,3E0,2E0],"tree_param":{"num_deleted":"0","num_feature":"12","num_nodes":"15","size_leaf_vector":"1"}},{"base_weights":[1.7754918E-4,-6.327366E-3,1.2213967E-3,-2.3180773E-3,-2.5601117E-3,1.8223872E-3,-1.5460944E-2,2.84714E-4,-1.1401296E-3,-4.256826E-5,6.7938847E-4,-2.1223046E-3,9.126815E-5],"categories":[],"categories_nodes":[],"categories_segments":[],"categories_sizes":[],"default_left":[0,0,0,0,0,0,0,0,0,0,0,0,0],"id":55,"left_children":[1,3,5,7,-1,9,11,-1,-1,-1,-1,-1,-1],"loss_changes":[8.836562E-4,1.3315872E-3,1.1510798E-3,7.831298E-4,0E0,1.2211057E-3,3.9675593E-4,0E0,0E0,0E0,0E0,0E0,0E0],"parents":[2147483647,0,0,1,1,2,2,3,3,5,5,6,6],"right_children":[2,4,6,8,-1,10,12,-1,-1,-1,-1,-1,-1],"split_conditions":[-2.3748999E0,-2.4536812E0,1.566726E0,9.486368E-2,-2.5601117E-3,5.8209884E-1,-6.560728E-1,2.84714E-4,-1.1401296E-3,-4.256826E-5,6.7938847E-4,-2.1223046E-3,9.126815E-5],"split_indices":[3,3,5,7,0,5,0,0,0,0,0,0,0],"split_type":[0,0,0,0,0,0,0,0,0,0,0,0,0],"sum_hessian":[1.28E2,1.7E1,1.11E2,1.5E1,2E0,1.08E2,3E0,1E1,5E0,7.5E1,3.3E1,2E0,1E0],"tree_param":{"num_deleted":"0","num_feature":"12","num_nodes":"13","size_leaf_vector":"1"}},{"base_weights":[1.2250953E-4,-8.064483E-4,7.236352E-3,-2.397339E-4,-3.2705944E-3,-1.6665101E-2,1.7442798E-2,7.249654E-4,-1.3607448E-4,2.2562705E-4,-2.1959513E-3,2.436365E-3,-7.596044E-5],"categories":[],"categories_nodes":[],"categories_segments":[],"categories_sizes":[],"default_left":[0,0,0,0,0,0,0,0,0,0,0,0,0],"id":56,"left_children":[1,3,5,7,-1,9,11,-1,-1,-1,-1,-1,-1],"loss_changes":[8.58327E-4,2.0711182E-3,3.9499197E-3,9.6697314E-4,0E0,5.504341E-4,1.404244E-3,0E0,0E0,0E0,0E0,0E0,0E0],"parents":[2147483647,0,0,1,1,2,2,3,3,5,5,6,6],"right_children":[2,4,6,8,-1,10,12,-1,-1,-1,-1,-1,-1],"split_conditions":[8.9487064E-1,8.5522324E-1,8.086127E-1,-1.529142E0,-3.2705944E-3,-8.649972E-1,1.0412414E0,7.249654E-4,-1.3607448E-4,2.2562705E-4,-2.1959513E-3,2.436365E-3,-7.596044E-5],"split_indices":[4,4,2,1,0,0,4,0,0,0,0,0,0],"split_type":[0,0,0,0,0,0,0,0,0,0,0,0,0],"sum_hessian":[1.28E2,1.14E2,1.4E1,1.13E2,1E0,4E0,1E1,1.4E1,9.9E1,1E0,3E0,7E0,3E0],"tree_param":{"num_deleted":"0","num_feature":"12","num_nodes":"13","size_leaf_vector":"1"}},{"base_weights":[9.24942E-5,6.7868126E-3,-8.478706E-4,1.5574066E-3,2.559889E-3,-7.2104027E-3,8.394772E-4,-6.2549766E-4,1.241725E-3,-8.71506E-5,-1.977926E-3,-1.2179221E-4,1.5913101E-3],"categories":[],"categories_nodes":[],"categories_segments":[],"categories_sizes":[],"default_left":[0,0,0,0,0,0,0,0,0,0,0,0,0],"id":57,"left_children":[1,3,5,-1,7,9,11,-1,-1,-1,-1,-1,-1],"loss_changes":[8.178224E-4,5.544208E-4,1.2299346E-3,0E0,1.1203655E-3,1.8949066E-3,2.841515E-3,0E0,0E0,0E0,0E0,0E0,0E0],"parents":[2147483647,0,0,1,1,2,2,4,4,5,5,6,6],"right_children":[2,4,6,-1,8,10,12,-1,-1,-1,-1,-1,-1],"split_conditions":[7.248503E-2,-1.0725591E0,1.2309631E0,1.5574066E-3,-1.1715541E0,7.871096E-1,8.9487064E-1,-6.2549766E-4,1.241725E-3,-8.71506E-5,-1.977926E-3,-1.2179221E-4,1.5913101E-3],"split_indices":[2,5,2,0,1,2,4,0,0,0,0,0,0],"split_type":[0,0,0,0,0,0,0,0,0,0,0,0,0],"sum_hessian":[1.28E2,1.5E1,1.13E2,4E0,1.1E1,2.3E1,9E1,6E0,5E0,1.6E1,7E0,8E1,1E1],"tree_param":{"num_deleted":"0","num_feature":"12","num_nodes":"13","size_leaf_vector":"1"}},{"base_weights":[9.5477946E-5,-2.8569892E-4,1.620014E-2,3.391702E-4,-1.1046194E-2,2.0756684E-3,3.543525E-4,-1.0713042E-4,7.515631E-4,1.6759067E-4,-2.8567628E-3],"categories":[],"categories_nodes":[],"categories_segments":[],"categories_sizes":[],"default_left":[0,0,0,0,0,0,0,0,0,0,0],"id":58,"left_children":[1,3,5,7,9,-1,-1,-1,-1,-1,-1],"loss_changes":[7.965238E-4,8.5768197E-4,9.945943E-5,1.2328395E-3,1.608243E-3,0E0,0E0,0E0,0E0,0E0,0E0],"parents":[2147483647,0,0,1,1,2,2,3,3,4,4],"right_children":[2,4,6,8,10,-1,-1,-1,-1,-1,-1],"split_conditions":[4.7283845E0,4.502506E0,-8.0326754E-1,-6.442152E-1,7.039706E-2,2.0756684E-3,3.543525E-4,-1.0713042E-4,7.515631E-4,1.6759067E-4,-2.8567628E-3],"split_indices":[2,2,0,1,4,0,0,0,0,0,0],"split_type":[0,0,0,0,0,0,0,0,0,0,0],"sum_hessian":[1.28E2,1.26E2,2E0,1.2E2,6E0,1E0,1E0,1.01E2,1.9E1,4E0,2E0],"tree_param":{"num_deleted":"0","num_feature":"12","num_nodes":"11","size_leaf_vector":"1"}},{"base_weights":[8.891699E-5,-6.9446635E-4,7.7847764E-3,6.183413E-3,-1.7561323E-3,1.2365825E-2,1.1427576E-3,-2.91275E-4,9.4581966E-4,5.1854464E-4,-3.287119E-4,3.5068646E-4,1.5208035E-3,-3.6717765E-4,7.1812177E-4],"categories":[],"categories_nodes":[],"categories_segments":[],"categories_sizes":[],"default_left":[0,0,0,0,0,0,0,0,0,0,0,0,0,0,0],"id":59,"left_children":[1,3,5,7,9,11,13,-1,-1,-1,-1,-1,-1,-1,-1],"loss_changes":[7.831225E-4,8.724962E-4,3.5099773E-4,5.041568E-4,1.111674E-3,1.2292073E-4,2.0080204E-4,0E0,0E0,0E0,0E0,0E0,0E0,0E0,0E0],"parents":[2147483647,0,0,1,1,2,2,3,3,4,4,5,5,6,6],"right_children":[2,4,6,8,10,12,14,-1,-1,-1,-1,-1,-1,-1,-1],"split_conditions":[9.5714206E-1,7.248503E-2,-5.759037E-1,-9.166632E-1,-1.0689181E0,2.832011E0,-3.7923643E-1,-2.91275E-4,9.4581966E-4,5.1854464E-4,-3.287119E-4,3.5068646E-4,1.5208035E-3,-3.6717765E-4,7.1812177E-4],"split_indices":[6,2,0,7,6,2,0,0,0,0,0,0,0,0,0],"split_type":[0,0,0,0,0,0,0,0,0,0,0,0,0,0,0],"sum_hessian":[1.28E2,1.17E2,1.1E1,1.5E1,1.02E2,6E0,5E0,4E0,1.1E1,1.8E1,8.4E1,2E0,4E0,3E0,2E0],"tree_param":{"num_deleted":"0","num_feature":"12","num_nodes":"15","size_leaf_vector":"1"}},{"base_weights":[1.0379857E-4,-4.7041156E-4,1.0178663E-2,4.8577198E-4,-8.598562E-3,1.2806569E-3,2.4059309E-4,-9.2437534E-5,1.8756966E-3,-2.6434062E-3,-6.0450675E-5],"categories":[],"categories_nodes":[],"categories_segments":[],"categories_sizes":[],"default_left":[0,0,0,0,0,0,0,0,0,0,0],"id":60,"left_children":[1,3,5,7,9,-1,-1,-1,-1,-1,-1],"loss_changes":[7.510646E-4,9.6013356E-4,1.1217035E-4,2.8772617E-3,1.8375341E-3,0E0,0E0,0E0,0E0,0E0,0E0],"parents":[2147483647,0,0,1,1,2,2,3,3,4,4],"right_children":[2,4,6,8,10,-1,-1,-1,-1,-1,-1],"split_conditions":[1.6362791E0,1.3706566E0,-4.2134687E-1,1.169201E0,1.4797739E0,1.2806569E-3,2.4059309E-4,-9.2437534E-5,1.8756966E-3,-2.6434062E-3,-6.0450675E-5],"split_indices":[7,7,0,7,7,0,0,0,0,0,0],"split_type":[0,0,0,0,0,0,0,0,0,0,0],"sum_hessian":[1.28E2,1.22E2,6E0,1.1E2,1.2E1,4E0,2E0,1.03E2,7E0,3E0,9E0],"tree_param":{"num_deleted":"0","num_feature":"12","num_nodes":"11","size_leaf_vector":"1"}},{"base_weights":[9.807523E-5,6.186548E-4,-1.0676916E-2,-3.8431803E-4,2.040784E-2,-1.9080545E-3,-1.7049647E-3,2.7317586E-4,-3.2931587E-4,-2.4710942E-4,2.5477845E-3,-3.154629E-4,1.3220143E-4],"categories":[],"categories_nodes":[],"categories_segments":[],"categories_sizes":[],"default_left":[0,0,0,0,0,0,0,0,0,0,0,0,0],"id":61,"left_children":[1,3,5,7,9,-1,11,-1,-1,-1,-1,-1,-1],"loss_changes":[7.301973E-4,2.4689971E-3,4.1985E-4,1.0876323E-3,7.5893616E-4,0E0,2.172288E-5,0E0,0E0,0E0,0E0,0E0,0E0],"parents":[2147483647,0,0,1,1,2,2,3,3,4,4,6,6],"right_children":[2,4,6,8,10,-1,12,-1,-1,-1,-1,-1,-1],"split_conditions":[1.0412414E0,9.5116246E-1,8.086127E-1,-1.1301676E-1,-1.3038579E0,-1.9080545E-3,-8.0216366E-1,2.7317586E-4,-3.2931587E-4,-2.4710942E-4,2.5477845E-3,-3.154629E-4,1.3220143E-4],"split_indices":[4,4,2,4,3,0,1,0,0,0,0,0,0],"split_type":[0,0,0,0,0,0,0,0,0,0,0,0,0],"sum_hessian":[1.28E2,1.23E2,5E0,1.18E2,5E0,2E0,3E0,5.7E1,6.1E1,1E0,4E0,2E0,1E0],"tree_param":{"num_deleted":"0","num_feature":"12","num_nodes":"13","size_leaf_vector":"1"}},{"base_weights":[8.945527E-5,-1.5473848E-3,4.5638796E-4,3.3802232E-3,-1.8240449E-3,8.716224E-4,-1.5348515E-4,-2.3633013E-3,-5.3332147E-5],"categories":[],"categories_nodes":[],"categories_segments":[],"categories_sizes":[],"default_left":[0,0,0,0,0,0,0,0,0],"id":62,"left_children":[1,-1,3,5,7,-1,-1,-1,-1],"loss_changes":[7.4374035E-4,0E0,8.5295213E-4,1.4820811E-3,2.0141487E-3,0E0,0E0,0E0,0E0],"parents":[2147483647,0,0,2,2,3,3,4,4],"right_children":[2,-1,4,6,8,-1,-1,-1,-1],"split_conditions":[-9.3803364E-1,-1.5473848E-3,-1.1301676E-1,-2.1861391E-1,-2.301707E-2,8.716224E-4,-1.5348515E-4,-2.3633013E-3,-5.3332147E-5],"split_indices":[0,0,4,7,4,0,0,0,0],"split_type":[0,0,0,0,0,0,0,0,0],"sum_hessian":[1.28E2,2E0,1.26E2,5.5E1,7.1E1,2.6E1,2.9E1,3E0,6.8E1],"tree_param":{"num_deleted":"0","num_feature":"12","num_nodes":"9","size_leaf_vector":"1"}},{"base_weights":[5.534747E-5,-3.0128693E-4,1.5134421E-2,-1.6987154E-3,3.730743E-3,1.8933386E-3,3.7682467E-4,-2.935517E-4,8.012817E-4,-1.5531054E-4,1.3106902E-3],"categories":[],"categories_nodes":[],"categories_segments":[],"categories_sizes":[],"default_left":[0,0,0,0,0,0,0,0,0,0,0],"id":63,"left_children":[1,3,5,7,9,-1,-1,-1,-1,-1,-1],"loss_changes":[6.9828524E-4,7.219155E-4,5.81934E-5,1.1645895E-3,1.655249E-3,0E0,0E0,0E0,0E0,0E0,0E0],"parents":[2147483647,0,0,1,1,2,2,3,3,4,4],"right_children":[2,4,6,8,10,-1,-1,-1,-1,-1,-1],"split_conditions":[4.7283845E0,9.1765594E-1,-8.0326754E-1,-2.4018621E-1,5.3394836E-1,1.8933386E-3,3.7682467E-4,-2.935517E-4,8.012817E-4,-1.5531054E-4,1.3106902E-3],"split_indices":[2,7,0,0,5,0,0,0,0,0,0],"split_type":[0,0,0,0,0,0,0,0,0,0,0],"sum_hessian":[1.28E2,1.26E2,2E0,9.4E1,3.2E1,1E0,1E0,8.4E1,1E1,2.1E1,1.1E1],"tree_param":{"num_deleted":"0","num_feature":"12","num_nodes":"11","size_leaf_vector":"1"}},{"base_weights":[8.030349E-5,-5.5441945E-3,9.835237E-4,-1.8713906E-3,-2.328442E-3,1.5293008E-3,-1.4134782E-2,2.5874164E-4,-9.733972E-4,6.883012E-6,6.987198E-4,-1.9342424E-3,7.4407224E-5],"categories":[],"categories_nodes":[],"categories_segments":[],"categories_sizes":[],"default_left":[0,0,0,0,0,0,0,0,0,0,0,0,0],"id":64,"left_children":[1,3,5,7,-1,9,11,-1,-1,-1,-1,-1,-1],"loss_changes":[6.607935E-4,1.1292403E-3,9.4575353E-4,5.861095E-4,0E0,8.6836895E-4,3.243272E-4,0E0,0E0,0E0,0E0,0E0,0E0],"parents":[2147483647,0,0,1,1,2,2,3,3,5,5,6,6],"right_children":[2,4,6,8,-1,10,12,-1,-1,-1,-1,-1,-1],"split_conditions":[-2.3748999E0,-2.4536812E0,1.566726E0,9.486368E-2,-2.328442E-3,5.0365794E-1,-6.560728E-1,2.5874164E-4,-9.733972E-4,6.883012E-6,6.987198E-4,-1.9342424E-3,7.4407224E-5],"split_indices":[3,3,5,7,0,6,0,0,0,0,0,0,0],"split_type":[0,0,0,0,0,0,0,0,0,0,0,0,0],"sum_hessian":[1.28E2,1.7E1,1.11E2,1.5E1,2E0,1.08E2,3E0,1E1,5E0,8.6E1,2.2E1,2E0,1E0],"tree_param":{"num_deleted":"0","num_feature":"12","num_nodes":"13","size_leaf_vector":"1"}},{"base_weights":[3.9735904E-5,-1.4481758E-3,3.824504E-4,2.3950927E-3,-2.663744E-3,-8.734423E-4,5.00696E-4,-2.1920456E-3,-9.409151E-6],"categories":[],"categories_nodes":[],"categories_segments":[],"categories_sizes":[],"default_left":[0,0,0,0,0,0,0,0,0],"id":65,"left_children":[1,-1,3,5,7,-1,-1,-1,-1],"loss_changes":[6.475363E-4,0E0,7.850042E-4,2.2820318E-3,2.5215733E-3,0E0,0E0,0E0,0E0],"parents":[2147483647,0,0,2,2,3,3,4,4],"right_children":[2,-1,4,6,8,-1,-1,-1,-1],"split_conditions":[-9.3803364E-1,-1.4481758E-3,-4.6231446E-1,-9.166632E-1,-4.3980032E-1,-8.734423E-4,5.00696E-4,-2.1920456E-3,-9.409151E-6],"split_indices":[0,0,0,7,0,0,0,0,0],"split_type":[0,0,0,0,0,0,0,0,0],"sum_hessian":[1.28E2,2E0,1.26E2,7.6E1,5E1,1.4E1,6.2E1,5E0,4.5E1],"tree_param":{"num_deleted":"0","num_feature":"12","num_nodes":"9","size_leaf_vector":"1"}},{"base_weights":[4.580769E-6,5.868292E-3,-8.1843644E-4,-2.451086E-3,8.845676E-3,-6.146275E-3,5.9570157E-4,2.5580925E-4,-6.6432357E-4,2.1259529E-4,1.5211072E-3,-7.165942E-5,-1.6916061E-3,-1.1266929E-4,1.3224633E-3],"categories":[],"categories_nodes":[],"categories_segments":[],"categories_sizes":[],"default_left":[0,0,0,0,0,0,0,0,0,0,0,0,0,0,0],"id":66,"left_children":[1,3,5,7,9,11,13,-1,-1,-1,-1,-1,-1,-1,-1],"loss_changes":[6.273485E-4,4.1800115E-4,8.625714E-4,1.2199013E-4,4.8094633E-4,1.391314E-3,1.994332E-3,0E0,0E0,0E0,0E0,0E0,0E0,0E0,0E0],"parents":[2147483647,0,0,1,1,2,2,3,3,4,4,5,5,6,6],"right_children":[2,4,6,8,10,12,14,-1,-1,-1,-1,-1,-1,-1,-1],"split_conditions":[7.248503E-2,-9.5554906E-1,1.2309631E0,-5.855537E-1,1.430589E-1,7.871096E-1,8.9487064E-1,2.5580925E-4,-6.6432357E-4,2.1259529E-4,1.5211072E-3,-7.165942E-5,-1.6916061E-3,-1.1266929E-4,1.3224633E-3],"split_indices":[2,6,2,0,3,2,4,0,0,0,0,0,0,0,0],"split_type":[0,0,0,0,0,0,0,0,0,0,0,0,0,0,0],"sum_hessian":[1.28E2,1.5E1,1.13E2,4E0,1.1E1,2.3E1,9E1,2E0,2E0,6E0,5E0,1.6E1,7E0,8E1,1E1],"tree_param":{"num_deleted":"0","num_feature":"12","num_nodes":"15","size_leaf_vector":"1"}},{"base_weights":[1.0104922E-5,4.0364315E-4,-1.2388875E-2,-3.6420577E-4,1.177494E-2,-1.866132E-3,-4.0776198E-4,6.7006255E-4,-1.447601E-4,-5.680492E-5,2.4259943E-3],"categories":[],"categories_nodes":[],"categories_segments":[],"categories_sizes":[],"default_left":[0,0,0,0,0,0,0,0,0,0,0],"id":67,"left_children":[1,3,5,7,9,-1,-1,-1,-1,-1,-1],"loss_changes":[6.344527E-4,1.1044496E-3,1.3243378E-4,9.205262E-4,1.2465987E-3,0E0,0E0,0E0,0E0,0E0,0E0],"parents":[2147483647,0,0,1,1,2,2,3,3,4,4],"right_children":[2,4,6,8,10,-1,-1,-1,-1,-1,-1],"split_conditions":[1.0874864E0,9.5116246E-1,-8.322135E-1,-1.529142E0,-1.4788912E-1,-1.866132E-3,-4.0776198E-4,6.7006255E-4,-1.447601E-4,-5.680492E-5,2.4259943E-3],"split_indices":[4,4,0,1,6,0,0,0,0,0,0],"split_type":[0,0,0,0,0,0,0,0,0,0,0],"sum_hessian":[1.28E2,1.25E2,3E0,1.18E2,7E0,1E0,2E0,1.5E1,1.03E2,4E0,3E0],"tree_param":{"num_deleted":"0","num_feature":"12","num_nodes":"11","size_leaf_vector":"1"}},{"base_weights":[1.3904833E-5,-3.1515164E-4,1.3939328E-2,2.454199E-4,-9.96001E-3,1.7861642E-3,3.047349E-4,-1.0047036E-4,6.6087785E-4,1.6129599E-4,-2.5928288E-3],"categories":[],"categories_nodes":[],"categories_segments":[],"categories_sizes":[],"default_left":[0,0,0,0,0,0,0,0,0,0,0],"id":68,"left_children":[1,3,5,7,9,-1,-1,-1,-1,-1,-1],"loss_changes":[5.955033E-4,6.890868E-4,7.373467E-5,9.6919294E-4,1.3354241E-3,0E0,0E0,0E0,0E0,0E0,0E0],"parents":[2147483647,0,0,1,1,2,2,3,3,4,4],"right_children":[2,4,6,8,10,-1,-1,-1,-1,-1,-1],"split_conditions":[4.7283845E0,4.502506E0,-8.0326754E-1,-6.442152E-1,7.039706E-2,1.7861642E-3,3.047349E-4,-1.0047036E-4,6.6087785E-4,1.6129599E-4,-2.5928288E-3],"split_indices":[2,2,0,1,4,0,0,0,0,0,0],"split_type":[0,0,0,0,0,0,0,0,0,0,0],"sum_hessian":[1.28E2,1.26E2,2E0,1.2E2,6E0,1E0,1E0,1.01E2,1.9E1,4E0,2E0],"tree_param":{"num_deleted":"0","num_feature":"12","num_nodes":"11","size_leaf_vector":"1"}},{"base_weights":[1.4217731E-5,4.7808726E-4,-9.574789E-3,-3.186791E-4,1.620094E-2,-1.6449888E-3,-2.0247675E-3,6.9989175E-5,-7.4274297E-4,-3.0796006E-4,2.0672965E-3,-3.7388032E-4,1.5586695E-4],"categories":[],"categories_nodes":[],"categories_segments":[],"categories_sizes":[],"default_left":[0,0,0,0,0,0,0,0,0,0,0,0,0],"id":69,"left_children":[1,3,5,7,9,-1,11,-1,-1,-1,-1,-1,-1],"loss_changes":[5.7837577E-4,1.5585652E-3,2.7813565E-4,8.668496E-4,5.8100314E-4,0E0,3.0396106E-5,0E0,0E0,0E0,0E0,0E0,0E0],"parents":[2147483647,0,0,1,1,2,2,3,3,4,4,6,6],"right_children":[2,4,6,8,10,-1,12,-1,-1,-1,-1,-1,-1],"split_conditions":[1.0412414E0,9.5116246E-1,8.086127E-1,7.43593E-1,-1.3038579E0,-1.6449888E-3,-8.0216366E-1,6.9989175E-5,-7.4274297E-4,-3.0796006E-4,2.0672965E-3,-3.7388032E-4,1.5586695E-4],"split_indices":[4,4,2,4,3,0,1,0,0,0,0,0,0],"split_type":[0,0,0,0,0,0,0,0,0,0,0,0,0],"sum_hessian":[1.28E2,1.23E2,5E0,1.18E2,5E0,2E0,3E0,1.04E2,1.4E1,1E0,4E0,2E0,1E0],"tree_param":{"num_deleted":"0","num_feature":"12","num_nodes":"13","size_leaf_vector":"1"}},{"base_weights":[6.777183E-6,-6.534285E-4,6.498235E-3,5.202859E-3,-1.6230703E-3,1.0466655E-2,7.8537315E-4,1.9897481E-4,1.9534128E-3,-1.13717084E-4,-1.7278696E-3,1.1665146E-3,1.637854E-4,-3.3240282E-4,6.002784E-4],"categories":[],"categories_nodes":[],"categories_segments":[],"categories_sizes":[],"default_left":[0,0,0,0,0,0,0,0,0,0,0,0,0,0,0],"id":70,"left_children":[1,3,5,7,9,11,13,-1,-1,-1,-1,-1,-1,-1,-1],"loss_changes":[5.571011E-4,6.785077E-4,2.6383216E-4,7.439472E-4,7.5627124E-4,5.4962817E-5,1.4859602E-4,0E0,0E0,0E0,0E0,0E0,0E0,0E0,0E0],"parents":[2147483647,0,0,1,1,2,2,3,3,4,4,5,5,6,6],"right_children":[2,4,6,8,10,12,14,-1,-1,-1,-1,-1,-1,-1,-1],"split_conditions":[9.5714206E-1,-1.529142E0,-5.759037E-1,-1.5367455E0,1.566726E0,-7.5016755E-1,-3.7923643E-1,1.9897481E-4,1.9534128E-3,-1.13717084E-4,-1.7278696E-3,1.1665146E-3,1.637854E-4,-3.3240282E-4,6.002784E-4],"split_indices":[6,1,0,1,5,1,0,0,0,0,0,0,0,0,0],"split_type":[0,0,0,0,0,0,0,0,0,0,0,0,0,0,0],"sum_hessian":[1.28E2,1.17E2,1.1E1,1.6E1,1.01E2,6E0,5E0,1.4E1,2E0,9.9E1,2E0,5E0,1E0,3E0,2E0],"tree_param":{"num_deleted":"0","num_feature":"12","num_nodes":"15","size_leaf_vector":"1"}},{"base_weights":[2.0897241E-5,-1.3248561E-3,3.3418444E-4,2.870011E-3,-1.6427665E-3,7.7431335E-4,-1.6114661E-4,-2.041723E-3,-5.305836E-5],"categories":[],"categories_nodes":[],"categories_segments":[],"categories_sizes":[],"default_left":[0,0,0,0,0,0,0,0,0],"id":71,"left_children":[1,-1,3,5,7,-1,-1,-1,-1],"loss_changes":[5.407E-4,0E0,6.413917E-4,1.2354499E-3,1.492573E-3,0E0,0E0,0E0,0E0],"parents":[2147483647,0,0,2,2,3,3,4,4],"right_children":[2,-1,4,6,8,-1,-1,-1,-1],"split_conditions":[-9.3803364E-1,-1.3248561E-3,-1.1301676E-1,-2.1861391E-1,-2.301707E-2,7.7431335E-4,-1.6114661E-4,-2.041723E-3,-5.305836E-5],"split_indices":[0,0,4,7,4,0,0,0,0],"split_type":[0,0,0,0,0,0,0,0,0],"sum_hessian":[1.28E2,2E0,1.26E2,5.5E1,7.1E1,2.6E1,2.9E1,3E0,6.8E1],"tree_param":{"num_deleted":"0","num_feature":"12","num_nodes":"9","size_leaf_vector":"1"}},{"base_weights":[-2.9483128E-6,5.2220006E-3,-7.8897644E-4,-2.3101936E-3,7.717306E-3,-5.7576075E-3,4.755014E-4,4.4424637E-4,-5.1089743E-4,2.408149E-4,1.3509964E-3,-7.7708406E-5,-1.4998954E-3,-9.350276E-5,1.0818896E-3],"categories":[],"categories_nodes":[],"categories_segments":[],"categories_sizes":[],"default_left":[0,0,0,0,0,0,0,0,0,0,0,0,0,0,0],"id":72,"left_children":[1,3,5,7,9,11,13,-1,-1,-1,-1,-1,-1,-1,-1],"loss_changes":[5.339175E-4,3.3734558E-4,7.126855E-4,1.1719245E-4,3.6726968E-4,1.0469595E-3,1.3377748E-3,0E0,0E0,0E0,0E0,0E0,0E0,0E0,0E0],"parents":[2147483647,0,0,1,1,2,2,3,3,4,4,5,5,6,6],"right_children":[2,4,6,8,10,12,14,-1,-1,-1,-1,-1,-1,-1,-1],"split_conditions":[1.4136384E-1,-9.5554906E-1,1.2309631E0,-8.7093145E-1,1.430589E-1,7.871096E-1,8.9487064E-1,4.4424637E-4,-5.1089743E-4,2.408149E-4,1.3509964E-3,-7.7708406E-5,-1.4998954E-3,-9.350276E-5,1.0818896E-3],"split_indices":[2,6,2,0,3,2,4,0,0,0,0,0,0,0,0],"split_type":[0,0,0,0,0,0,0,0,0,0,0,0,0,0,0],"sum_hessian":[1.28E2,1.6E1,1.12E2,4E0,1.2E1,2.2E1,9E1,1E0,3E0,7E0,5E0,1.5E1,7E0,8E1,1E1],"tree_param":{"num_deleted":"0","num_feature":"12","num_nodes":"15","size_leaf_vector":"1"}},{"base_weights":[4.6017585E-6,4.4678527E-4,-9.134624E-3,-2.4594506E-4,1.4111472E-2,-1.4820405E-3,-2.586632E-3,7.1183735E-5,-6.9340254E-4,3.541122E-4,2.3501448E-3,-4.130962E-4,1.0231785E-4],"categories":[],"categories_nodes":[],"categories_segments":[],"categories_sizes":[],"default_left":[0,0,0,0,0,0,0,0,0,0,0,0,0],"id":73,"left_children":[1,3,5,7,9,-1,11,-1,-1,-1,-1,-1,-1],"loss_changes":[5.2539795E-4,1.1772476E-3,1.8504774E-4,7.672172E-4,5.1231054E-4,0E0,2.652566E-5,0E0,0E0,0E0,0E0,0E0,0E0],"parents":[2147483647,0,0,1,1,2,2,3,3,4,4,6,6],"right_children":[2,4,6,8,10,-1,12,-1,-1,-1,-1,-1,-1],"split_conditions":[1.0412414E0,9.5116246E-1,8.086127E-1,7.43593E-1,-7.8846914E-1,-1.4820405E-3,-8.0216366E-1,7.1183735E-5,-6.9340254E-4,3.541122E-4,2.3501448E-3,-4.130962E-4,1.0231785E-4],"split_indices":[4,4,2,4,0,0,1,0,0,0,0,0,0],"split_type":[0,0,0,0,0,0,0,0,0,0,0,0,0],"sum_hessian":[1.28E2,1.23E2,5E0,1.18E2,5E0,2E0,3E0,1.04E2,1.4E1,3E0,2E0,2E0,1E0],"tree_param":{"num_deleted":"0","num_feature":"12","num_nodes":"13","size_leaf_vector":"1"}},{"base_weights":[6.3834777E-6,-2.9922652E-4,1.2941745E-2,2.089123E-4,-9.040022E-3,1.661443E-3,2.7981887E-4,-8.9589674E-5,5.5125693E-4,1.5007037E-4,-2.359456E-3],"categories":[],"categories_nodes":[],"categories_segments":[],"categories_sizes":[],"default_left":[0,0,0,0,0,0,0,0,0,0,0],"id":74,"left_children":[1,3,5,7,9,-1,-1,-1,-1,-1,-1],"loss_changes":[5.1383226E-4,5.6596386E-4,6.527192E-5,7.1394164E-4,1.109316E-3,0E0,0E0,0E0,0E0,0E0,0E0],"parents":[2147483647,0,0,1,1,2,2,3,3,4,4],"right_children":[2,4,6,8,10,-1,-1,-1,-1,-1,-1],"split_conditions":[4.7283845E0,4.502506E0,-8.0326754E-1,-6.5495217E-1,7.039706E-2,1.661443E-3,2.7981887E-4,-8.9589674E-5,5.5125693E-4,1.5007037E-4,-2.359456E-3],"split_indices":[2,2,0,1,4,0,0,0,0,0,0],"split_type":[0,0,0,0,0,0,0,0,0,0,0],"sum_hessian":[1.28E2,1.26E2,2E0,1.2E2,6E0,1E0,1E0,1E2,2E1,4E0,2E0],"tree_param":{"num_deleted":"0","num_feature":"12","num_nodes":"11","size_leaf_vector":"1"}},{"base_weights":[7.2452435E-6,-4.9738586E-3,8.077151E-4,-1.7454022E-3,-2.0534338E-3,6.905468E-3,-3.5615094E-4,2.0619493E-4,-8.434647E-4,-9.719296E-4,9.59102E-4,-1.9395867E-3,2.6186306E-5],"categories":[],"categories_nodes":[],"categories_segments":[],"categories_sizes":[],"default_left":[0,0,0,0,0,0,0,0,0,0,0,0,0],"id":75,"left_children":[1,3,5,7,-1,9,11,-1,-1,-1,-1,-1,-1],"loss_changes":[5.1836926E-4,8.684133E-4,7.973198E-4,4.2488473E-4,0E0,8.9685776E-4,1.1229261E-3,0E0,0E0,0E0,0E0,0E0,0E0],"parents":[2147483647,0,0,1,1,2,2,3,3,5,5,6,6],"right_children":[2,4,6,8,-1,10,12,-1,-1,-1,-1,-1,-1],"split_conditions":[-2.3748999E0,-2.4536812E0,-1.3301151E0,9.486368E-2,-2.0534338E-3,-8.9127505E-1,-1.287735E0,2.0619493E-4,-8.434647E-4,-9.719296E-4,9.59102E-4,-1.9395867E-3,2.6186306E-5],"split_indices":[3,3,3,7,0,4,3,0,0,0,0,0,0],"split_type":[0,0,0,0,0,0,0,0,0,0,0,0,0],"sum_hessian":[1.28E2,1.7E1,1.11E2,1.5E1,2E0,1.7E1,9.4E1,1E1,5E0,2E0,1.5E1,2E0,9.2E1],"tree_param":{"num_deleted":"0","num_feature":"12","num_nodes":"13","size_leaf_vector":"1"}},{"base_weights":[-2.9269544E-5,3.933935E-4,-8.759428E-3,-2.669526E-4,1.3424692E-2,-1.4101082E-3,-2.5633299E-3,5.7504565E-4,-1.190141E-4,-2.5456466E-4,1.7127888E-3,-3.873305E-4,6.832979E-5],"categories":[],"categories_nodes":[],"categories_segments":[],"categories_sizes":[],"default_left":[0,0,0,0,0,0,0,0,0,0,0,0,0],"id":76,"left_children":[1,3,5,7,9,-1,11,-1,-1,-1,-1,-1,-1],"loss_changes":[4.7944495E-4,1.0706245E-3,1.6243875E-4,6.679129E-4,3.9844948E-4,0E0,1.9658628E-5,0E0,0E0,0E0,0E0,0E0,0E0],"parents":[2147483647,0,0,1,1,2,2,3,3,4,4,6,6],"right_children":[2,4,6,8,10,-1,12,-1,-1,-1,-1,-1,-1],"split_conditions":[1.0412414E0,9.5116246E-1,8.086127E-1,-1.529142E0,-1.3038579E0,-1.4101082E-3,-8.0216366E-1,5.7504565E-4,-1.190141E-4,-2.5456466E-4,1.7127888E-3,-3.873305E-4,6.832979E-5],"split_indices":[4,4,2,1,3,0,1,0,0,0,0,0,0],"split_type":[0,0,0,0,0,0,0,0,0,0,0,0,0],"sum_hessian":[1.28E2,1.23E2,5E0,1.18E2,5E0,2E0,3E0,1.5E1,1.03E2,1E0,4E0,2E0,1E0],"tree_param":{"num_deleted":"0","num_feature":"12","num_nodes":"13","size_leaf_vector":"1"}},{"base_weights":[-2.4907382E-5,-6.323468E-4,5.9503224E-3,4.8987065E-3,-1.4854003E-3,9.495884E-3,8.221132E-4,1.1410279E-3,1.777326E-4,4.0318884E-4,-2.7012013E-4,3.179948E-4,1.138627E-3,-2.8868896E-4,5.4934126E-4],"categories":[],"categories_nodes":[],"categories_segments":[],"categories_sizes":[],"default_left":[0,0,0,0,0,0,0,0,0,0,0,0,0,0,0],"id":77,"left_children":[1,3,5,7,9,11,13,-1,-1,-1,-1,-1,-1,-1,-1],"loss_changes":[4.7197976E-4,5.6403404E-4,2.1038196E-4,3.0492168E-4,7.018072E-4,4.7369103E-5,1.19814045E-4,0E0,0E0,0E0,0E0,0E0,0E0,0E0,0E0],"parents":[2147483647,0,0,1,1,2,2,3,3,4,4,5,5,6,6],"right_children":[2,4,6,8,10,12,14,-1,-1,-1,-1,-1,-1,-1,-1],"split_conditions":[9.5714206E-1,7.248503E-2,-5.759037E-1,-1.0725591E0,-1.0689181E0,2.832011E0,-3.7923643E-1,1.1410279E-3,1.777326E-4,4.0318884E-4,-2.7012013E-4,3.179948E-4,1.138627E-3,-2.8868896E-4,5.4934126E-4],"split_indices":[6,2,0,5,6,2,0,0,0,0,0,0,0,0,0],"split_type":[0,0,0,0,0,0,0,0,0,0,0,0,0,0,0],"sum_hessian":[1.28E2,1.17E2,1.1E1,1.5E1,1.02E2,6E0,5E0,4E0,1.1E1,1.8E1,8.4E1,2E0,4E0,3E0,2E0],"tree_param":{"num_deleted":"0","num_feature":"12","num_nodes":"15","size_leaf_vector":"1"}},{"base_weights":[2.149895E-6,-1.204875E-2,2.8679988E-4,-3.617175E-4,-1.4455951E-3,1.9163248E-3,-2.179087E-3,-7.805612E-4,4.2006536E-4,-1.9036161E-3,6.7033357E-6],"categories":[],"categories_nodes":[],"categories_segments":[],"categories_sizes":[],"default_left":[0,0,0,0,0,0,0,0,0,0,0],"id":78,"left_children":[1,3,5,-1,-1,7,9,-1,-1,-1,-1],"loss_changes":[4.4596283E-4,8.599745E-6,5.144903E-4,0E0,0E0,1.7428123E-3,1.9322898E-3,0E0,0E0,0E0,0E0],"parents":[2147483647,0,0,1,1,2,2,5,5,6,6],"right_children":[2,4,6,-1,-1,8,10,-1,-1,-1,-1],"split_conditions":[-9.3803364E-1,-9.434937E-1,-4.6231446E-1,-3.617175E-4,-1.4455951E-3,-9.166632E-1,-4.3980032E-1,-7.805612E-4,4.2006536E-4,-1.9036161E-3,6.7033357E-6],"split_indices":[0,0,0,0,0,7,0,0,0,0,0],"split_type":[0,0,0,0,0,0,0,0,0,0,0],"sum_hessian":[1.28E2,2E0,1.26E2,1E0,1E0,7.6E1,5E1,1.4E1,6.2E1,5E0,4.5E1],"tree_param":{"num_deleted":"0","num_feature":"12","num_nodes":"11","size_leaf_vector":"1"}},{"base_weights":[-2.9574569E-5,3.3285553E-4,-9.084413E-3,-4.2647118E-4,5.929683E-3,3.895686E-4,-1.5530256E-3,1.5082136E-4,-4.036869E-4,-7.351649E-5,1.1853321E-3,1.1205353E-4,-5.3618245E-5],"categories":[],"categories_nodes":[],"categories_segments":[],"categories_sizes":[],"default_left":[0,0,0,0,0,0,0,0,0,0,0,0,0],"id":79,"left_children":[1,3,5,7,9,11,-1,-1,-1,-1,-1,-1,-1],"loss_changes":[4.2636905E-4,5.3375633E-4,3.113891E-4,7.8142143E-4,6.0091633E-4,2.630891E-6,0E0,0E0,0E0,0E0,0E0,0E0,0E0],"parents":[2147483647,0,0,1,1,2,2,3,3,4,4,5,5],"right_children":[2,4,6,8,10,12,-1,-1,-1,-1,-1,-1,-1],"split_conditions":[1.566726E0,1.1085938E0,-8.5338414E-1,-8.668606E-1,-1.0566841E0,-8.442471E-1,-1.5530256E-3,1.5082136E-4,-4.036869E-4,-7.351649E-5,1.1853321E-3,1.1205353E-4,-5.3618245E-5],"split_indices":[5,5,3,1,1,0,0,0,0,0,0,0,0],"split_type":[0,0,0,0,0,0,0,0,0,0,0,0,0],"sum_hessian":[1.28E2,1.24E2,4E0,1.1E2,1.4E1,2E0,2E0,7.2E1,3.8E1,7E0,7E0,1E0,1E0],"tree_param":{"num_deleted":"0","num_feature":"12","num_nodes":"13","size_leaf_vector":"1"}},{"base_weights":[-3.1544783E-5,-3.054456E-4,1.1574105E-2,1.5011318E-4,-8.13647E-3,1.5620337E-3,1.7408216E-4,-8.7767854E-5,5.3843454E-4,1.3183428E-4,-2.1182334E-3],"categories":[],"categories_nodes":[],"categories_segments":[],"categories_sizes":[],"default_left":[0,0,0,0,0,0,0,0,0,0,0],"id":80,"left_children":[1,3,5,7,9,-1,-1,-1,-1,-1,-1],"loss_changes":[4.136001E-4,4.5429284E-4,9.217093E-5,6.556694E-4,8.9134893E-4,0E0,0E0,0E0,0E0,0E0,0E0],"parents":[2147483647,0,0,1,1,2,2,3,3,4,4],"right_children":[2,4,6,8,10,-1,-1,-1,-1,-1,-1],"split_conditions":[4.7283845E0,4.502506E0,-8.0326754E-1,-6.442152E-1,7.039706E-2,1.5620337E-3,1.7408216E-4,-8.7767854E-5,5.3843454E-4,1.3183428E-4,-2.1182334E-3],"split_indices":[2,2,0,1,4,0,0,0,0,0,0],"split_type":[0,0,0,0,0,0,0,0,0,0,0],"sum_hessian":[1.28E2,1.26E2,2E0,1.2E2,6E0,1E0,1E0,1.01E2,1.9E1,4E0,2E0],"tree_param":{"num_deleted":"0","num_feature":"12","num_nodes":"11","size_leaf_vector":"1"}},{"base_weights":[-2.6836995E-5,-4.4357367E-3,6.819758E-4,-1.5204775E-3,-1.8505208E-3,-1.6079607E-4,7.7184746E-3,-6.4248696E-4,3.007924E-4,-1.7371327E-4,4.223872E-4,1.2194599E-3,-9.870191E-5],"categories":[],"categories_nodes":[],"categories_segments":[],"categories_sizes":[],"default_left":[0,0,0,0,0,0,0,0,0,0,0,0,0],"id":81,"left_children":[1,3,5,7,-1,9,11,-1,-1,-1,-1,-1,-1],"loss_changes":[4.0616098E-4,7.1015407E-4,6.654193E-4,3.7467037E-4,0E0,7.0542045E-4,4.7963887E-4,0E0,0E0,0E0,0E0,0E0,0E0],"parents":[2147483647,0,0,1,1,2,2,3,3,5,5,6,6],"right_children":[2,4,6,8,-1,10,12,-1,-1,-1,-1,-1,-1],"split_conditions":[-2.3748999E0,-2.4536812E0,-2.4018621E-1,-4.3716452E-1,-1.8505208E-3,8.9436156E-1,-2.4231756E-1,-6.4248696E-4,3.007924E-4,-1.7371327E-4,4.223872E-4,1.2194599E-3,-9.870191E-5],"split_indices":[3,3,0,6,0,7,7,0,0,0,0,0,0],"split_type":[0,0,0,0,0,0,0,0,0,0,0,0,0],"sum_hessian":[1.28E2,1.7E1,1.11E2,1.5E1,2E0,1E2,1.1E1,7E0,8E0,7.4E1,2.6E1,7E0,4E0],"tree_param":{"num_deleted":"0","num_feature":"12","num_nodes":"13","size_leaf_vector":"1"}},{"base_weights":[-3.053106E-5,-1.11877015E-2,2.3326454E-4,-3.380984E-4,-1.3400568E-3,1.784955E-3,-2.1140578E-3,6.23905E-4,-2.0753393E-4,-1.7205932E-3,-9.959465E-6],"categories":[],"categories_nodes":[],"categories_segments":[],"categories_sizes":[],"default_left":[0,0,0,0,0,0,0,0,0,0,0],"id":82,"left_children":[1,3,5,-1,-1,7,9,-1,-1,-1,-1],"loss_changes":[3.8228408E-4,6.5185595E-6,4.6634788E-4,0E0,0E0,1.3368949E-3,1.5487894E-3,0E0,0E0,0E0,0E0],"parents":[2147483647,0,0,1,1,2,2,5,5,6,6],"right_children":[2,4,6,-1,-1,8,10,-1,-1,-1,-1],"split_conditions":[-9.3803364E-1,-9.434937E-1,-4.6231446E-1,-3.380984E-4,-1.3400568E-3,2.1794217E0,-4.3980032E-1,6.23905E-4,-2.0753393E-4,-1.7205932E-3,-9.959465E-6],"split_indices":[0,0,0,0,0,2,0,0,0,0,0],"split_type":[0,0,0,0,0,0,0,0,0,0,0],"sum_hessian":[1.28E2,2E0,1.26E2,1E0,1E0,7.6E1,5E1,3.5E1,4.1E1,5E0,4.5E1],"tree_param":{"num_deleted":"0","num_feature":"12","num_nodes":"11","size_leaf_vector":"1"}},{"base_weights":[-5.067453E-5,-3.1721033E-4,1.12495655E-2,9.4413315E-4,-3.1875274E-3,1.5029944E-3,1.8444043E-4,-8.843159E-5,8.740171E-4,-1.1974388E-3,2.2120902E-4],"categories":[],"categories_nodes":[],"categories_segments":[],"categories_sizes":[],"default_left":[0,0,0,0,0,0,0,0,0,0,0],"id":83,"left_children":[1,3,5,7,9,-1,-1,-1,-1,-1,-1],"loss_changes":[3.9210598E-4,4.628073E-4,7.894394E-5,1.2763937E-3,1.8768704E-3,0E0,0E0,0E0,0E0,0E0,0E0],"parents":[2147483647,0,0,1,1,2,2,3,3,4,4],"right_children":[2,4,6,8,10,-1,-1,-1,-1,-1,-1],"split_conditions":[4.7283845E0,-8.22821E-1,-8.0326754E-1,-9.467427E-1,-6.664117E-1,1.5029944E-3,1.8444043E-4,-8.843159E-5,8.740171E-4,-1.1974388E-3,2.2120902E-4],"split_indices":[2,1,0,1,1,0,0,0,0,0,0],"split_type":[0,0,0,0,0,0,0,0,0,0,0],"sum_hessian":[1.28E2,1.26E2,2E0,8.8E1,3.8E1,1E0,1E0,7.2E1,1.6E1,1.4E1,2.4E1],"tree_param":{"num_deleted":"0","num_feature":"12","num_nodes":"11","size_leaf_vector":"1"}},{"base_weights":[-3.400389E-5,-5.7058816E-4,5.245242E-3,-2.1302846E-4,-1.0707782E-2,8.471172E-3,6.0744834E-4,2.3977428E-4,-2.0527931E-4,-1.4123276E-3,-2.3065018E-5,9.704555E-4,5.354393E-5,-2.5380703E-4,4.5989902E-4],"categories":[],"categories_nodes":[],"categories_segments":[],"categories_sizes":[],"default_left":[0,0,0,0,0,0,0,0,0,0,0,0,0,0,0],"id":84,"left_children":[1,3,5,7,9,11,13,-1,-1,-1,-1,-1,-1,-1,-1],"loss_changes":[3.684189E-4,4.2542786E-4,1.7438864E-4,5.5729056E-4,1.3988081E-4,6.331841E-5,8.700537E-5,0E0,0E0,0E0,0E0,0E0,0E0,0E0,0E0],"parents":[2147483647,0,0,1,1,2,2,3,3,4,4,5,5,6,6],"right_children":[2,4,6,8,10,12,14,-1,-1,-1,-1,-1,-1,-1,-1],"split_conditions":[9.5714206E-1,1.566726E0,-5.759037E-1,-3.410314E-1,-6.560728E-1,-7.5016755E-1,-3.7923643E-1,2.3977428E-4,-2.0527931E-4,-1.4123276E-3,-2.3065018E-5,9.704555E-4,5.354393E-5,-2.5380703E-4,4.5989902E-4],"split_indices":[6,5,0,7,0,1,0,0,0,0,0,0,0,0,0],"split_type":[0,0,0,0,0,0,0,0,0,0,0,0,0,0,0],"sum_hessian":[1.28E2,1.17E2,1.1E1,1.14E2,3E0,6E0,5E0,4.7E1,6.7E1,2E0,1E0,5E0,1E0,3E0,2E0],"tree_param":{"num_deleted":"0","num_feature":"12","num_nodes":"15","size_leaf_vector":"1"}},{"base_weights":[-3.1927695E-5,-2.846098E-4,1.067559E-2,1.3570528E-4,-7.5093973E-3,1.4158562E-3,1.854823E-4,-8.330258E-5,4.5328596E-4,1.2694228E-4,-1.9637633E-3],"categories":[],"categories_nodes":[],"categories_segments":[],"categories_sizes":[],"default_left":[0,0,0,0,0,0,0,0,0,0,0],"id":85,"left_children":[1,3,5,7,9,-1,-1,-1,-1,-1,-1],"loss_changes":[3.5206054E-4,3.8667832E-4,6.59058E-5,5.191949E-4,7.702296E-4,0E0,0E0,0E0,0E0,0E0,0E0],"parents":[2147483647,0,0,1,1,2,2,3,3,4,4],"right_children":[2,4,6,8,10,-1,-1,-1,-1,-1,-1],"split_conditions":[4.7283845E0,4.502506E0,-8.0326754E-1,3.6602774E0,7.039706E-2,1.4158562E-3,1.854823E-4,-8.330258E-5,4.5328596E-4,1.2694228E-4,-1.9637633E-3],"split_indices":[2,2,0,2,4,0,0,0,0,0,0],"split_type":[0,0,0,0,0,0,0,0,0,0,0],"sum_hessian":[1.28E2,1.26E2,2E0,1.2E2,6E0,1E0,1E0,9.9E1,2.1E1,4E0,2E0],"tree_param":{"num_deleted":"0","num_feature":"12","num_nodes":"11","size_leaf_vector":"1"}},{"base_weights":[-2.769284E-5,-4.113735E-3,6.292398E-4,-1.4397936E-3,-1.7003512E-3,5.7052937E-3,-3.391624E-4,4.3815767E-4,-4.4841963E-4,-9.2337857E-4,8.1497896E-4,-1.6729072E-3,1.9319128E-5],"categories":[],"categories_nodes":[],"categories_segments":[],"categories_sizes":[],"default_left":[0,0,0,0,0,0,0,0,0,0,0,0,0],"id":86,"left_children":[1,3,5,7,-1,9,11,-1,-1,-1,-1,-1,-1],"loss_changes":[3.4885737E-4,5.9591554E-4,5.5248913E-4,3.0320935E-4,0E0,7.325868E-4,8.321287E-4,0E0,0E0,0E0,0E0,0E0,0E0],"parents":[2147483647,0,0,1,1,2,2,3,3,5,5,6,6],"right_children":[2,4,6,8,-1,10,12,-1,-1,-1,-1,-1,-1],"split_conditions":[-2.3748999E0,-2.4536812E0,-1.3301151E0,-6.4664805E-1,-1.7003512E-3,-8.9127505E-1,-1.287735E0,4.3815767E-4,-4.4841963E-4,-9.2337857E-4,8.1497896E-4,-1.6729072E-3,1.9319128E-5],"split_indices":[3,3,3,7,0,4,3,0,0,0,0,0,0],"split_type":[0,0,0,0,0,0,0,0,0,0,0,0,0],"sum_hessian":[1.28E2,1.7E1,1.11E2,1.5E1,2E0,1.7E1,9.4E1,5E0,1E1,2E0,1.5E1,2E0,9.2E1],"tree_param":{"num_deleted":"0","num_feature":"12","num_nodes":"13","size_leaf_vector":"1"}},{"base_weights":[-5.1842282E-5,-4.35161E-4,6.691021E-3,3.7270176E-4,-7.299592E-3,8.029733E-4,2.2294941E-4,-7.265505E-5,1.4616394E-3,-1.9884903E-3,-1.535508E-4],"categories":[],"categories_nodes":[],"categories_segments":[],"categories_sizes":[],"default_left":[0,0,0,0,0,0,0,0,0,0,0],"id":87,"left_children":[1,3,5,7,9,-1,-1,-1,-1,-1,-1],"loss_changes":[3.3633356E-4,6.848193E-4,2.3906643E-5,1.748592E-3,9.125229E-4,0E0,0E0,0E0,0E0,0E0,0E0],"parents":[2147483647,0,0,1,1,2,2,3,3,4,4],"right_children":[2,4,6,8,10,-1,-1,-1,-1,-1,-1],"split_conditions":[1.6362791E0,1.3706566E0,-4.2134687E-1,1.169201E0,1.4797739E0,8.029733E-4,2.2294941E-4,-7.265505E-5,1.4616394E-3,-1.9884903E-3,-1.535508E-4],"split_indices":[7,7,0,7,7,0,0,0,0,0,0],"split_type":[0,0,0,0,0,0,0,0,0,0,0],"sum_hessian":[1.28E2,1.22E2,6E0,1.1E2,1.2E1,4E0,2E0,1.03E2,7E0,3E0,9E0],"tree_param":{"num_deleted":"0","num_feature":"12","num_nodes":"11","size_leaf_vector":"1"}},{"base_weights":[-4.4542332E-5,4.2248284E-3,-6.4336153E-4,-3.7331989E-3,6.348465E-3,-1.8918128E-3,2.4783465E-3,-6.762133E-4,2.6768018E-4,1.1488476E-3,2.787519E-4,-2.918098E-5,-1.4837192E-3,5.3347624E-4,-5.731514E-4],"categories":[],"categories_nodes":[],"categories_segments":[],"categories_sizes":[],"default_left":[0,0,0,0,0,0,0,0,0,0,0,0,0,0,0],"id":88,"left_children":[1,3,5,7,9,11,13,-1,-1,-1,-1,-1,-1,-1,-1],"loss_changes":[3.3251708E-4,2.9409945E-4,4.4898078E-4,9.576276E-5,2.0591856E-4,1.6941072E-3,8.044518E-4,0E0,0E0,0E0,0E0,0E0,0E0,0E0,0E0],"parents":[2147483647,0,0,1,1,2,2,3,3,4,4,5,5,6,6],"right_children":[2,4,6,8,10,12,14,-1,-1,-1,-1,-1,-1,-1,-1],"split_conditions":[7.248503E-2,-3.80692E-1,3.6619824E-1,-1.2341006E0,-6.2420356E-1,2.0376636E-1,-3.9217475E-1,-6.762133E-4,2.6768018E-4,1.1488476E-3,2.787519E-4,-2.918098E-5,-1.4837192E-3,5.3347624E-4,-5.731514E-4],"split_indices":[2,2,6,1,5,6,0,0,0,0,0,0,0,0,0],"split_type":[0,0,0,0,0,0,0,0,0,0,0,0,0,0,0],"sum_hessian":[1.28E2,1.5E1,1.13E2,3E0,1.2E1,8.1E1,3.2E1,2E0,1E0,4E0,8E0,7.3E1,8E0,2.4E1,8E0],"tree_param":{"num_deleted":"0","num_feature":"12","num_nodes":"15","size_leaf_vector":"1"}},{"base_weights":[-4.422327E-5,-5.99045E-4,4.55603E-3,1.0384282E-3,-3.9875014E-3,8.732288E-3,-8.067685E-3,5.18043E-4,-2.5497694E-4,-9.305236E-4,1.2637214E-4,1.1634638E-3,7.445155E-5,8.906321E-5,-1.135067E-3],"categories":[],"categories_nodes":[],"categories_segments":[],"categories_sizes":[],"default_left":[0,0,0,0,0,0,0,0,0,0,0,0,0,0,0],"id":89,"left_children":[1,3,5,7,9,11,13,-1,-1,-1,-1,-1,-1,-1,-1],"loss_changes":[3.319787E-4,6.477675E-4,8.0852775E-4,1.1873322E-3,1.0728942E-3,2.4635426E-4,1.2774928E-4,0E0,0E0,0E0,0E0,0E0,0E0,0E0,0E0],"parents":[2147483647,0,0,1,1,2,2,3,3,4,4,5,5,6,6],"right_children":[2,4,6,8,10,12,14,-1,-1,-1,-1,-1,-1,-1,-1],"split_conditions":[-2.4018621E-1,-4.6231446E-1,8.5111E-2,2.1794217E0,1.728386E0,-2.5414117E-2,-2.1261187E-1,5.18043E-4,-2.5497694E-4,-9.305236E-4,1.2637214E-4,1.1634638E-3,7.445155E-5,8.906321E-5,-1.135067E-3],"split_indices":[0,0,4,2,2,7,0,0,0,0,0,0,0,0,0],"split_type":[0,0,0,0,0,0,0,0,0,0,0,0,0,0,0],"sum_hessian":[1.28E2,1.15E2,1.3E1,7.8E1,3.7E1,1E1,3E0,3.6E1,4.2E1,1.8E1,1.9E1,7E0,3E0,1E0,2E0],"tree_param":{"num_deleted":"0","num_feature":"12","num_nodes":"15","size_leaf_vector":"1"}},{"base_weights":[-4.2507338E-5,2.7013302E-4,-7.850015E-3,2.282903E-3,-1.1021524E-3,5.3885356E-7,-1.3088747E-3,5.082078E-4,-5.4779224E-4,-4.0205257E-4,2.9450527E-4],"categories":[],"categories_nodes":[],"categories_segments":[],"categories_sizes":[],"default_left":[0,0,0,0,0,0,0,0,0,0,0],"id":90,"left_children":[1,3,5,7,9,-1,-1,-1,-1,-1,-1],"loss_changes":[3.1700206E-4,3.47778E-4,2.0583227E-4,1.1357587E-3,8.9768466E-4,0E0,0E0,0E0,0E0,0E0,0E0],"parents":[2147483647,0,0,1,1,2,2,3,3,4,4],"right_children":[2,4,6,8,10,-1,-1,-1,-1,-1,-1],"split_conditions":[1.566726E0,-3.410314E-1,-8.5338414E-1,-7.7827954E-1,4.0374213E-1,5.3885356E-7,-1.3088747E-3,5.082078E-4,-5.4779224E-4,-4.0205257E-4,2.9450527E-4],"split_indices":[5,7,3,1,5,0,0,0,0,0,0],"split_type":[0,0,0,0,0,0,0,0,0,0,0],"sum_hessian":[1.28E2,1.24E2,4E0,5E1,7.4E1,2E0,2E0,3.7E1,1.3E1,4.3E1,3.1E1],"tree_param":{"num_deleted":"0","num_feature":"12","num_nodes":"11","size_leaf_vector":"1"}},{"base_weights":[-4.953919E-5,-2.919883E-4,1.0230653E-2,-6.801378E-4,6.459165E-3,1.3893284E-3,1.4526956E-4,1.5424972E-6,-6.4598455E-4,7.450607E-4,2.6537068E-4],"categories":[],"categories_nodes":[],"categories_segments":[],"categories_sizes":[],"default_left":[0,0,0,0,0,0,0,0,0,0,0],"id":91,"left_children":[1,3,5,7,9,-1,-1,-1,-1,-1,-1],"loss_changes":[3.2450986E-4,3.3719107E-4,7.626854E-5,4.865377E-4,6.6384964E-6,0E0,0E0,0E0,0E0,0E0,0E0],"parents":[2147483647,0,0,1,1,2,2,3,3,4,4],"right_children":[2,4,6,8,10,-1,-1,-1,-1,-1,-1],"split_conditions":[4.7283845E0,1.6362791E0,-8.0326754E-1,1.3706566E0,-4.2134687E-1,1.3893284E-3,1.4526956E-4,1.5424972E-6,-6.4598455E-4,7.450607E-4,2.6537068E-4],"split_indices":[2,7,0,7,0,0,0,0,0,0,0],"split_type":[0,0,0,0,0,0,0,0,0,0,0],"sum_hessian":[1.28E2,1.26E2,2E0,1.2E2,6E0,1E0,1E0,1.08E2,1.2E1,4E0,2E0],"tree_param":{"num_deleted":"0","num_feature":"12","num_nodes":"11","size_leaf_vector":"1"}},{"base_weights":[-2.9852557E-5,-1.0027223E-3,2.0654085E-4,-3.7050624E-3,8.4474374E-4,-1.361953E-4,-1.4966625E-3,-1.877764E-5,4.7585275E-4],"categories":[],"categories_nodes":[],"categories_segments":[],"categories_sizes":[],"default_left":[0,0,0,0,0,0,0,0,0],"id":92,"left_children":[1,-1,3,5,7,-1,-1,-1,-1],"loss_changes":[3.069383E-4,0E0,3.2017217E-4,4.545834E-4,4.454102E-4,0E0,0E0,0E0,0E0],"parents":[2147483647,0,0,2,2,3,3,4,4],"right_children":[2,-1,4,6,8,-1,-1,-1,-1],"split_conditions":[-9.3803364E-1,-1.0027223E-3,-2.3748999E0,-2.4536812E0,5.0365794E-1,-1.361953E-4,-1.4966625E-3,-1.877764E-5,4.7585275E-4],"split_indices":[0,0,3,3,6,0,0,0,0],"split_type":[0,0,0,0,0,0,0,0,0],"sum_hessian":[1.28E2,2E0,1.26E2,1.7E1,1.09E2,1.5E1,2E0,8.7E1,2.2E1],"tree_param":{"num_deleted":"0","num_feature":"12","num_nodes":"9","size_leaf_vector":"1"}},{"base_weights":[-4.3754902E-5,-2.743252E-4,9.731639E-3,-1.2391646E-3,2.5115558E-3,1.320801E-3,1.3894495E-4,8.617556E-5,-4.277967E-4,-1.2663186E-4,9.228363E-4],"categories":[],"categories_nodes":[],"categories_segments":[],"categories_sizes":[],"default_left":[0,0,0,0,0,0,0,0,0,0,0],"id":93,"left_children":[1,3,5,7,9,-1,-1,-1,-1,-1,-1],"loss_changes":[2.9342473E-4,3.4447905E-4,6.864974E-5,6.1019324E-4,8.490693E-4,0E0,0E0,